{
    "in_shape": [
        null,
        null,
        1
    ],
    "in_gain": 12,
    "out_gain": -6.5,
    "layers": [
        {
            "type": "lstm",
            "activation": "",
            "shape": [
                null,
                null,
                12
            ],
            "weights": [
                [
                    [
                        0.02384006232023239,
                        -0.043973762542009354,
                        -0.11262132227420807,
                        -0.2961542308330536,
                        0.370907723903656,
                        -0.09407678246498108,
                        -0.3386949896812439,
                        0.08676720410585403,
                        -0.12583422660827637,
                        0.2648892402648926,
                        0.016819095239043236,
                        -0.2859477996826172,
                        -0.10340741276741028,
                        -0.40025898814201355,
                        -0.17336051166057587,
                        0.10443007946014404,
                        0.018563752993941307,
                        -0.021861011162400246,
                        -0.28089526295661926,
                        -0.10170378535985947,
                        0.7519102096557617,
                        0.008042686618864536,
                        -0.10186051577329636,
                        0.5299277901649475,
                        0.019583169370889664,
                        0.39436715841293335,
                        -0.31190812587738037,
                        0.06363110989332199,
                        -0.43368449807167053,
                        0.32513290643692017,
                        0.7308656573295593,
                        -0.18414326012134552,
                        0.32379627227783203,
                        -0.2549903690814972,
                        -0.08768363296985626,
                        0.3780212104320526,
                        -0.08537277579307556,
                        -1.3982043266296387,
                        -0.595721960067749,
                        0.21031136810779572,
                        0.26288503408432007,
                        -0.1763382852077484,
                        -0.13237352669239044,
                        -0.1089213564991951,
                        -0.32322388887405396,
                        0.13916786015033722,
                        0.18549124896526337,
                        0.19540126621723175
                    ]
                ],
                [
                    [
                        -0.07850118726491928,
                        -0.7832909226417542,
                        -0.5274296998977661,
                        0.014493338763713837,
                        0.3612091541290283,
                        0.41904783248901367,
                        -0.1214875802397728,
                        0.8254836201667786,
                        -0.8880759477615356,
                        0.17097873985767365,
                        0.34059938788414,
                        0.8346677422523499,
                        -0.24055115878582,
                        -0.8358741998672485,
                        0.005746318027377129,
                        -0.11321211606264114,
                        0.21812281012535095,
                        0.6462208032608032,
                        -0.04019193723797798,
                        0.5286279320716858,
                        -0.31896543502807617,
                        0.7527496814727783,
                        -0.07438288629055023,
                        0.3243931233882904,
                        0.7203899621963501,
                        -0.9011436104774475,
                        -0.6025875806808472,
                        -0.4657796323299408,
                        -0.455107718706131,
                        -0.3968891203403473,
                        0.06220583990216255,
                        0.1941540539264679,
                        -0.5870282649993896,
                        0.9120432734489441,
                        -0.6375938653945923,
                        -0.26580917835235596,
                        0.039614900946617126,
                        -0.09430579096078873,
                        -0.558560848236084,
                        0.022852886468172073,
                        0.31447577476501465,
                        0.3764554560184479,
                        0.17387236654758453,
                        0.6303114891052246,
                        0.05296671390533447,
                        0.32723379135131836,
                        0.17960259318351746,
                        0.2951940596103668
                    ],
                    [
                        -0.11922011524438858,
                        -0.0263083316385746,
                        0.24561363458633423,
                        -0.0070925927720963955,
                        0.38458922505378723,
                        -0.3219396770000458,
                        -1.2899590730667114,
                        -0.23843532800674438,
                        -1.0997169017791748,
                        -0.29876023530960083,
                        -0.31636059284210205,
                        -0.052350617945194244,
                        0.2706315815448761,
                        0.44965481758117676,
                        0.225880429148674,
                        -0.05229082703590393,
                        0.31740802526474,
                        -0.5434923768043518,
                        0.48073577880859375,
                        -0.24367062747478485,
                        1.1441506147384644,
                        -0.16109181940555573,
                        -0.2556571364402771,
                        0.5834474563598633,
                        0.02677309140563011,
                        0.24913591146469116,
                        1.23911452293396,
                        0.10416655242443085,
                        -0.8330233693122864,
                        -2.082163095474243,
                        0.2017698734998703,
                        -1.4227112531661987,
                        -0.26910892128944397,
                        -0.9127238988876343,
                        -0.7412672638893127,
                        -0.4167667329311371,
                        0.03819449618458748,
                        0.09031420201063156,
                        -0.2045384794473648,
                        -0.00012514131958596408,
                        0.3722178339958191,
                        -0.25955891609191895,
                        0.03727390617132187,
                        -0.022370105609297752,
                        -0.566927969455719,
                        0.1306629329919815,
                        0.049779262393713,
                        0.5903960466384888
                    ],
                    [
                        0.26127487421035767,
                        0.312207967042923,
                        0.4358738362789154,
                        0.025513049215078354,
                        -0.19756458699703217,
                        0.014720281586050987,
                        0.7044731974601746,
                        -0.5750185251235962,
                        0.8280899524688721,
                        0.46401646733283997,
                        -0.12877626717090607,
                        0.7490325570106506,
                        -0.6646444201469421,
                        -0.8139035701751709,
                        0.1566772758960724,
                        -1.0863263607025146,
                        0.26216650009155273,
                        -0.4532235562801361,
                        0.8003929257392883,
                        -0.37186264991760254,
                        -0.13486026227474213,
                        -1.115906834602356,
                        -0.6201913356781006,
                        0.49805736541748047,
                        0.5214722752571106,
                        -0.1500965654850006,
                        -0.058258622884750366,
                        -0.2906744182109833,
                        -0.699434757232666,
                        -0.1213134229183197,
                        0.15722085535526276,
                        0.6325702667236328,
                        -1.1645638942718506,
                        0.5877476334571838,
                        -0.0043362947180867195,
                        0.05579255148768425,
                        0.15917399525642395,
                        -0.2933245897293091,
                        0.4651215076446533,
                        0.03882179781794548,
                        -0.22443345189094543,
                        -0.0009324224083684385,
                        0.08669863641262054,
                        -0.4360867142677307,
                        -0.22982193529605865,
                        -0.11491859704256058,
                        -0.19033567607402802,
                        0.19413001835346222
                    ],
                    [
                        -0.5354917645454407,
                        0.18780246376991272,
                        0.22367092967033386,
                        0.04557710886001587,
                        -0.37211132049560547,
                        -0.147582545876503,
                        0.39454901218414307,
                        0.10572497546672821,
                        0.4801637530326843,
                        0.18237894773483276,
                        -0.36346712708473206,
                        -0.022683052346110344,
                        -1.0292776823043823,
                        0.45036453008651733,
                        0.6773356199264526,
                        0.11883606761693954,
                        -0.39355170726776123,
                        -0.08621934056282043,
                        0.3293726146221161,
                        0.3383848965167999,
                        -0.1293603628873825,
                        0.264804482460022,
                        0.36740830540657043,
                        0.12063352763652802,
                        0.09307173639535904,
                        0.21861274540424347,
                        0.0029506732244044542,
                        0.6638804078102112,
                        -0.15746745467185974,
                        0.6307207942008972,
                        -0.12282354384660721,
                        -1.173143744468689,
                        -0.12396211922168732,
                        0.7398678660392761,
                        -1.0643694400787354,
                        0.02016070857644081,
                        -0.44675514101982117,
                        -0.42440205812454224,
                        0.20202352106571198,
                        0.18106727302074432,
                        -0.20685438811779022,
                        -0.024378543719649315,
                        -0.46058446168899536,
                        0.04661213979125023,
                        0.30100017786026,
                        0.236520454287529,
                        -0.06152244657278061,
                        0.07262449711561203
                    ],
                    [
                        0.13609586656093597,
                        -0.5953478217124939,
                        -0.04447879269719124,
                        0.4479800760746002,
                        0.513499915599823,
                        0.25737157464027405,
                        0.10837628692388535,
                        0.489719420671463,
                        -0.09365038573741913,
                        0.2810673117637634,
                        0.5832875370979309,
                        -0.4542961120605469,
                        0.3205799460411072,
                        -0.2326173633337021,
                        0.3826930820941925,
                        0.2182880938053131,
                        -0.9177795052528381,
                        0.07136814296245575,
                        0.07460034638643265,
                        -0.1174866333603859,
                        0.11489291489124298,
                        0.317801296710968,
                        0.02427436038851738,
                        -0.3997109830379486,
                        -0.19432125985622406,
                        -0.049490489065647125,
                        -0.3356063961982727,
                        0.40629830956459045,
                        -1.1604516506195068,
                        -0.29678875207901,
                        -0.5747039318084717,
                        0.8329480886459351,
                        -0.25871753692626953,
                        -0.3712458908557892,
                        -0.08729704469442368,
                        0.31886348128318787,
                        -0.21501319110393524,
                        1.0516480207443237,
                        0.21325106918811798,
                        0.3200110197067261,
                        -7.816694414941594e-05,
                        0.31080105900764465,
                        -0.7276385426521301,
                        0.33996620774269104,
                        -0.5183268189430237,
                        0.1894860565662384,
                        0.09450198709964752,
                        1.238425374031067
                    ],
                    [
                        0.35455477237701416,
                        -0.7956250309944153,
                        -0.47801539301872253,
                        0.21682459115982056,
                        0.2868252992630005,
                        0.23002585768699646,
                        0.3123871982097626,
                        -0.004055519122630358,
                        0.10723475366830826,
                        0.30746448040008545,
                        0.6147412657737732,
                        -0.026088736951351166,
                        -0.08449149131774902,
                        -0.19555534422397614,
                        -0.37142497301101685,
                        0.24975158274173737,
                        -0.5391419529914856,
                        0.25231418013572693,
                        0.4099182188510895,
                        0.006660666316747665,
                        0.3320038616657257,
                        0.24417129158973694,
                        0.2300569862127304,
                        -1.036554217338562,
                        -0.05083101615309715,
                        -0.7160224914550781,
                        -0.4552637040615082,
                        -0.7718791961669922,
                        -0.48990750312805176,
                        -0.30484944581985474,
                        -0.4674435257911682,
                        -0.8933202028274536,
                        -0.5374141335487366,
                        0.408244252204895,
                        0.522982656955719,
                        0.2092256098985672,
                        0.17739516496658325,
                        1.9544235467910767,
                        -0.13062432408332825,
                        0.1981092095375061,
                        0.16770124435424805,
                        0.2789919376373291,
                        0.38067030906677246,
                        -0.017841126769781113,
                        0.28447163105010986,
                        0.31966719031333923,
                        0.2521861791610718,
                        0.0065111201256513596
                    ],
                    [
                        -0.43826404213905334,
                        0.8871130347251892,
                        0.16096730530261993,
                        -0.08403612673282623,
                        -0.3438020944595337,
                        -0.23351027071475983,
                        -0.20141460001468658,
                        -0.6030698418617249,
                        -0.3233165144920349,
                        -0.02415161393582821,
                        0.15758205950260162,
                        0.08766301721334457,
                        -0.20472177863121033,
                        -0.35929760336875916,
                        0.27570030093193054,
                        0.10929936915636063,
                        -0.15152762830257416,
                        -0.3742336630821228,
                        -0.4203217625617981,
                        -0.22736452519893646,
                        -0.7720115780830383,
                        0.3396032750606537,
                        0.6079542636871338,
                        0.36151203513145447,
                        -0.4600154757499695,
                        -0.1731008142232895,
                        0.2560034394264221,
                        0.6555601358413696,
                        -0.4058193564414978,
                        -0.44561567902565,
                        1.1178816556930542,
                        -0.9945313334465027,
                        0.886526882648468,
                        -0.005214359611272812,
                        0.8388222455978394,
                        0.5069193840026855,
                        -0.35301148891448975,
                        0.06989225000143051,
                        0.27559152245521545,
                        0.06336236000061035,
                        -0.4071662425994873,
                        -0.2251037359237671,
                        -0.01597702130675316,
                        -0.4478622078895569,
                        -0.46572399139404297,
                        -0.04802346229553223,
                        0.04048514738678932,
                        -0.24302998185157776
                    ],
                    [
                        0.11997868120670319,
                        -0.31967514753341675,
                        0.6386201977729797,
                        0.04998195543885231,
                        0.08477908372879028,
                        0.26528453826904297,
                        -0.3040795624256134,
                        -0.11135540157556534,
                        -0.8476571440696716,
                        0.46134039759635925,
                        0.822498083114624,
                        0.10996542125940323,
                        0.5052524209022522,
                        -0.4404062032699585,
                        -0.5935140252113342,
                        -0.1438053548336029,
                        0.47237271070480347,
                        0.535865306854248,
                        0.31700342893600464,
                        0.09466776251792908,
                        -0.011151542887091637,
                        0.2630371153354645,
                        0.044508423656225204,
                        -0.12896768748760223,
                        0.6152676939964294,
                        0.47451138496398926,
                        -0.020557383075356483,
                        1.3732026815414429,
                        -0.9255487322807312,
                        0.6151947379112244,
                        0.6334133148193359,
                        -0.4498099088668823,
                        0.3429161012172699,
                        -1.1451183557510376,
                        0.6621102094650269,
                        0.06136103346943855,
                        -0.23446522653102875,
                        1.1621357202529907,
                        -0.15626969933509827,
                        0.07981637865304947,
                        0.14508050680160522,
                        0.24693424999713898,
                        0.7438713312149048,
                        -0.06415059417486191,
                        0.4088822901248932,
                        -0.10742295533418655,
                        0.19101041555404663,
                        -0.036952435970306396
                    ],
                    [
                        -0.3172438144683838,
                        -0.6393277049064636,
                        0.16630662977695465,
                        0.01355340052396059,
                        0.3654930293560028,
                        0.40804150700569153,
                        0.03587525337934494,
                        0.4716947376728058,
                        -0.3564387857913971,
                        0.4970971643924713,
                        0.6327029466629028,
                        0.015786876901984215,
                        -0.47182464599609375,
                        -0.2798318862915039,
                        -0.4227842092514038,
                        -0.311431348323822,
                        -0.4103441834449768,
                        0.6370372772216797,
                        0.9716542363166809,
                        0.40035760402679443,
                        0.24615320563316345,
                        -0.21737346053123474,
                        0.0034634985495358706,
                        0.793016254901886,
                        0.5109443068504333,
                        -0.20236104726791382,
                        -0.01684732735157013,
                        0.42810967564582825,
                        -0.04572860896587372,
                        -0.46269699931144714,
                        -0.6743862628936768,
                        0.35052409768104553,
                        0.4445461630821228,
                        -0.6314523816108704,
                        0.8446856141090393,
                        -0.2900444269180298,
                        -0.16068071126937866,
                        0.5310689806938171,
                        0.23461304605007172,
                        0.0007831018883734941,
                        0.4024012088775635,
                        0.4184566140174866,
                        0.4854540526866913,
                        0.4750806987285614,
                        0.006385631859302521,
                        0.017687544226646423,
                        0.3903469145298004,
                        0.9611577987670898
                    ],
                    [
                        -0.11120302230119705,
                        0.38841190934181213,
                        -0.4559553265571594,
                        -0.4729723632335663,
                        0.2904451787471771,
                        -0.21057739853858948,
                        -0.015080593526363373,
                        0.019780630245804787,
                        0.6958208084106445,
                        -0.09671425074338913,
                        0.21447254717350006,
                        0.6107725501060486,
                        -1.0785990953445435,
                        -0.02652641013264656,
                        0.6715974807739258,
                        0.3735407590866089,
                        -0.634506344795227,
                        0.32123932242393494,
                        0.2956394553184509,
                        0.1112111508846283,
                        -0.17823153734207153,
                        0.05607448145747185,
                        0.4688340425491333,
                        -0.6236107349395752,
                        -0.8956593871116638,
                        0.6579894423484802,
                        -1.2698044776916504,
                        0.44564735889434814,
                        -0.7148551940917969,
                        -0.41776391863822937,
                        0.8759059309959412,
                        0.3344891667366028,
                        0.786649227142334,
                        0.34155556559562683,
                        -0.15827339887619019,
                        0.9558449387550354,
                        0.34731993079185486,
                        1.0515353679656982,
                        0.042027078568935394,
                        0.04902813956141472,
                        -0.013149289414286613,
                        -0.27228543162345886,
                        0.5024129152297974,
                        0.10024093091487885,
                        -0.2596382796764374,
                        0.3271920680999756,
                        -0.01398293487727642,
                        0.07846056669950485
                    ],
                    [
                        -0.01229449175298214,
                        -0.6711740493774414,
                        0.12451310455799103,
                        0.11746978759765625,
                        0.029975106939673424,
                        -0.1865244358778,
                        0.27795282006263733,
                        0.3195195496082306,
                        -0.4104890823364258,
                        0.11610753834247589,
                        0.18934515118598938,
                        -0.31061631441116333,
                        0.012594342231750488,
                        0.09795355796813965,
                        -0.026193132624030113,
                        -0.020894672721624374,
                        -0.04320186376571655,
                        0.05603805556893349,
                        0.6533393859863281,
                        0.16230084002017975,
                        0.7123686075210571,
                        -0.47354477643966675,
                        -0.26774272322654724,
                        -0.5498162508010864,
                        1.3168070316314697,
                        -0.43477723002433777,
                        0.6843398213386536,
                        1.0331307649612427,
                        0.6237470507621765,
                        -0.4369184672832489,
                        -1.0491349697113037,
                        -0.38178661465644836,
                        -1.0248119831085205,
                        1.0278708934783936,
                        0.15976646542549133,
                        0.41694653034210205,
                        -0.12725648283958435,
                        0.35303759574890137,
                        -0.0612105131149292,
                        0.21734757721424103,
                        0.0963798388838768,
                        -0.1056392714381218,
                        0.34177303314208984,
                        0.21381385624408722,
                        -0.08405530452728271,
                        0.014502697624266148,
                        0.08910953998565674,
                        -0.0603908970952034
                    ],
                    [
                        -0.5008676648139954,
                        0.32796725630760193,
                        0.20124152302742004,
                        0.05509548634290695,
                        -0.36391332745552063,
                        0.08422382175922394,
                        1.0371754169464111,
                        0.14157278835773468,
                        0.8593702912330627,
                        -0.14718441665172577,
                        0.044675569981336594,
                        -0.29733607172966003,
                        -0.24762603640556335,
                        -0.19723981618881226,
                        -0.012079539708793163,
                        -0.42314285039901733,
                        -0.2824426293373108,
                        0.16815711557865143,
                        -0.14670123159885406,
                        -0.05959741771221161,
                        -0.5543153285980225,
                        -0.0588885098695755,
                        0.3917470872402191,
                        0.20527780055999756,
                        -0.18970051407814026,
                        -0.07753241807222366,
                        0.8385082483291626,
                        0.429490864276886,
                        0.8121877908706665,
                        -0.9284175634384155,
                        -0.4776296317577362,
                        -0.6314800977706909,
                        0.004311344586312771,
                        -1.0353785753250122,
                        -0.6412853002548218,
                        0.30777737498283386,
                        -0.3480905592441559,
                        0.4665115773677826,
                        0.0859207883477211,
                        0.018362028524279594,
                        -0.38821500539779663,
                        0.022433923557400703,
                        0.10721618682146072,
                        -0.024117691442370415,
                        0.3614329993724823,
                        -0.1281920224428177,
                        0.011863423511385918,
                        -0.9666073322296143
                    ]
                ],
                [
                    -0.8345342874526978,
                    -2.0395102500915527,
                    -0.9926055669784546,
                    0.8011200428009033,
                    1.4942138195037842,
                    1.2171320915222168,
                    -1.9754542112350464,
                    0.5512497425079346,
                    -2.2939200401306152,
                    0.7869939804077148,
                    0.6136798858642578,
                    -1.4064044952392578,
                    0.6225537061691284,
                    2.8308496475219727,
                    1.1616801023483276,
                    -0.6533336639404297,
                    -0.22256845235824585,
                    -0.9215747117996216,
                    3.3619370460510254,
                    -1.254563808441162,
                    3.2921574115753174,
                    0.27095845341682434,
                    -0.16192173957824707,
                    1.3786870241165161,
                    -0.24083802103996277,
                    0.6704514026641846,
                    -0.3780795931816101,
                    -0.03697294741868973,
                    0.4532198905944824,
                    0.5394209623336792,
                    0.04394117742776871,
                    0.18742261826992035,
                    0.28247541189193726,
                    0.16283372044563293,
                    0.12818558514118195,
                    -0.20758605003356934,
                    0.3769795298576355,
                    -0.5705631375312805,
                    -0.06935752928256989,
                    1.0406396389007568,
                    1.449019193649292,
                    1.5149097442626953,
                    -0.7036532163619995,
                    1.021531343460083,
                    0.08424290269613266,
                    2.3004069328308105,
                    1.70890212059021,
                    -0.21323922276496887
                ]
            ]
        },
        {
            "type": "dense",
            "activation": "",
            "shape": [
                null,
                null,
                1
            ],
            "weights": [
                [
                    [
                        0.11949474364519119
                    ],
                    [
                        -0.26346176862716675
                    ],
                    [
                        -0.4897770881652832
                    ],
                    [
                        -0.4037662446498871
                    ],
                    [
                        -0.8030933141708374
                    ],
                    [
                        -0.1893177628517151
                    ],
                    [
                        -0.6511443853378296
                    ],
                    [
                        0.8138033747673035
                    ],
                    [
                        -0.49334949254989624
                    ],
                    [
                        0.7341240644454956
                    ],
                    [
                        -0.6293686032295227
                    ],
                    [
                        0.012443086132407188
                    ]
                ],
                [
                    0.036665160208940506
                ]
            ]
        }
    ],
    "samplerate": 48000.0,
    "author": "AIDA DSP",
    "esr": 0.016560297459363937
}
