{
    "in_shape": [
        null,
        null,
        1
    ],
    "in_gain": 6,
    "out_gain": -3,
    "layers": [
        {
            "type": "lstm",
            "activation": "",
            "shape": [
                null,
                null,
                12
            ],
            "weights": [
                [
                    [
                        0.1935909241437912,
                        -0.02749340794980526,
                        0.22110235691070557,
                        0.18014214932918549,
                        -0.011645001359283924,
                        -0.46962276101112366,
                        -0.36081939935684204,
                        -0.8146209120750427,
                        0.13109390437602997,
                        0.052483998239040375,
                        -0.08936980366706848,
                        -0.03914784640073776,
                        -0.27820053696632385,
                        -0.009415543638169765,
                        0.37350356578826904,
                        -0.2643272280693054,
                        -0.09157213568687439,
                        -0.37746697664260864,
                        -0.0970776304602623,
                        0.38828223943710327,
                        0.024512963369488716,
                        -0.3128480315208435,
                        0.12189199030399323,
                        -0.13092941045761108,
                        -0.41188523173332214,
                        -0.21601983904838562,
                        -0.16352038085460663,
                        -0.6270058751106262,
                        -0.34657156467437744,
                        0.15794262290000916,
                        0.2967572510242462,
                        0.3536284267902374,
                        -0.4668680429458618,
                        0.6586112380027771,
                        -0.05417614057660103,
                        -0.1271970123052597,
                        -0.1934979110956192,
                        -0.07194848358631134,
                        -0.6556078195571899,
                        0.2856904864311218,
                        -0.014341957867145538,
                        0.5203296542167664,
                        0.5807220935821533,
                        0.13122248649597168,
                        -1.0767240524291992,
                        0.758156418800354,
                        -0.035312626510858536,
                        0.3887738585472107
                    ]
                ],
                [
                    [
                        -0.5445714592933655,
                        0.03651762008666992,
                        -0.16458508372306824,
                        -0.07585771381855011,
                        -0.018130581825971603,
                        0.10454747080802917,
                        -0.15517985820770264,
                        0.15356726944446564,
                        -0.08329055458307266,
                        0.3273286521434784,
                        0.022526217624545097,
                        0.011863486841320992,
                        0.14899842441082,
                        0.19999967515468597,
                        -0.23866714537143707,
                        -0.36372053623199463,
                        0.023622076958417892,
                        -0.3636205196380615,
                        -0.2071964591741562,
                        0.21945342421531677,
                        -0.3579612076282501,
                        0.18344102799892426,
                        -0.1143360286951065,
                        -0.1199120432138443,
                        0.2662913203239441,
                        -0.226683109998703,
                        -0.47673550248146057,
                        -0.5571154952049255,
                        -0.06090276315808296,
                        0.06895854324102402,
                        0.5729590654373169,
                        1.0416690111160278,
                        -0.06262984871864319,
                        0.21338774263858795,
                        -0.642911434173584,
                        0.21719345450401306,
                        -0.45502644777297974,
                        0.02587999403476715,
                        -0.47173944115638733,
                        -0.12665337324142456,
                        0.019301017746329308,
                        -0.7035738825798035,
                        0.24176152050495148,
                        -0.08071485161781311,
                        -0.3899214267730713,
                        0.3637206554412842,
                        0.025471648201346397,
                        0.1798347383737564
                    ],
                    [
                        0.019602544605731964,
                        -0.02187068574130535,
                        -0.002852902514860034,
                        -0.1186152771115303,
                        0.011113143526017666,
                        -0.02082231268286705,
                        0.2183443158864975,
                        0.12864486873149872,
                        -0.14009951055049896,
                        0.09826008975505829,
                        -0.05997119098901749,
                        -0.052479520440101624,
                        0.0787331610918045,
                        -0.18981696665287018,
                        -0.061238642781972885,
                        0.03675275668501854,
                        -0.09993498772382736,
                        0.13158564269542694,
                        0.16858866810798645,
                        -0.2548428773880005,
                        -0.1298491209745407,
                        0.38636651635169983,
                        0.0016477579483762383,
                        0.12290419638156891,
                        -0.6121156811714172,
                        -0.11754927039146423,
                        -0.23525306582450867,
                        -0.29398196935653687,
                        -0.6411880850791931,
                        -0.01634369045495987,
                        -1.4529509544372559,
                        0.45116814970970154,
                        -0.04576527699828148,
                        0.08084653317928314,
                        -1.1620800495147705,
                        0.6685932874679565,
                        -0.02341245487332344,
                        -0.019027484580874443,
                        0.023089708760380745,
                        -0.03866799920797348,
                        -0.015411307103931904,
                        -0.06091231480240822,
                        0.12549343705177307,
                        0.30233269929885864,
                        -0.10191495716571808,
                        0.308452844619751,
                        -0.07115717977285385,
                        -0.03610805422067642
                    ],
                    [
                        -0.8235380053520203,
                        0.1504518985748291,
                        -0.0759492814540863,
                        -0.5178931951522827,
                        0.34455665946006775,
                        -0.8917259573936462,
                        0.14753973484039307,
                        -0.8620027899742126,
                        -0.46892598271369934,
                        0.13022559881210327,
                        0.895988404750824,
                        0.12333614379167557,
                        1.7246419191360474,
                        0.004937244113534689,
                        0.8343470096588135,
                        0.8175054788589478,
                        -0.12196577340364456,
                        0.8473154306411743,
                        0.04617603123188019,
                        0.8658941984176636,
                        0.10542386025190353,
                        0.09466607868671417,
                        0.26884791254997253,
                        -0.016912929713726044,
                        0.11359627544879913,
                        -0.2104899138212204,
                        0.2841252088546753,
                        0.18739575147628784,
                        -0.10239934176206589,
                        0.06467918306589127,
                        0.19964878261089325,
                        -0.3291182219982147,
                        -0.10814960300922394,
                        0.07810456305742264,
                        -0.0740957111120224,
                        -0.25259944796562195,
                        0.2705411911010742,
                        0.43403446674346924,
                        0.5449730157852173,
                        0.24851815402507782,
                        0.5181440711021423,
                        0.14359153807163239,
                        0.31489983201026917,
                        0.3262293040752411,
                        -0.061217982321977615,
                        -0.005802229978144169,
                        0.9019295573234558,
                        0.3757578730583191
                    ],
                    [
                        0.1720600128173828,
                        -0.01652797870337963,
                        0.007956442423164845,
                        0.08350558578968048,
                        0.10488274693489075,
                        -0.5908735394477844,
                        0.06541888415813446,
                        0.10908389836549759,
                        -0.437737375497818,
                        0.12898050248622894,
                        0.002092634327709675,
                        0.09767069667577744,
                        0.05870189145207405,
                        0.17450539767742157,
                        0.032818857580423355,
                        0.3879122734069824,
                        0.13550972938537598,
                        0.4265296161174774,
                        -0.0996418371796608,
                        0.33474358916282654,
                        -0.08906333148479462,
                        0.21492412686347961,
                        0.07405577600002289,
                        0.29527372121810913,
                        0.34623900055885315,
                        0.24105757474899292,
                        0.14948898553848267,
                        0.38367795944213867,
                        0.4904135465621948,
                        0.28665900230407715,
                        -0.13769225776195526,
                        -0.22952942550182343,
                        -0.16789722442626953,
                        -0.11259495466947556,
                        -0.7831870317459106,
                        0.1586379110813141,
                        0.04727703705430031,
                        0.01774361915886402,
                        0.025785399600863457,
                        0.12706774473190308,
                        0.05717601627111435,
                        0.01960691623389721,
                        0.07112861424684525,
                        0.14500446617603302,
                        -0.7982223629951477,
                        0.05418097600340843,
                        -0.003919821232557297,
                        -0.008226480334997177
                    ],
                    [
                        -0.14637470245361328,
                        0.021083097904920578,
                        -0.0655241385102272,
                        0.1343538910150528,
                        -0.05085961893200874,
                        0.24545496702194214,
                        0.13724002242088318,
                        -0.4519694447517395,
                        0.8482229113578796,
                        0.14719657599925995,
                        -0.02443256787955761,
                        -0.011569615453481674,
                        -0.054088905453681946,
                        -0.18325234949588776,
                        0.04146558418869972,
                        -0.09983894973993301,
                        -0.2826909124851227,
                        0.05852249264717102,
                        -0.0047116889618337154,
                        -0.12701860070228577,
                        0.45223644375801086,
                        0.18470530211925507,
                        0.3903540372848511,
                        -0.24827271699905396,
                        0.020810220390558243,
                        0.3878404498100281,
                        0.08988070487976074,
                        -0.6956586837768555,
                        0.3382481038570404,
                        0.6579968333244324,
                        -0.595316469669342,
                        0.49743956327438354,
                        0.6942179799079895,
                        0.4381943345069885,
                        -0.776481568813324,
                        -1.2568995952606201,
                        -0.22780346870422363,
                        -0.005335868801921606,
                        0.3657616078853607,
                        -0.004698733799159527,
                        -0.04834084212779999,
                        0.011298111639916897,
                        0.3047000467777252,
                        -0.04663939028978348,
                        -1.1027061939239502,
                        0.5036457180976868,
                        0.007919708266854286,
                        0.25789448618888855
                    ],
                    [
                        0.36892440915107727,
                        -0.05287482962012291,
                        -0.19168321788311005,
                        0.22440946102142334,
                        -0.2916279435157776,
                        0.2947216331958771,
                        0.006695724558085203,
                        0.4887976050376892,
                        0.4077293574810028,
                        0.30401095747947693,
                        -0.2868204414844513,
                        0.14954522252082825,
                        -0.7170255780220032,
                        0.5286760330200195,
                        -0.5312340259552002,
                        -0.7699005007743835,
                        0.3190663158893585,
                        -0.9941414594650269,
                        -0.15448255836963654,
                        -0.32454800605773926,
                        -0.1770039051771164,
                        0.24525444209575653,
                        0.08998659998178482,
                        -0.22545747458934784,
                        0.40141743421554565,
                        -0.18366722762584686,
                        -0.2930601239204407,
                        -0.3770785927772522,
                        -0.41385355591773987,
                        0.5623329877853394,
                        -0.5429781079292297,
                        -0.020974956452846527,
                        -0.08366342633962631,
                        0.12005753070116043,
                        0.5522444248199463,
                        0.6180359721183777,
                        -0.9284836649894714,
                        -0.1773160994052887,
                        -0.48345375061035156,
                        -0.015701361000537872,
                        -0.2363167554140091,
                        -0.27171558141708374,
                        0.34908896684646606,
                        0.20939676463603973,
                        -0.19649723172187805,
                        0.2891550064086914,
                        -0.28264015913009644,
                        0.08954989165067673
                    ],
                    [
                        0.09568171948194504,
                        -0.10317201167345047,
                        0.04906895011663437,
                        0.22981896996498108,
                        -0.12606854736804962,
                        0.8390493392944336,
                        -0.20828552544116974,
                        -0.11698094755411148,
                        0.23494677245616913,
                        -0.026135306805372238,
                        -0.1104368045926094,
                        0.08360391110181808,
                        -0.09933584183454514,
                        0.040395621210336685,
                        -0.0870412066578865,
                        -0.07888129353523254,
                        0.02433916926383972,
                        -0.40592890977859497,
                        -0.0813184604048729,
                        -0.45688387751579285,
                        -0.21655036509037018,
                        0.1529853194952011,
                        0.35030031204223633,
                        -0.03566759079694748,
                        -0.309613436460495,
                        1.5329017639160156,
                        0.06748267263174057,
                        -0.3247353732585907,
                        0.1333189159631729,
                        0.3801800608634949,
                        -0.1810443252325058,
                        0.08326825499534607,
                        -0.1771947294473648,
                        0.4535464942455292,
                        0.622359037399292,
                        0.027707641944289207,
                        -0.0048684547655284405,
                        -0.07261038571596146,
                        -0.4493064284324646,
                        0.1379041075706482,
                        -0.04869362711906433,
                        -0.07733750343322754,
                        0.08310914039611816,
                        -0.15582631528377533,
                        0.769169807434082,
                        0.02761363983154297,
                        -0.10467137396335602,
                        0.036951109766960144
                    ],
                    [
                        0.06301265209913254,
                        -0.03271454572677612,
                        -0.08464810252189636,
                        0.262622207403183,
                        -0.02662505954504013,
                        0.756233274936676,
                        0.13673712313175201,
                        0.7552329897880554,
                        0.16938497126102448,
                        0.06606199592351913,
                        -0.15500672161579132,
                        0.1618652194738388,
                        -0.25791212916374207,
                        -0.3112278878688812,
                        -0.2623545229434967,
                        -0.20127175748348236,
                        -0.021373214200139046,
                        -0.7468738555908203,
                        0.3356306254863739,
                        -0.5762825012207031,
                        0.16621942818164825,
                        0.4868016839027405,
                        0.03576056659221649,
                        0.39377593994140625,
                        -0.25613731145858765,
                        0.304861456155777,
                        -0.5074760913848877,
                        -0.04843087121844292,
                        -0.16834166646003723,
                        -0.20651425421237946,
                        0.053626783192157745,
                        0.19618983566761017,
                        -0.012648327276110649,
                        0.4526902437210083,
                        0.7490708231925964,
                        -0.28316256403923035,
                        0.24882443249225616,
                        -0.07994150370359421,
                        -0.1586976945400238,
                        0.03110307827591896,
                        -0.018983975052833557,
                        0.07454138249158859,
                        0.002748378086835146,
                        0.09572911262512207,
                        0.08575552701950073,
                        0.05203854665160179,
                        -0.16024620831012726,
                        0.03679143637418747
                    ],
                    [
                        -0.7272928953170776,
                        0.08226596564054489,
                        -0.017833448946475983,
                        -0.08178743720054626,
                        -0.02003251388669014,
                        -0.7154225707054138,
                        0.13596077263355255,
                        -0.366333931684494,
                        -0.4998237192630768,
                        -0.0599079392850399,
                        0.49291008710861206,
                        -0.08693818002939224,
                        0.5770769119262695,
                        0.04959840327501297,
                        0.41070979833602905,
                        0.4228924512863159,
                        -0.3806936740875244,
                        0.7163946032524109,
                        -0.04638081416487694,
                        0.6944678425788879,
                        -0.03973142430186272,
                        -0.49874401092529297,
                        0.22968395054340363,
                        -0.17580115795135498,
                        -0.042148981243371964,
                        0.174391508102417,
                        0.2679139971733093,
                        0.09481585770845413,
                        -1.1840397119522095,
                        0.2318321168422699,
                        -0.7147260308265686,
                        0.0027390001341700554,
                        0.13827674090862274,
                        -0.5100720524787903,
                        1.5981310606002808,
                        -0.014114267192780972,
                        0.1435030698776245,
                        0.16723795235157013,
                        0.23012585937976837,
                        -0.07951361685991287,
                        0.1762508749961853,
                        -0.2124500274658203,
                        0.34696224331855774,
                        0.02471492812037468,
                        0.1913239061832428,
                        -0.1176525205373764,
                        0.532467782497406,
                        0.1419341266155243
                    ],
                    [
                        -0.9142664074897766,
                        0.11215154081583023,
                        -0.07831533998250961,
                        -0.4374593198299408,
                        0.13529106974601746,
                        -0.9457154870033264,
                        -0.31540200114250183,
                        -0.5813405513763428,
                        0.2923521399497986,
                        -0.009067104198038578,
                        0.1383398324251175,
                        -0.18795020878314972,
                        0.253212034702301,
                        -0.21251991391181946,
                        0.4460499584674835,
                        0.46373656392097473,
                        -0.311347097158432,
                        0.5597682595252991,
                        -0.03207002952694893,
                        0.6136971712112427,
                        1.0931031703948975,
                        -0.26659587025642395,
                        -0.08053001016378403,
                        -0.050469666719436646,
                        0.03440782427787781,
                        -0.28150588274002075,
                        -0.1878892183303833,
                        -0.32697561383247375,
                        -0.03950909525156021,
                        0.037129923701286316,
                        0.07037060707807541,
                        0.13092584908008575,
                        0.5222224593162537,
                        -0.004132073372602463,
                        -0.6315562725067139,
                        0.509284257888794,
                        -0.12380160391330719,
                        0.11746075749397278,
                        -0.40490448474884033,
                        -0.0279620923101902,
                        0.1225549504160881,
                        -0.3625437021255493,
                        -0.13879702985286713,
                        -0.2263077348470688,
                        -0.13391973078250885,
                        0.3570135533809662,
                        0.18207813799381256,
                        0.15056200325489044
                    ],
                    [
                        -0.32207340002059937,
                        0.05172710865736008,
                        0.11372395604848862,
                        -0.1701965183019638,
                        0.09739446640014648,
                        0.19049793481826782,
                        -0.13775548338890076,
                        -0.3787898123264313,
                        0.1437651515007019,
                        -0.3831672966480255,
                        0.027123546227812767,
                        -0.03049786016345024,
                        0.34361064434051514,
                        0.299988716840744,
                        0.49178987741470337,
                        0.30278119444847107,
                        0.0339159294962883,
                        1.186389684677124,
                        0.08209379762411118,
                        0.3625776171684265,
                        -0.039798568934202194,
                        -0.6970075964927673,
                        0.03785201162099838,
                        -0.055626459419727325,
                        0.294255793094635,
                        0.46390300989151,
                        0.27561578154563904,
                        0.7135043740272522,
                        -0.38724613189697266,
                        -0.4223972260951996,
                        -0.2081669420003891,
                        0.10947640985250473,
                        0.05616951733827591,
                        -0.6449971795082092,
                        -0.17979025840759277,
                        -0.48553967475891113,
                        0.10256226360797882,
                        0.009321511723101139,
                        -0.19194921851158142,
                        -0.017285197973251343,
                        0.04912097007036209,
                        1.2988498210906982,
                        0.30178436636924744,
                        0.486238032579422,
                        -1.6176702976226807,
                        -0.020197197794914246,
                        0.1149173453450203,
                        -0.027039527893066406
                    ],
                    [
                        -0.15613166987895966,
                        0.014319699257612228,
                        0.038732778280973434,
                        0.09324391931295395,
                        -0.01701946184039116,
                        -0.019870813935995102,
                        0.03862601891160011,
                        -0.44693660736083984,
                        -0.06553784757852554,
                        -0.05841188132762909,
                        -0.0031517967581748962,
                        -0.0969402939081192,
                        -0.07012122869491577,
                        0.124412901699543,
                        0.08739206194877625,
                        -0.15637236833572388,
                        0.1200203001499176,
                        0.28558358550071716,
                        0.04292288422584534,
                        0.25213104486465454,
                        -0.09859047830104828,
                        -0.2560996413230896,
                        0.252437561750412,
                        -0.033626750111579895,
                        -0.07612352818250656,
                        -0.31291693449020386,
                        0.03333582356572151,
                        0.0035481592640280724,
                        1.5869237184524536,
                        -0.3923523426055908,
                        -0.6995044946670532,
                        0.1101851761341095,
                        -0.2801158130168915,
                        -0.4669744670391083,
                        0.5240831971168518,
                        0.09983149915933609,
                        -0.05657399818301201,
                        0.06629496812820435,
                        -0.3210427761077881,
                        0.028650585561990738,
                        0.031102919951081276,
                        0.0928545892238617,
                        0.19607378542423248,
                        -0.12905126810073853,
                        -0.44859009981155396,
                        0.0446876585483551,
                        0.011181306093931198,
                        0.1297243982553482
                    ]
                ],
                [
                    -2.7222299575805664,
                    0.5467202663421631,
                    -0.5081528425216675,
                    -1.3844597339630127,
                    1.0827733278274536,
                    -1.4365198612213135,
                    0.527797520160675,
                    -1.7265150547027588,
                    -0.35131803154945374,
                    0.5365244746208191,
                    1.9692955017089844,
                    0.15351180732250214,
                    2.999566078186035,
                    -0.04534630477428436,
                    1.1160969734191895,
                    1.3383269309997559,
                    0.022360771894454956,
                    2.4117372035980225,
                    0.04667629301548004,
                    2.2228519916534424,
                    1.2200621366500854,
                    0.38627201318740845,
                    -0.30779051780700684,
                    0.1732400357723236,
                    -0.04018952324986458,
                    0.27079471945762634,
                    0.236469104886055,
                    -0.35998299717903137,
                    0.449451744556427,
                    -0.14568717777729034,
                    -0.2519584894180298,
                    0.06561203300952911,
                    0.7251169681549072,
                    0.6911531686782837,
                    0.013642877340316772,
                    0.336750328540802,
                    0.10059233754873276,
                    1.0406906604766846,
                    0.7319588661193848,
                    -0.2122887820005417,
                    1.462611198425293,
                    0.2345140278339386,
                    0.668982744216919,
                    0.20842388272285461,
                    0.38295286893844604,
                    0.4234612286090851,
                    2.1499757766723633,
                    1.0059858560562134
                ]
            ]
        },
        {
            "type": "dense",
            "activation": "",
            "shape": [
                null,
                null,
                1
            ],
            "weights": [
                [
                    [
                        -0.18403112888336182
                    ],
                    [
                        0.051542915403842926
                    ],
                    [
                        0.1698884665966034
                    ],
                    [
                        0.20507797598838806
                    ],
                    [
                        0.6586795449256897
                    ],
                    [
                        -0.10854177922010422
                    ],
                    [
                        0.30867666006088257
                    ],
                    [
                        -0.1134490966796875
                    ],
                    [
                        0.14282239973545074
                    ],
                    [
                        0.18169662356376648
                    ],
                    [
                        -0.7847293019294739
                    ],
                    [
                        -0.3757762908935547
                    ]
                ],
                [
                    -0.18028414249420166
                ]
            ]
        }
    ],
    "samplerate": 48000.0,
    "author": "AIDA DSP",
    "esr": 0.008758984506130219
}
