{
    "in_shape": [
        null,
        null,
        1
    ],
    "out_gain": -5.7,
    "layers": [
        {
            "type": "lstm",
            "activation": "",
            "shape": [
                null,
                null,
                16
            ],
            "weights": [
                [
                    [
                        -0.24111761152744293,
                        -0.062172241508960724,
                        -0.17671427130699158,
                        -0.1417171210050583,
                        -0.16911527514457703,
                        -0.004864290356636047,
                        0.10071160644292831,
                        0.23786139488220215,
                        -0.4891238510608673,
                        0.571775496006012,
                        0.19832685589790344,
                        -0.10777635127305984,
                        -0.11439547687768936,
                        0.06064194068312645,
                        -0.1943979114294052,
                        -0.049222856760025024,
                        0.1934126913547516,
                        0.00929097831249237,
                        -0.011154728010296822,
                        -0.30715158581733704,
                        0.34650754928588867,
                        0.4671676456928253,
                        0.11248312890529633,
                        -0.12526361644268036,
                        0.3513067960739136,
                        0.5325831174850464,
                        0.0638916939496994,
                        0.25604262948036194,
                        -0.18206308782100677,
                        -0.030011964961886406,
                        -0.13942554593086243,
                        0.14244095981121063,
                        -0.14443984627723694,
                        0.03557197004556656,
                        -0.3585350811481476,
                        -0.752316951751709,
                        -0.030088353902101517,
                        0.2629859447479248,
                        -0.06593165546655655,
                        0.35451024770736694,
                        1.7774461507797241,
                        -1.0738459825515747,
                        0.026418354362249374,
                        -0.08152662217617035,
                        0.09788697957992554,
                        0.3279084265232086,
                        0.05525227636098862,
                        0.30134549736976624,
                        0.1479174941778183,
                        0.018372511491179466,
                        -0.17044082283973694,
                        -0.13234449923038483,
                        -0.05228673666715622,
                        0.01957697421312332,
                        -0.16077031195163727,
                        0.1925802379846573,
                        -0.05852903053164482,
                        0.4879089891910553,
                        0.007786332629621029,
                        -0.07181128859519958,
                        -0.1892695277929306,
                        -0.03646433353424072,
                        -0.06625139713287354,
                        0.1909116506576538
                    ]
                ],
                [
                    [
                        -0.04149877279996872,
                        0.0049545979127287865,
                        -0.36079782247543335,
                        -0.0721396952867508,
                        -0.07541291415691376,
                        0.11704640835523605,
                        0.23987996578216553,
                        -0.28474166989326477,
                        0.07444190233945847,
                        -0.17475254833698273,
                        0.15056397020816803,
                        0.04526133090257645,
                        0.012265484780073166,
                        -0.18113170564174652,
                        0.1308387964963913,
                        -0.15705543756484985,
                        0.23179268836975098,
                        0.023961767554283142,
                        -0.15618328750133514,
                        0.032885901629924774,
                        0.07433448731899261,
                        0.19657327234745026,
                        -0.013803930021822453,
                        -0.47409212589263916,
                        -0.20888517796993256,
                        -0.11728420108556747,
                        -0.3229961395263672,
                        -0.13208769261837006,
                        -0.1576474905014038,
                        -0.23879007995128632,
                        0.08774875104427338,
                        -0.21562278270721436,
                        0.20955407619476318,
                        -0.24663032591342926,
                        -0.0650709792971611,
                        -0.002682669321075082,
                        0.8170303106307983,
                        0.019757257774472237,
                        0.10625579208135605,
                        0.40271610021591187,
                        0.2844198942184448,
                        0.09210735559463501,
                        -0.05205925181508064,
                        -0.1228194534778595,
                        0.13257239758968353,
                        0.06874582916498184,
                        0.027028173208236694,
                        0.3959888219833374,
                        -0.1321190744638443,
                        -0.08822055160999298,
                        0.08484171330928802,
                        -0.12316623330116272,
                        -0.14202368259429932,
                        0.22192199528217316,
                        0.14422360062599182,
                        -0.003932189662009478,
                        0.043976154178380966,
                        -0.11357960104942322,
                        -0.053430914878845215,
                        0.19647350907325745,
                        0.30009815096855164,
                        0.482852578163147,
                        -0.0784982368350029,
                        -0.225996196269989
                    ],
                    [
                        0.0833183005452156,
                        -0.03908637911081314,
                        0.07410276681184769,
                        -0.022067369893193245,
                        0.11001677066087723,
                        -0.08962993323802948,
                        -0.1074962168931961,
                        0.11244259774684906,
                        0.041690319776535034,
                        -0.0032491711899638176,
                        -0.132988840341568,
                        0.1880805343389511,
                        -0.14353148639202118,
                        -0.0019049905240535736,
                        0.028483634814620018,
                        -0.005162735935300589,
                        0.23509934544563293,
                        -0.024346373975276947,
                        0.022329051047563553,
                        -0.017628010362386703,
                        -0.13480064272880554,
                        0.0969407707452774,
                        -0.20752160251140594,
                        -0.004079255275428295,
                        -0.03126046434044838,
                        -0.07761723548173904,
                        -0.13851915299892426,
                        0.2389281690120697,
                        0.0014742983039468527,
                        -0.5304579138755798,
                        0.10833553969860077,
                        0.0092306612059474,
                        -0.3567568063735962,
                        -0.4706042408943176,
                        -0.058775220066308975,
                        -0.03839202970266342,
                        -0.6967347264289856,
                        0.06665843725204468,
                        -0.1591261625289917,
                        -0.1166839748620987,
                        -0.02522445283830166,
                        -0.03402739763259888,
                        -0.05394861102104187,
                        -0.050928059965372086,
                        0.2020881623029709,
                        0.8492677807807922,
                        0.06337181478738785,
                        0.22643622756004333,
                        0.1521693766117096,
                        0.023785002529621124,
                        -0.02771095186471939,
                        -0.03358372300863266,
                        0.06786142289638519,
                        0.03523068130016327,
                        0.008634890429675579,
                        -0.04368985816836357,
                        -0.018010012805461884,
                        -0.06196140497922897,
                        0.03301163390278816,
                        0.25364169478416443,
                        0.17445051670074463,
                        0.3440191149711609,
                        0.06317716091871262,
                        -0.11390475928783417
                    ],
                    [
                        -0.13627098500728607,
                        0.2576651871204376,
                        -0.5543203949928284,
                        0.1154826208949089,
                        0.1570691168308258,
                        -0.030813364312052727,
                        0.9745118021965027,
                        -0.3372519612312317,
                        -0.007750971708446741,
                        -0.08266487717628479,
                        0.19014182686805725,
                        -0.21485820412635803,
                        -0.14265580475330353,
                        -0.0859483852982521,
                        -0.24794204533100128,
                        0.07856195420026779,
                        -0.3080361485481262,
                        0.1923689991235733,
                        -0.9880928993225098,
                        -0.07500255852937698,
                        0.06604798138141632,
                        -0.5069965124130249,
                        -0.23576237261295319,
                        -0.5553198456764221,
                        -0.12657007575035095,
                        -0.20779937505722046,
                        0.012900134548544884,
                        -0.4620073139667511,
                        0.028103817254304886,
                        0.06149102374911308,
                        -0.2635127604007721,
                        -0.14507871866226196,
                        -0.1473301202058792,
                        0.10588133335113525,
                        0.8887537717819214,
                        -0.2292710542678833,
                        0.2550044655799866,
                        0.28709861636161804,
                        -0.36348962783813477,
                        -0.5649341344833374,
                        -0.13208234310150146,
                        0.03944031521677971,
                        -0.43422749638557434,
                        0.4492906332015991,
                        0.18425683677196503,
                        0.05569767951965332,
                        -0.5958201885223389,
                        -0.07189910113811493,
                        0.1714174896478653,
                        -0.14437703788280487,
                        -0.4584157466888428,
                        -0.027911119163036346,
                        0.008028918877243996,
                        0.0651329979300499,
                        -0.3671766221523285,
                        0.14516456425189972,
                        -0.17738108336925507,
                        -0.286443293094635,
                        0.05470744147896767,
                        -0.04348725825548172,
                        0.8160771727561951,
                        0.09219454228878021,
                        -0.40279555320739746,
                        0.07009219378232956
                    ],
                    [
                        -0.17091070115566254,
                        -0.2790822684764862,
                        -0.6640827655792236,
                        -0.029565870761871338,
                        -0.17734965682029724,
                        0.3128809630870819,
                        -0.0057374294847249985,
                        -0.3082164525985718,
                        0.3040737807750702,
                        0.6327385306358337,
                        -0.160803884267807,
                        -0.026306109502911568,
                        -0.2792043089866638,
                        -0.06486720591783524,
                        -0.35066524147987366,
                        0.48015400767326355,
                        -0.2540900707244873,
                        -0.1941062957048416,
                        -0.026350559666752815,
                        -0.2869755029678345,
                        -0.04626789689064026,
                        -0.2536613345146179,
                        0.056501392275094986,
                        0.19669540226459503,
                        0.1423204243183136,
                        0.6972991228103638,
                        -0.2425520271062851,
                        0.19339685142040253,
                        0.1524675041437149,
                        -0.2055092602968216,
                        -0.27089768648147583,
                        0.3058907389640808,
                        0.17286014556884766,
                        -0.17716406285762787,
                        1.4410299062728882,
                        -0.1315275877714157,
                        -0.09592314064502716,
                        0.7177807688713074,
                        0.5119028687477112,
                        0.08516024053096771,
                        -0.15741808712482452,
                        0.6878047585487366,
                        -0.26347699761390686,
                        0.11480985581874847,
                        -0.17457439005374908,
                        0.4948527216911316,
                        0.36490410566329956,
                        -0.31210842728614807,
                        -0.11573765426874161,
                        -0.01064196415245533,
                        -0.28713950514793396,
                        -0.033182986080646515,
                        -0.02005292847752571,
                        0.0814153403043747,
                        0.0652877539396286,
                        -0.2869266867637634,
                        -0.005322829820215702,
                        0.4335077702999115,
                        -0.30589330196380615,
                        -0.17801043391227722,
                        -1.4961636066436768,
                        0.010101237334311008,
                        -0.012881839647889137,
                        0.3091064691543579
                    ],
                    [
                        0.10296618193387985,
                        0.21991710364818573,
                        0.1310996413230896,
                        -0.003400531131774187,
                        -0.08815985918045044,
                        0.060722243040800095,
                        -0.08034505695104599,
                        -0.07708663493394852,
                        0.02401718683540821,
                        0.09407822042703629,
                        0.15199200809001923,
                        0.05998050794005394,
                        -0.000995843787677586,
                        -0.05807291716337204,
                        -0.08980841934680939,
                        0.13586071133613586,
                        0.04092037305235863,
                        -0.15127816796302795,
                        0.13359838724136353,
                        -0.11063739657402039,
                        -0.3352518081665039,
                        -0.0838809683918953,
                        -0.19248098134994507,
                        -0.2730795443058014,
                        0.051987871527671814,
                        0.0074047972448170185,
                        -0.23544907569885254,
                        0.018520545214414597,
                        0.07204614579677582,
                        -0.07395514100790024,
                        -0.24439314007759094,
                        0.014691860415041447,
                        -0.618248462677002,
                        0.5172310471534729,
                        0.34180012345314026,
                        -0.140652596950531,
                        0.42363837361335754,
                        0.1282469928264618,
                        -0.02288280799984932,
                        -0.10723192989826202,
                        0.0545368567109108,
                        -0.30218321084976196,
                        0.12505945563316345,
                        -0.5211153626441956,
                        -0.30280524492263794,
                        0.14140859246253967,
                        -0.41892144083976746,
                        -0.17508536577224731,
                        0.44030389189720154,
                        0.018122265115380287,
                        0.5079578161239624,
                        -0.04836752638220787,
                        -0.127743199467659,
                        -0.295200914144516,
                        0.2097894698381424,
                        -0.10315782576799393,
                        -0.014188693836331367,
                        -0.044967588037252426,
                        0.05238096043467522,
                        -0.1675480753183365,
                        0.14533652365207672,
                        0.0855393335223198,
                        -0.10392718762159348,
                        0.01989935152232647
                    ],
                    [
                        0.03016962856054306,
                        -0.011244220659136772,
                        0.13596077263355255,
                        -0.2677444517612457,
                        0.1257145255804062,
                        0.01504397764801979,
                        0.427015483379364,
                        0.02548082172870636,
                        0.03781377896666527,
                        0.07077274471521378,
                        0.05674780160188675,
                        -0.02850911393761635,
                        -0.18262262642383575,
                        -0.19506162405014038,
                        -0.07233487814664841,
                        0.14364632964134216,
                        -0.2976836860179901,
                        -0.06958287954330444,
                        0.035444509238004684,
                        -0.18401165306568146,
                        -0.000668478780426085,
                        0.208778977394104,
                        -0.059778474271297455,
                        -0.38523921370506287,
                        0.08380310237407684,
                        0.07511042058467865,
                        -0.1204117089509964,
                        0.0611591599881649,
                        -0.3283606469631195,
                        0.02394106611609459,
                        0.35901927947998047,
                        0.02107618935406208,
                        0.09790126234292984,
                        0.17345303297042847,
                        -0.4050458073616028,
                        0.560940146446228,
                        0.1093423143029213,
                        -0.07778168469667435,
                        -0.20502440631389618,
                        -0.3822184205055237,
                        -2.1705260276794434,
                        1.0087605714797974,
                        0.30332133173942566,
                        -0.1326776146888733,
                        -0.22614382207393646,
                        -0.08774347603321075,
                        -0.11550110578536987,
                        -0.2961153984069824,
                        0.08049669116735458,
                        -0.10679589211940765,
                        -0.023287411779165268,
                        -0.2752557694911957,
                        -0.13617001473903656,
                        -0.4813944399356842,
                        -0.17793267965316772,
                        -0.014688988216221333,
                        -0.10746493935585022,
                        -0.1751611828804016,
                        -0.12464240193367004,
                        0.0384923554956913,
                        0.024550702422857285,
                        0.23838219046592712,
                        -0.046435270458459854,
                        0.16332252323627472
                    ],
                    [
                        0.20112597942352295,
                        -0.2582443952560425,
                        0.28844696283340454,
                        -0.09279873222112656,
                        0.36931711435317993,
                        -0.0905923917889595,
                        0.20325270295143127,
                        -0.02718164213001728,
                        0.41855117678642273,
                        -0.09255418181419373,
                        0.06466872990131378,
                        0.1981862485408783,
                        -0.017304133623838425,
                        -0.2869795560836792,
                        0.11786473542451859,
                        -0.20077814161777496,
                        -0.135162353515625,
                        -0.11550974100828171,
                        -0.19114384055137634,
                        0.014347170479595661,
                        0.06029642000794411,
                        0.6039451360702515,
                        -0.6535322666168213,
                        -0.013543943874537945,
                        0.3930598497390747,
                        0.2611314654350281,
                        -0.06685563176870346,
                        0.0922684371471405,
                        0.026914061978459358,
                        -0.2562630772590637,
                        -0.04284416139125824,
                        -0.3663068115711212,
                        -0.03433385118842125,
                        -0.0009247394045814872,
                        0.022756030783057213,
                        0.018855569884181023,
                        -0.3307969272136688,
                        -0.2528553009033203,
                        0.45752397179603577,
                        -0.07399482280015945,
                        -0.2865656912326813,
                        0.19303950667381287,
                        -0.015956053510308266,
                        0.17839892208576202,
                        0.17682500183582306,
                        -0.31393489241600037,
                        0.13125570118427277,
                        0.4167018234729767,
                        -0.5781344771385193,
                        -0.19816944003105164,
                        -0.01989315263926983,
                        -0.14005133509635925,
                        0.09991977363824844,
                        -0.26267632842063904,
                        -0.39083704352378845,
                        -0.04450136795639992,
                        0.2407872974872589,
                        -0.07267679274082184,
                        -0.01147446408867836,
                        -0.006104178261011839,
                        0.15284790098667145,
                        -0.20574282109737396,
                        -0.01587904989719391,
                        -0.3376569151878357
                    ],
                    [
                        -0.12713094055652618,
                        -0.027122462168335915,
                        0.040814109146595,
                        0.12368212640285492,
                        -0.017256010323762894,
                        -0.008668974041938782,
                        -0.21384784579277039,
                        0.05596558377146721,
                        -0.08238022029399872,
                        0.023168643936514854,
                        -0.24073806405067444,
                        0.04711905121803284,
                        -0.01806342415511608,
                        0.11581268161535263,
                        0.24789103865623474,
                        0.010234599933028221,
                        0.5511996746063232,
                        -0.12153605371713638,
                        -0.17487092316150665,
                        -0.023515380918979645,
                        0.27229762077331543,
                        0.16278336942195892,
                        0.18802335858345032,
                        0.19834057986736298,
                        -0.29996219277381897,
                        0.10630889981985092,
                        -0.13706685602664948,
                        0.2750019431114197,
                        0.06196132302284241,
                        -0.3003787100315094,
                        0.0628804937005043,
                        0.26886191964149475,
                        0.06180475279688835,
                        0.43788719177246094,
                        -0.2240508496761322,
                        0.5094732642173767,
                        0.35797202587127686,
                        -0.3585558831691742,
                        0.0662156268954277,
                        0.3527286946773529,
                        0.0794256404042244,
                        0.2080397605895996,
                        -0.35956552624702454,
                        0.05744914337992668,
                        0.2851422429084778,
                        1.1799023151397705,
                        0.37325766682624817,
                        0.12157703936100006,
                        0.4458940327167511,
                        0.16383720934391022,
                        -0.27249377965927124,
                        0.1570294052362442,
                        0.11337195336818695,
                        0.20167569816112518,
                        0.04167803004384041,
                        0.22726133465766907,
                        0.02863891050219536,
                        0.27522945404052734,
                        -0.08865989744663239,
                        0.06282638013362885,
                        -0.5537874102592468,
                        0.19892776012420654,
                        0.1618836522102356,
                        -0.011585058644413948
                    ],
                    [
                        0.3949633538722992,
                        0.023655004799365997,
                        0.2687359154224396,
                        0.00039015416405163705,
                        0.040354810655117035,
                        -1.5447837114334106,
                        0.5006199479103088,
                        -0.16875097155570984,
                        0.4089355170726776,
                        0.51678466796875,
                        -0.16450554132461548,
                        -0.08347105979919434,
                        0.04003651812672615,
                        0.053823988884687424,
                        -0.03129538148641586,
                        -0.0744377076625824,
                        0.14443674683570862,
                        0.05389174818992615,
                        0.4591045677661896,
                        -0.3678511083126068,
                        0.05416742339730263,
                        -0.015893161296844482,
                        -0.06158320978283882,
                        0.10626191645860672,
                        -0.28464436531066895,
                        0.37896400690078735,
                        0.07619345933198929,
                        0.10086888074874878,
                        0.3849455714225769,
                        0.07169713824987411,
                        0.12507985532283783,
                        -0.09384866803884506,
                        -0.15700891613960266,
                        0.11263861507177353,
                        0.6821627020835876,
                        0.4630121886730194,
                        0.014275114051997662,
                        0.5150150060653687,
                        -0.07369977235794067,
                        -0.2094404250383377,
                        0.20460031926631927,
                        -1.0836917161941528,
                        0.22702893614768982,
                        0.13057798147201538,
                        0.011613785289227962,
                        -0.08523830026388168,
                        -0.0656658411026001,
                        0.1021219864487648,
                        0.15810681879520416,
                        -0.049574658274650574,
                        -0.27520638704299927,
                        0.012609479948878288,
                        0.023282235488295555,
                        -0.5043721795082092,
                        -0.281444251537323,
                        -0.07795460522174835,
                        -0.17674097418785095,
                        0.10691756010055542,
                        -0.027880916371941566,
                        0.14544467628002167,
                        0.39189592003822327,
                        0.028247185051441193,
                        -0.003914867993444204,
                        0.20126186311244965
                    ],
                    [
                        0.1971323937177658,
                        -0.10177583247423172,
                        0.38541507720947266,
                        0.023191193118691444,
                        -0.01976396143436432,
                        -0.893578827381134,
                        0.17101915180683136,
                        -0.09703648090362549,
                        0.08925533294677734,
                        0.057416774332523346,
                        -0.13907428085803986,
                        0.07932805269956589,
                        0.10656428337097168,
                        0.17290738224983215,
                        0.23358744382858276,
                        -0.12507027387619019,
                        0.48131293058395386,
                        -0.02519148401916027,
                        -0.33566686511039734,
                        0.040041372179985046,
                        -0.018578974530100822,
                        0.7603014707565308,
                        0.5281192064285278,
                        0.1153402179479599,
                        1.0473884344100952,
                        -0.0014132674550637603,
                        -0.0232439823448658,
                        -0.015810711309313774,
                        0.1431274265050888,
                        0.09317980706691742,
                        0.5121930837631226,
                        0.029078183695673943,
                        -0.016274942085146904,
                        0.2222127914428711,
                        -0.4730145335197449,
                        -1.0984218120574951,
                        0.021626656875014305,
                        -0.16862399876117706,
                        -0.06002700701355934,
                        0.025745632126927376,
                        -0.25712183117866516,
                        0.1386530101299286,
                        0.10543885827064514,
                        -0.07507017999887466,
                        0.39647772908210754,
                        0.28027549386024475,
                        -0.21728003025054932,
                        0.3728388845920563,
                        0.2843555212020874,
                        0.09548380225896835,
                        -0.08052501827478409,
                        0.029787413775920868,
                        0.15158192813396454,
                        0.36858272552490234,
                        0.3325068950653076,
                        0.0008939307299442589,
                        0.5603247880935669,
                        0.06679116189479828,
                        0.07371610403060913,
                        0.08417289704084396,
                        -0.4089709222316742,
                        0.11414749920368195,
                        0.2805819511413574,
                        -0.1175495907664299
                    ],
                    [
                        -0.44008028507232666,
                        -0.13291944563388824,
                        -0.19101306796073914,
                        0.12418856471776962,
                        -0.21569354832172394,
                        -0.8544637560844421,
                        -0.4814727306365967,
                        -0.03971552103757858,
                        0.12383848428726196,
                        0.26831862330436707,
                        0.015336153097450733,
                        -0.10086111724376678,
                        0.24112410843372345,
                        0.18257355690002441,
                        -0.16494746506214142,
                        -0.07534372806549072,
                        0.4423331916332245,
                        0.05617615953087807,
                        0.26400017738342285,
                        0.3235253691673279,
                        0.08844733238220215,
                        0.4688776731491089,
                        0.5553041696548462,
                        0.15569433569908142,
                        -0.02866394631564617,
                        -0.07198235392570496,
                        0.13028675317764282,
                        -0.04705006629228592,
                        0.40230220556259155,
                        0.38110432028770447,
                        -0.0004751389496959746,
                        -0.12461692094802856,
                        -0.1770487278699875,
                        0.08756185322999954,
                        0.3240228295326233,
                        -0.035501424223184586,
                        0.07084012776613235,
                        -0.27949967980384827,
                        0.11631034314632416,
                        -0.11050104349851608,
                        -0.04370546340942383,
                        0.3370889723300934,
                        0.17495901882648468,
                        -0.06743889302015305,
                        1.1197484731674194,
                        -0.5629953145980835,
                        1.1907655000686646,
                        -0.14577530324459076,
                        0.20733922719955444,
                        0.007465433795005083,
                        0.08974172919988632,
                        0.18513089418411255,
                        0.06566819548606873,
                        0.03442217782139778,
                        0.22572088241577148,
                        -0.14220589399337769,
                        0.37351009249687195,
                        0.14476166665554047,
                        0.2302882969379425,
                        0.09051912277936935,
                        0.28624293208122253,
                        -0.22850914299488068,
                        -0.11268577724695206,
                        -0.13161307573318481
                    ],
                    [
                        1.0980749130249023,
                        -0.08268354088068008,
                        0.21244458854198456,
                        -0.26322370767593384,
                        0.5887874960899353,
                        0.7408345341682434,
                        1.0274051427841187,
                        0.0646110251545906,
                        -0.26213690638542175,
                        -0.19091394543647766,
                        0.07557438313961029,
                        0.030287858098745346,
                        -0.26215842366218567,
                        -0.4622671604156494,
                        0.039586469531059265,
                        -0.03253142163157463,
                        -0.7405182123184204,
                        -0.3865683078765869,
                        -0.05378712713718414,
                        -0.05439615994691849,
                        -0.539322555065155,
                        -0.792294979095459,
                        -0.7756465077400208,
                        -0.3308257758617401,
                        -0.2913183569908142,
                        -0.06649049371480942,
                        0.08199729770421982,
                        -0.12338139116764069,
                        -0.19635044038295746,
                        -0.1334693878889084,
                        0.17056168615818024,
                        -0.4388296902179718,
                        -0.36583828926086426,
                        0.23468253016471863,
                        0.2678181231021881,
                        -0.2905276119709015,
                        -0.08069568127393723,
                        0.15613293647766113,
                        0.09928116947412491,
                        -0.04912242293357849,
                        0.01482596155256033,
                        -0.03709699213504791,
                        0.1493152230978012,
                        0.2015373259782791,
                        -0.2669866979122162,
                        -0.25499632954597473,
                        -0.2762922942638397,
                        -0.35648083686828613,
                        -0.011361968703567982,
                        -0.3747445344924927,
                        -0.16408109664916992,
                        -0.3756379187107086,
                        -0.2881092429161072,
                        -0.11258992552757263,
                        -0.16431771218776703,
                        -0.26010918617248535,
                        -0.32816895842552185,
                        -0.2520136833190918,
                        -0.22799761593341827,
                        -0.006616444792598486,
                        -0.043531253933906555,
                        -0.2725273668766022,
                        -0.15993183851242065,
                        0.02111494541168213
                    ],
                    [
                        -0.5833547711372375,
                        -0.30050650238990784,
                        0.15943743288516998,
                        0.19349920749664307,
                        -0.29338565468788147,
                        -0.0019048406975343823,
                        -0.4161148965358734,
                        0.0415843240916729,
                        0.2606278359889984,
                        0.16776499152183533,
                        -0.553862452507019,
                        0.07144460827112198,
                        0.22781842947006226,
                        0.3572687804698944,
                        -0.0020536212250590324,
                        -0.03360869362950325,
                        0.7743070125579834,
                        0.15704001486301422,
                        0.2883322834968567,
                        0.025325292721390724,
                        0.3337641954421997,
                        0.4494418799877167,
                        0.7498217821121216,
                        0.5480605959892273,
                        -0.14994066953659058,
                        0.30441612005233765,
                        -0.30849307775497437,
                        0.26649051904678345,
                        -0.06393329799175262,
                        0.16123229265213013,
                        0.669616162776947,
                        0.21633684635162354,
                        -0.1487181931734085,
                        0.4271621108055115,
                        0.08659344911575317,
                        0.281517893075943,
                        0.5757243633270264,
                        0.07248023897409439,
                        0.2842482328414917,
                        0.3421785533428192,
                        0.04336969926953316,
                        0.12322987616062164,
                        -0.7604399919509888,
                        -0.27558642625808716,
                        -0.029310598969459534,
                        -1.7400599718093872,
                        -0.38771337270736694,
                        0.164033904671669,
                        -0.0039659827016294,
                        0.14890900254249573,
                        -0.09297732263803482,
                        0.36840298771858215,
                        -0.0009191096760332584,
                        0.16248823702335358,
                        0.14020246267318726,
                        0.22037388384342194,
                        0.3007272481918335,
                        0.18750256299972534,
                        -0.10178308933973312,
                        0.007026504259556532,
                        1.1975799798965454,
                        0.20771928131580353,
                        0.5267866849899292,
                        -0.05868108943104744
                    ],
                    [
                        0.0071860989555716515,
                        -0.3755277097225189,
                        0.11675268411636353,
                        -0.11580964922904968,
                        0.13766519725322723,
                        0.016522930935025215,
                        0.18520979583263397,
                        0.14942051470279694,
                        0.114967480301857,
                        0.021271467208862305,
                        0.1888289451599121,
                        -0.13997550308704376,
                        0.010814649984240532,
                        -0.21276071667671204,
                        -0.3331190347671509,
                        0.23113301396369934,
                        -0.25438743829727173,
                        0.0529642216861248,
                        -0.017596576362848282,
                        0.11735859513282776,
                        0.22226154804229736,
                        0.03277337923645973,
                        0.031346965581178665,
                        0.012389852665364742,
                        -0.07673780620098114,
                        -0.18944519758224487,
                        -0.12996548414230347,
                        -0.08550732582807541,
                        0.17883837223052979,
                        -0.2911815643310547,
                        0.09305567294359207,
                        0.02970135025680065,
                        -0.5482081770896912,
                        -0.7165214419364929,
                        -0.13548406958580017,
                        -0.036475006490945816,
                        -0.13146929442882538,
                        -0.0045504034496843815,
                        -0.023813294246792793,
                        -0.10939191281795502,
                        0.001007573795504868,
                        -0.025448326021432877,
                        0.048708949238061905,
                        0.014693936333060265,
                        0.18376041948795319,
                        0.832508385181427,
                        0.04886767640709877,
                        0.11380718648433685,
                        0.05439608916640282,
                        -0.2635038495063782,
                        0.049985118210315704,
                        -0.055141985416412354,
                        0.055849917232990265,
                        -0.012478522956371307,
                        0.04413585364818573,
                        -0.2865258753299713,
                        -0.17974147200584412,
                        -0.023497434332966805,
                        0.11465603113174438,
                        -0.10804390907287598,
                        0.5374685525894165,
                        0.028692936524748802,
                        0.16044370830059052,
                        -0.3226684331893921
                    ],
                    [
                        0.6430371403694153,
                        0.3158789575099945,
                        0.3032267391681671,
                        -0.16030940413475037,
                        0.24819129705429077,
                        0.7121532559394836,
                        0.7002793550491333,
                        0.40400952100753784,
                        -0.25848278403282166,
                        0.1304413229227066,
                        0.20843572914600372,
                        0.04192095249891281,
                        -0.37472906708717346,
                        -0.47784364223480225,
                        0.02855696529150009,
                        0.01379824336618185,
                        -1.0954104661941528,
                        -0.013766414485871792,
                        -0.7888363599777222,
                        -0.27031105756759644,
                        -0.5402185916900635,
                        -1.4658924341201782,
                        -1.249882459640503,
                        0.03590074181556702,
                        -0.42690902948379517,
                        0.14603938162326813,
                        -0.40074023604393005,
                        -0.20758216083049774,
                        0.07065434008836746,
                        0.22602751851081848,
                        -0.4792398512363434,
                        -0.2424454241991043,
                        -0.1313961297273636,
                        0.09329569339752197,
                        0.49743330478668213,
                        -0.40341025590896606,
                        0.3902095556259155,
                        0.03002365492284298,
                        -0.16908030211925507,
                        0.33663374185562134,
                        -0.00162367126904428,
                        0.1010875254869461,
                        -0.40429922938346863,
                        0.08225017040967941,
                        1.4847033023834229,
                        -0.6273771524429321,
                        0.26003342866897583,
                        -0.35615992546081543,
                        0.06444007903337479,
                        -0.15651115775108337,
                        -1.2398897409439087,
                        -0.2382814735174179,
                        -0.09732013940811157,
                        -0.3958033621311188,
                        -0.44284361600875854,
                        -0.6140008568763733,
                        -0.16399700939655304,
                        -0.13916146755218506,
                        0.11866407841444016,
                        -0.3973911702632904,
                        0.8410520553588867,
                        -0.18493101000785828,
                        -0.539896547794342,
                        -0.1414203643798828
                    ],
                    [
                        -0.47776129841804504,
                        -0.05848455801606178,
                        -0.010385974310338497,
                        -0.0984686017036438,
                        0.20989450812339783,
                        -0.8726041316986084,
                        -0.37800535559654236,
                        0.03421318531036377,
                        0.12817512452602386,
                        0.05760261043906212,
                        0.18824517726898193,
                        0.03170723840594292,
                        0.1276688426733017,
                        -0.03392776846885681,
                        -0.03453059121966362,
                        -0.09784005582332611,
                        -0.08321955054998398,
                        0.033023983240127563,
                        -0.131692573428154,
                        0.19424113631248474,
                        -0.2120886594057083,
                        0.011608514934778214,
                        -0.18199114501476288,
                        -0.1792505979537964,
                        0.025167303159832954,
                        0.03127044439315796,
                        0.2431609332561493,
                        -0.05533876270055771,
                        0.015904715284705162,
                        -0.22919273376464844,
                        0.28253239393234253,
                        -0.10974466055631638,
                        0.09869150817394257,
                        0.24351991713047028,
                        0.27365827560424805,
                        -0.043234821408987045,
                        0.2698439657688141,
                        0.04888731241226196,
                        -0.22508876025676727,
                        -0.21462222933769226,
                        -0.0024899072013795376,
                        -0.27030816674232483,
                        -0.14468587934970856,
                        0.1794140785932541,
                        -0.11679454892873764,
                        0.21708324551582336,
                        -0.2416815459728241,
                        0.051139745861291885,
                        0.1327126920223236,
                        -0.019548866897821426,
                        -0.05292361229658127,
                        -0.03891104459762573,
                        -0.0025826662313193083,
                        -0.18494777381420135,
                        -0.13707387447357178,
                        0.02162911370396614,
                        0.0458434633910656,
                        -0.03426828235387802,
                        0.0455402247607708,
                        0.06741143018007278,
                        -0.22536401450634003,
                        0.1176982894539833,
                        -0.060417480766773224,
                        -0.24531146883964539
                    ]
                ],
                [
                    -2.813753604888916,
                    -0.3204023838043213,
                    -0.11460202932357788,
                    1.435348629951477,
                    -2.2111692428588867,
                    -2.543788433074951,
                    -2.229665756225586,
                    -0.7581357955932617,
                    0.6443050503730774,
                    0.34666091203689575,
                    0.27852195501327515,
                    -0.08450596034526825,
                    0.9088760614395142,
                    1.6821727752685547,
                    0.7887493968009949,
                    -0.5084962844848633,
                    3.658592700958252,
                    1.1203340291976929,
                    -0.022006383165717125,
                    0.23848721385002136,
                    3.1599888801574707,
                    2.759500503540039,
                    2.8686816692352295,
                    0.7207076549530029,
                    0.16341860592365265,
                    0.05032607913017273,
                    0.9247776865959167,
                    1.374139666557312,
                    0.5026115775108337,
                    0.20893824100494385,
                    0.0984082967042923,
                    0.9489724636077881,
                    -0.2551722526550293,
                    -0.11397337913513184,
                    0.3670704960823059,
                    -0.1967475563287735,
                    -0.08163346350193024,
                    0.08907000720500946,
                    -0.3019565939903259,
                    -0.11900216341018677,
                    -0.6064978241920471,
                    0.6021945476531982,
                    0.334533154964447,
                    -0.1482064574956894,
                    0.6097226142883301,
                    0.14534825086593628,
                    -0.689529538154602,
                    -0.4645353853702545,
                    0.08660988509654999,
                    0.7139625549316406,
                    0.09343544393777847,
                    1.759129285812378,
                    0.44321030378341675,
                    0.7803955078125,
                    0.08388887345790863,
                    0.4273473620414734,
                    0.9220426082611084,
                    0.9133784770965576,
                    1.1641769409179688,
                    0.43175750970840454,
                    0.6925042867660522,
                    0.3643803596496582,
                    1.2502403259277344,
                    -0.02674209326505661
                ]
            ]
        },
        {
            "type": "dense",
            "activation": "",
            "shape": [
                null,
                null,
                1
            ],
            "weights": [
                [
                    [
                        -0.7333784103393555
                    ],
                    [
                        -1.1415537595748901
                    ],
                    [
                        0.048672497272491455
                    ],
                    [
                        0.01912587136030197
                    ],
                    [
                        -0.9218840003013611
                    ],
                    [
                        0.2807750105857849
                    ],
                    [
                        0.015458807349205017
                    ],
                    [
                        0.47866392135620117
                    ],
                    [
                        0.04287033528089523
                    ],
                    [
                        0.10849448293447495
                    ],
                    [
                        -0.2199111133813858
                    ],
                    [
                        0.20529760420322418
                    ],
                    [
                        -0.14137014746665955
                    ],
                    [
                        -1.2751208543777466
                    ],
                    [
                        -0.10428366810083389
                    ],
                    [
                        0.536787748336792
                    ]
                ],
                [
                    0.007436142303049564
                ]
            ]
        }
    ],
    "samplerate": 48000.0,
    "author": "AIDA DSP",
    "esr": 0.01917797140777111
}
