{
    "in_shape": [
        null,
        null,
        1
    ],
    "out_gain": -6,
    "layers": [
        {
            "type": "lstm",
            "activation": "",
            "shape": [
                null,
                null,
                16
            ],
            "weights": [
                [
                    [
                        0.0426856130361557,
                        -0.14357079565525055,
                        -0.1702120006084442,
                        -0.03251282498240471,
                        -0.07372722029685974,
                        0.5375024676322937,
                        -0.3917435109615326,
                        0.15007884800434113,
                        0.026956526562571526,
                        -0.04276816174387932,
                        -0.02114889957010746,
                        -0.03950761631131172,
                        -0.04773743823170662,
                        -0.0018946707714349031,
                        -0.19568073749542236,
                        0.394359827041626,
                        0.12345967441797256,
                        0.10551483929157257,
                        0.03188347443938255,
                        0.09158837050199509,
                        0.09730391204357147,
                        0.29710426926612854,
                        -0.392267107963562,
                        0.034642916172742844,
                        0.1394287496805191,
                        -0.45791521668434143,
                        -0.21696750819683075,
                        0.06497485935688019,
                        0.2928631007671356,
                        -0.0056808688677847385,
                        0.42959165573120117,
                        -0.025929760187864304,
                        -0.19617952406406403,
                        -0.565117597579956,
                        0.3007866144180298,
                        0.01957862824201584,
                        0.11354388296604156,
                        0.14156751334667206,
                        -0.2285631000995636,
                        0.31276288628578186,
                        0.2523975968360901,
                        0.4297652244567871,
                        -0.14936526119709015,
                        -0.4385986328125,
                        -1.3233613967895508,
                        -0.2749856412410736,
                        1.531563401222229,
                        0.19812001287937164,
                        0.10540835559368134,
                        -0.01175194513052702,
                        -0.08795899897813797,
                        -0.28005850315093994,
                        -0.0628150925040245,
                        0.02098957635462284,
                        -0.14064213633537292,
                        1.164610505104065,
                        -0.22666849195957184,
                        -0.3032170534133911,
                        -0.03899243101477623,
                        -0.032221678644418716,
                        0.07793629169464111,
                        -0.05101444572210312,
                        0.06366732716560364,
                        0.0976874902844429
                    ]
                ],
                [
                    [
                        0.028018688783049583,
                        -0.1573229432106018,
                        -0.41384947299957275,
                        0.16261452436447144,
                        -0.15062539279460907,
                        -0.4595716893672943,
                        0.06551645696163177,
                        -0.06600731611251831,
                        -0.015990406274795532,
                        0.16698718070983887,
                        -0.016309130936861038,
                        0.056968118995428085,
                        -0.08198843151330948,
                        0.17448997497558594,
                        -0.028802476823329926,
                        0.12035905569791794,
                        0.02782392129302025,
                        -0.225073903799057,
                        0.18356077373027802,
                        0.3215567171573639,
                        -0.27412453293800354,
                        -0.04595557972788811,
                        0.13234485685825348,
                        0.31638312339782715,
                        0.046674538403749466,
                        0.08051027357578278,
                        -0.0593942329287529,
                        -0.6290503740310669,
                        -0.3975657522678375,
                        -0.32616904377937317,
                        -0.15456974506378174,
                        -0.059698306024074554,
                        1.2143125534057617,
                        -1.0058765411376953,
                        -0.022294478490948677,
                        -0.12589947879314423,
                        0.2648047208786011,
                        -0.2104407101869583,
                        0.08210308104753494,
                        -0.20387141406536102,
                        0.14920073747634888,
                        0.12152431905269623,
                        -0.11715196073055267,
                        1.7453409433364868,
                        0.19025371968746185,
                        0.03940153121948242,
                        0.0061859083361923695,
                        0.0956156775355339,
                        -0.15295754373073578,
                        -0.03435215726494789,
                        0.15096043050289154,
                        -0.09868978708982468,
                        0.22410829365253448,
                        0.04184215888381004,
                        -0.3313339352607727,
                        -0.10342509299516678,
                        -0.026701662689447403,
                        0.07128025591373444,
                        0.015542831271886826,
                        0.2780591547489166,
                        -0.35445332527160645,
                        0.005126818083226681,
                        -0.16267210245132446,
                        0.10733935981988907
                    ],
                    [
                        0.08336704224348068,
                        -0.02869449369609356,
                        -0.032106876373291016,
                        -0.015763182193040848,
                        0.1825931817293167,
                        -0.05590270832180977,
                        -0.1716429591178894,
                        0.18237827718257904,
                        -0.39858123660087585,
                        0.09284434467554092,
                        0.18977923691272736,
                        -0.005703804083168507,
                        0.0962810292840004,
                        0.22830460965633392,
                        0.05423186719417572,
                        0.6400733590126038,
                        -0.33716508746147156,
                        -0.04941327124834061,
                        0.055080920457839966,
                        -0.09154852479696274,
                        0.4015556573867798,
                        0.08030911535024643,
                        -0.02502455934882164,
                        0.3581959307193756,
                        0.012152811512351036,
                        -0.2746007442474365,
                        0.40806853771209717,
                        0.5963045358657837,
                        0.057977937161922455,
                        0.28726065158843994,
                        0.018625013530254364,
                        0.48843705654144287,
                        0.8790833950042725,
                        -0.24984876811504364,
                        -0.5306426882743835,
                        -0.035085976123809814,
                        -0.2582753598690033,
                        0.18739518523216248,
                        0.0513993501663208,
                        -0.26033487915992737,
                        -0.9527072906494141,
                        -0.10507360845804214,
                        0.06263963133096695,
                        -2.4623091220855713,
                        0.03559652715921402,
                        -0.3997657597064972,
                        -0.16881927847862244,
                        -0.30212387442588806,
                        0.18910694122314453,
                        -0.017356334254145622,
                        0.33686915040016174,
                        0.11470488458871841,
                        -0.15370623767375946,
                        -0.1032358780503273,
                        0.1286698281764984,
                        0.1406456083059311,
                        -0.32649216055870056,
                        -0.16580234467983246,
                        0.07875385135412216,
                        -0.09404759854078293,
                        0.4601885974407196,
                        0.02236182801425457,
                        0.3411649465560913,
                        0.23406420648097992
                    ],
                    [
                        -0.18550212681293488,
                        -0.407016783952713,
                        0.08301711827516556,
                        0.3748630881309509,
                        0.41855931282043457,
                        -0.005491747986525297,
                        -0.23727354407310486,
                        0.03792743757367134,
                        -0.401787668466568,
                        0.07554008066654205,
                        0.10610562562942505,
                        0.101479671895504,
                        0.21477288007736206,
                        -0.5000203251838684,
                        0.09521383047103882,
                        -0.16910097002983093,
                        -0.27518540620803833,
                        0.22291067242622375,
                        -0.12892396748065948,
                        0.460323303937912,
                        0.2156248688697815,
                        0.6150992512702942,
                        -0.07190058380365372,
                        0.08054405450820923,
                        0.42867714166641235,
                        0.33324021100997925,
                        -0.10015898197889328,
                        -0.25219619274139404,
                        0.17888085544109344,
                        0.5434809327125549,
                        0.3712623119354248,
                        -0.23975948989391327,
                        0.1329551786184311,
                        0.19695141911506653,
                        0.5869513154029846,
                        0.25418099761009216,
                        0.07123204320669174,
                        -0.1634029895067215,
                        -0.4784151017665863,
                        0.19622580707073212,
                        -0.41558167338371277,
                        0.4427741765975952,
                        0.004889164585620165,
                        0.06093556806445122,
                        -0.5258516669273376,
                        0.16499491035938263,
                        -0.030470047146081924,
                        -0.7601120471954346,
                        -0.13292255997657776,
                        -0.1431591808795929,
                        0.03445809707045555,
                        -0.0033618914894759655,
                        0.1515708714723587,
                        0.30998650193214417,
                        0.5511269569396973,
                        -0.2136765718460083,
                        -0.11677100509405136,
                        0.3505099415779114,
                        0.11596281081438065,
                        0.34052789211273193,
                        -0.10349245369434357,
                        -0.44460931420326233,
                        -0.004383089020848274,
                        0.04551500827074051
                    ],
                    [
                        0.34756892919540405,
                        -0.10261619836091995,
                        0.2567380666732788,
                        0.15110597014427185,
                        0.018340200185775757,
                        -0.03701711446046829,
                        0.30299824476242065,
                        -0.1573093682527542,
                        0.04646436870098114,
                        -0.08978681266307831,
                        -0.009445219300687313,
                        -0.18296295404434204,
                        -0.002909774426370859,
                        0.5952581167221069,
                        -0.2014763355255127,
                        -0.1969805657863617,
                        -0.08844785392284393,
                        -0.2180757224559784,
                        0.02684301696717739,
                        0.006356666795909405,
                        -0.10391152650117874,
                        -0.2561308443546295,
                        0.27271896600723267,
                        -0.42696651816368103,
                        0.2883346974849701,
                        -0.08001372218132019,
                        -0.15027658641338348,
                        -0.008321419358253479,
                        -0.11706758290529251,
                        -0.3054386377334595,
                        -0.1040353998541832,
                        0.24654927849769592,
                        0.1751013696193695,
                        0.09432213753461838,
                        0.5637780427932739,
                        0.6125885844230652,
                        0.17800840735435486,
                        0.7647141218185425,
                        -0.722358226776123,
                        0.7343002557754517,
                        -0.4985702931880951,
                        -0.4931810200214386,
                        0.03303356096148491,
                        -0.3281487822532654,
                        0.0663691982626915,
                        0.45351800322532654,
                        0.36536937952041626,
                        -0.18104614317417145,
                        -0.04463145136833191,
                        -0.24547617137432098,
                        0.09533510357141495,
                        -0.12192878127098083,
                        0.13796652853488922,
                        -0.22224119305610657,
                        0.0029196073301136494,
                        0.06484364718198776,
                        -0.23473328351974487,
                        -0.023699425160884857,
                        -0.03893793001770973,
                        -0.21817585825920105,
                        -0.24214547872543335,
                        -0.2975232005119324,
                        -0.5548183917999268,
                        -0.052424356341362
                    ],
                    [
                        -0.3292829394340515,
                        -0.06018433719873428,
                        0.06698185950517654,
                        -0.0728655532002449,
                        -0.32449105381965637,
                        -0.29948267340660095,
                        0.013648546300828457,
                        0.046322550624608994,
                        0.183453768491745,
                        0.006272120866924524,
                        -0.2104419767856598,
                        -0.09380022436380386,
                        -0.018065908923745155,
                        -0.01145448349416256,
                        -0.06795205175876617,
                        0.06486214697360992,
                        0.42132776975631714,
                        0.11858406662940979,
                        1.1261957883834839,
                        0.14307567477226257,
                        0.14843937754631042,
                        0.08250637352466583,
                        0.22019663453102112,
                        0.2071012258529663,
                        -0.10838769376277924,
                        0.6089017391204834,
                        0.18027092516422272,
                        -0.14817923307418823,
                        0.33448460698127747,
                        0.5220224857330322,
                        0.23121599853038788,
                        -0.35993102192878723,
                        0.07605207711458206,
                        0.12082792073488235,
                        0.2713487446308136,
                        0.08359095454216003,
                        0.5898548364639282,
                        -0.03374664857983589,
                        -0.13999627530574799,
                        -0.02679523266851902,
                        0.053787875920534134,
                        0.4257822334766388,
                        0.03851540386676788,
                        0.08809768408536911,
                        0.06653732806444168,
                        0.27142199873924255,
                        -0.28402361273765564,
                        0.41869160532951355,
                        -0.10908138751983643,
                        -0.05238109827041626,
                        0.011478487402200699,
                        -0.3172370493412018,
                        -0.45793816447257996,
                        -0.18565471470355988,
                        0.2314581274986267,
                        0.4904349744319916,
                        -0.22077937424182892,
                        0.31610459089279175,
                        -0.18172204494476318,
                        0.24507908523082733,
                        -0.0548272542655468,
                        -0.1572408229112625,
                        0.11742453277111053,
                        -0.3634611964225769
                    ],
                    [
                        -0.25971877574920654,
                        -0.20065250992774963,
                        -0.22190694510936737,
                        0.003052052576094866,
                        0.8894377946853638,
                        0.2577587068080902,
                        -0.14983084797859192,
                        -0.08719127625226974,
                        0.0345756933093071,
                        -0.004552636761218309,
                        -0.15732955932617188,
                        -0.5926703214645386,
                        -0.15405058860778809,
                        0.9604472517967224,
                        -0.3209232985973358,
                        0.2647828757762909,
                        -0.037353258579969406,
                        -0.07446207851171494,
                        -0.014199275523424149,
                        -0.32876524329185486,
                        -0.8599222898483276,
                        0.12309442460536957,
                        -0.13838918507099152,
                        0.0297970250248909,
                        -0.2384870946407318,
                        -0.2623366117477417,
                        0.10717972368001938,
                        0.0059819296002388,
                        0.2000362128019333,
                        -1.0481679439544678,
                        -0.28409796953201294,
                        -0.6966379284858704,
                        0.2649407386779785,
                        -0.5626777410507202,
                        -0.08786230534315109,
                        -0.20438656210899353,
                        -0.04871675372123718,
                        -0.027971668168902397,
                        -0.07325290888547897,
                        0.35682544112205505,
                        0.05602314695715904,
                        0.10497386008501053,
                        1.3119738101959229,
                        -0.19345541298389435,
                        0.1295499950647354,
                        0.06550145894289017,
                        -0.1922658383846283,
                        0.4276852607727051,
                        -0.3667004108428955,
                        -0.3974411189556122,
                        -0.3187843859195709,
                        -0.28551188111305237,
                        -0.2285948395729065,
                        -0.4352015256881714,
                        -0.1771456003189087,
                        -0.19619999825954437,
                        -0.154766246676445,
                        -0.1105603352189064,
                        -0.24374359846115112,
                        -0.3628155589103699,
                        -0.18487174808979034,
                        -0.2697126865386963,
                        -0.5768552422523499,
                        -0.19911512732505798
                    ],
                    [
                        0.10805797576904297,
                        0.37758851051330566,
                        -0.09196703135967255,
                        -0.13401901721954346,
                        -0.6173455119132996,
                        -0.05714872106909752,
                        -0.04929611459374428,
                        0.2601836025714874,
                        -0.057355158030986786,
                        0.00619856221601367,
                        0.09497438371181488,
                        0.5995304584503174,
                        0.24074001610279083,
                        -1.4080407619476318,
                        0.3001840114593506,
                        -0.23629344999790192,
                        0.09273877739906311,
                        0.3706014156341553,
                        0.0994330570101738,
                        0.47267258167266846,
                        0.9612745642662048,
                        0.4386293590068817,
                        -0.35634443163871765,
                        0.00416966388002038,
                        0.0630888044834137,
                        0.2817409038543701,
                        0.2226482629776001,
                        0.19596067070960999,
                        0.01647808961570263,
                        0.8735867142677307,
                        0.2442372441291809,
                        0.4928300678730011,
                        -0.28585851192474365,
                        -0.04668596759438515,
                        0.03493258357048035,
                        0.2044447362422943,
                        -0.08752965927124023,
                        -0.1423591673374176,
                        -0.03243867680430412,
                        -0.0514458566904068,
                        -0.4191960394382477,
                        0.32300257682800293,
                        0.061225518584251404,
                        -0.011242590844631195,
                        0.0855446606874466,
                        -0.01905636489391327,
                        -0.6810206174850464,
                        0.26477178931236267,
                        0.31351280212402344,
                        0.583507239818573,
                        0.2048688530921936,
                        0.19769656658172607,
                        0.21665355563163757,
                        0.2316376119852066,
                        0.3875957727432251,
                        -0.14990046620368958,
                        0.02396230399608612,
                        0.35872694849967957,
                        0.29635030031204224,
                        -0.32314154505729675,
                        0.18464094400405884,
                        0.419190376996994,
                        0.5548162460327148,
                        0.13421854376792908
                    ],
                    [
                        -0.16342322528362274,
                        -0.3588215112686157,
                        -0.03263471648097038,
                        0.05315367504954338,
                        1.0173755884170532,
                        -0.03239569813013077,
                        -0.4425089955329895,
                        -0.03516503423452377,
                        0.03426780179142952,
                        -0.0519348606467247,
                        -0.2692710757255554,
                        -0.49190956354141235,
                        -0.05457543581724167,
                        1.0372040271759033,
                        -0.35614824295043945,
                        0.06897228211164474,
                        -0.29930201172828674,
                        -0.2993355393409729,
                        -0.384297639131546,
                        -0.17903417348861694,
                        -0.9168131351470947,
                        0.11025550961494446,
                        -0.4219576418399811,
                        0.1857551783323288,
                        -0.3251056671142578,
                        -0.6251121759414673,
                        -0.4092945456504822,
                        -0.37177813053131104,
                        -0.07139910757541656,
                        -1.0772087574005127,
                        0.0948377177119255,
                        -0.4600297510623932,
                        0.43422332406044006,
                        0.5081003308296204,
                        -0.31113773584365845,
                        -0.23485367000102997,
                        -0.14441385865211487,
                        -0.2035938948392868,
                        -0.06588069349527359,
                        -0.21761544048786163,
                        -0.060643427073955536,
                        0.5322203040122986,
                        0.3361426591873169,
                        0.007584808859974146,
                        0.0953097939491272,
                        0.0604703314602375,
                        -0.6824357509613037,
                        0.05455761030316353,
                        -0.5051271319389343,
                        -0.40043652057647705,
                        -0.08475328236818314,
                        -0.18579453229904175,
                        -0.07042116671800613,
                        -0.5453594923019409,
                        -0.30432572960853577,
                        -0.5044503808021545,
                        -0.1196981817483902,
                        -0.15753671526908875,
                        -0.3335181772708893,
                        0.147686168551445,
                        -0.20303159952163696,
                        -0.25943976640701294,
                        -0.23218870162963867,
                        0.0031373142264783382
                    ],
                    [
                        0.5249033570289612,
                        0.3158551752567291,
                        -0.04645033925771713,
                        -0.4763053059577942,
                        0.5409606695175171,
                        0.05758487060666084,
                        -0.14238789677619934,
                        -0.115663543343544,
                        0.011675016954541206,
                        0.027989745140075684,
                        0.0433247871696949,
                        -0.04321867600083351,
                        -0.16033528745174408,
                        0.3738422095775604,
                        -0.2795608937740326,
                        0.19368880987167358,
                        -0.0581393763422966,
                        -0.3569806218147278,
                        -0.0005993240047246218,
                        -0.2999740540981293,
                        -0.11304886639118195,
                        -0.1987263709306717,
                        -0.003727325703948736,
                        -0.26112115383148193,
                        -0.3113858103752136,
                        -0.065867118537426,
                        -0.17378602921962738,
                        -0.17546536028385162,
                        0.1823035627603531,
                        -0.6735697984695435,
                        -0.08113698661327362,
                        -0.07040100544691086,
                        -0.12739846110343933,
                        0.05282038450241089,
                        0.0034863310866057873,
                        -0.11072589457035065,
                        0.08271417766809464,
                        -0.16359645128250122,
                        -0.1904076486825943,
                        0.20947197079658508,
                        0.15439629554748535,
                        0.08353177458047867,
                        -0.06149953231215477,
                        -0.08650175482034683,
                        -0.021518150344491005,
                        -0.062120065093040466,
                        -0.019258849322795868,
                        -0.08758179098367691,
                        0.23492619395256042,
                        0.03151092678308487,
                        0.04029398411512375,
                        -0.20848584175109863,
                        -0.32524213194847107,
                        -0.4583740830421448,
                        -0.316077321767807,
                        -0.10424432903528214,
                        0.07438119500875473,
                        0.21073393523693085,
                        -0.07273121923208237,
                        1.1218479871749878,
                        0.06914082914590836,
                        -0.1024889349937439,
                        -0.06353824585676193,
                        -0.27106183767318726
                    ],
                    [
                        -0.19113020598888397,
                        -0.35107171535491943,
                        -0.03451453894376755,
                        -0.13070178031921387,
                        0.2874380350112915,
                        -0.3629370331764221,
                        -0.12138542532920837,
                        -0.25781920552253723,
                        -0.09982123225927353,
                        -0.1934172511100769,
                        -0.17526093125343323,
                        -0.36573031544685364,
                        -0.26320502161979675,
                        0.7493139505386353,
                        -0.5752584338188171,
                        -0.4241991937160492,
                        -0.42201733589172363,
                        -0.2806851267814636,
                        -0.6129953861236572,
                        -0.5783993005752563,
                        -0.44969335198402405,
                        -0.07050113379955292,
                        0.22950373589992523,
                        -0.2076568305492401,
                        -0.2834625840187073,
                        -0.10470526665449142,
                        -0.28524112701416016,
                        -0.3595748841762543,
                        -0.0019196614157408476,
                        -0.8386361002922058,
                        -0.22666284441947937,
                        -0.08441916853189468,
                        -0.3130647540092468,
                        -0.14834189414978027,
                        0.005464212037622929,
                        -0.17534410953521729,
                        0.02886083908379078,
                        0.005429356824606657,
                        0.15747973322868347,
                        0.44839558005332947,
                        0.2384144812822342,
                        0.09523111581802368,
                        -0.42582666873931885,
                        -0.1151491105556488,
                        0.08032829314470291,
                        0.011193009093403816,
                        0.24640554189682007,
                        0.004130171611905098,
                        -0.2697787582874298,
                        -0.29880547523498535,
                        -0.0010497686453163624,
                        -0.4656883478164673,
                        0.17393627762794495,
                        -0.39098578691482544,
                        -0.33746322989463806,
                        0.09277962893247604,
                        -0.013840691186487675,
                        -0.2734764516353607,
                        -0.28294822573661804,
                        -0.5158208608627319,
                        -0.02261952869594097,
                        0.06758296489715576,
                        -0.26653510332107544,
                        -0.241017147898674
                    ],
                    [
                        0.5223414301872253,
                        -0.10427708923816681,
                        -0.12575788795948029,
                        0.09253162890672684,
                        -0.476516455411911,
                        0.16821323335170746,
                        0.07331432402133942,
                        -0.19113129377365112,
                        0.4691433310508728,
                        0.6885986924171448,
                        -0.054868053644895554,
                        0.02748662605881691,
                        -0.2005721628665924,
                        0.9464060664176941,
                        -0.3069134056568146,
                        -0.03608326241374016,
                        -0.040636152029037476,
                        0.0257608313113451,
                        -0.41630983352661133,
                        -0.4270203709602356,
                        0.2794080972671509,
                        0.34216660261154175,
                        0.20596224069595337,
                        -0.30185937881469727,
                        0.24813291430473328,
                        -0.2089231312274933,
                        -0.665820300579071,
                        0.49461740255355835,
                        -0.20794816315174103,
                        0.08667384088039398,
                        -0.3320247530937195,
                        0.5222560167312622,
                        -0.3607317805290222,
                        -0.3450382947921753,
                        1.091622233390808,
                        -0.35860592126846313,
                        -0.12274736166000366,
                        -0.9903532266616821,
                        0.20806246995925903,
                        -0.0976124256849289,
                        0.10339841991662979,
                        0.8260130882263184,
                        0.3341602385044098,
                        -1.478309154510498,
                        0.010458897799253464,
                        0.58299720287323,
                        -0.07126794010400772,
                        0.3852088451385498,
                        0.16128455102443695,
                        -0.11761479824781418,
                        0.22823913395404816,
                        0.41011080145835876,
                        -0.18412086367607117,
                        0.332794725894928,
                        0.0674150362610817,
                        0.6294410228729248,
                        0.09609661251306534,
                        0.19564670324325562,
                        0.09351144731044769,
                        -0.22490502893924713,
                        0.03479483351111412,
                        -0.3411191403865814,
                        -0.09000370651483536,
                        0.20630744099617004
                    ],
                    [
                        -0.3541647493839264,
                        -0.16797737777233124,
                        -0.02829175628721714,
                        0.2324388325214386,
                        -0.20059286057949066,
                        0.0020193986129015684,
                        0.11865948885679245,
                        0.09879007190465927,
                        0.5044114589691162,
                        -0.23480632901191711,
                        0.028348412364721298,
                        -0.014357836917042732,
                        -0.07433048635721207,
                        -0.06806611269712448,
                        -0.04035935923457146,
                        0.2191580832004547,
                        -0.18546494841575623,
                        -0.13395145535469055,
                        -0.18118532001972198,
                        -0.07422254234552383,
                        -0.2499997615814209,
                        -0.03743463382124901,
                        0.18994157016277313,
                        0.1308157593011856,
                        0.3827713131904602,
                        -0.16073277592658997,
                        0.13753388822078705,
                        0.08908289670944214,
                        0.047830939292907715,
                        0.11571762710809708,
                        -0.13638341426849365,
                        -0.026828497648239136,
                        -0.12079313397407532,
                        0.43892529606819153,
                        -0.0867793932557106,
                        0.0055597564205527306,
                        0.47440701723098755,
                        0.01338918972760439,
                        0.04636850208044052,
                        -0.18452587723731995,
                        0.46070706844329834,
                        -0.002697740448638797,
                        0.15367491543293,
                        -0.2624545097351074,
                        0.08536963164806366,
                        -0.04225467890501022,
                        -0.054446298629045486,
                        0.1666191816329956,
                        -0.27597954869270325,
                        -0.01831173151731491,
                        -0.13892212510108948,
                        -0.15548968315124512,
                        0.020245283842086792,
                        0.18428322672843933,
                        -0.10754352062940598,
                        0.5446248650550842,
                        0.8515346646308899,
                        -0.36311739683151245,
                        -0.10774322599172592,
                        -0.4389813542366028,
                        0.04988798499107361,
                        0.0421811006963253,
                        0.15917082130908966,
                        0.024876734241843224
                    ],
                    [
                        -0.09608117491006851,
                        -0.10380864888429642,
                        -0.1032852828502655,
                        0.290801078081131,
                        0.4917307496070862,
                        -0.0329832024872303,
                        -0.12403862923383713,
                        -0.20108626782894135,
                        0.25238966941833496,
                        -0.05225284770131111,
                        -0.26924780011177063,
                        -0.4313458204269409,
                        -0.21909677982330322,
                        0.7362319231033325,
                        -0.3445754051208496,
                        0.13276168704032898,
                        0.012383896857500076,
                        -0.05920758843421936,
                        -0.4450760781764984,
                        -0.3345106244087219,
                        -1.0051079988479614,
                        -0.25302615761756897,
                        -0.18766187131404877,
                        0.07496710866689682,
                        -0.19836397469043732,
                        -0.19119668006896973,
                        -0.0538628026843071,
                        -0.21364471316337585,
                        0.20493492484092712,
                        -1.0030995607376099,
                        -0.2368316948413849,
                        -0.6057390570640564,
                        -0.47625207901000977,
                        0.057528942823410034,
                        0.27301639318466187,
                        0.2933029234409332,
                        0.14678063988685608,
                        0.23611466586589813,
                        -0.4447283446788788,
                        -0.032542549073696136,
                        0.1412568986415863,
                        0.18898189067840576,
                        -0.12213633954524994,
                        0.17495250701904297,
                        -0.13390105962753296,
                        0.09546442329883575,
                        -0.5107325315475464,
                        0.3944406509399414,
                        -0.21244333684444427,
                        -0.2827267646789551,
                        -0.37423086166381836,
                        -0.09385252743959427,
                        -0.11774878948926926,
                        -0.25247231125831604,
                        -0.09175316244363785,
                        0.20249323546886444,
                        0.004307623486965895,
                        -0.16724105179309845,
                        -0.3008187413215637,
                        0.43611618876457214,
                        -0.41327765583992004,
                        -0.13167060911655426,
                        -0.3999515175819397,
                        -0.15791746973991394
                    ],
                    [
                        0.03946729749441147,
                        0.20956911146640778,
                        0.2747800052165985,
                        -0.3114092946052551,
                        0.19689439237117767,
                        -0.44607681035995483,
                        -0.0840921700000763,
                        0.05917058885097504,
                        -0.13068939745426178,
                        0.06730997562408447,
                        0.10034403204917908,
                        0.20407931506633759,
                        0.013283945620059967,
                        0.18156161904335022,
                        0.0767335295677185,
                        -0.16135331988334656,
                        0.05303133651614189,
                        0.03381739556789398,
                        0.11422734707593918,
                        -0.06892695277929306,
                        0.1425730586051941,
                        -0.18353424966335297,
                        -0.278961718082428,
                        0.29426926374435425,
                        -0.4430570602416992,
                        -0.022202368825674057,
                        -0.0008819909417070448,
                        0.14453460276126862,
                        0.23850460350513458,
                        -0.2704547643661499,
                        -0.14237616956233978,
                        0.2586822509765625,
                        -0.01909075863659382,
                        -0.10867093503475189,
                        -0.04428033158183098,
                        -0.5559247732162476,
                        -0.27648115158081055,
                        -0.31873106956481934,
                        -0.1536320596933365,
                        -0.3522202968597412,
                        0.08966615051031113,
                        0.6858620047569275,
                        -0.15896885097026825,
                        0.2504342198371887,
                        -0.904897928237915,
                        0.3001570701599121,
                        1.7862824201583862,
                        -0.07097657769918442,
                        0.10814167559146881,
                        0.1901547759771347,
                        0.10476081818342209,
                        0.10011963546276093,
                        -0.018730303272604942,
                        0.19720709323883057,
                        -0.28987711668014526,
                        -0.038387101143598557,
                        0.17849235236644745,
                        0.0612739734351635,
                        0.1274411529302597,
                        -0.04768438637256622,
                        0.15146175026893616,
                        0.4291973114013672,
                        0.29504427313804626,
                        -0.10837843269109726
                    ],
                    [
                        0.08501192927360535,
                        -0.20270732045173645,
                        0.8605726957321167,
                        -0.1588650345802307,
                        0.05059448629617691,
                        0.045040130615234375,
                        -0.11011070758104324,
                        -0.04182164743542671,
                        -0.2732312083244324,
                        -0.05061183497309685,
                        0.14254048466682434,
                        -0.012255514971911907,
                        -0.2701319456100464,
                        0.4831244945526123,
                        -0.03255197033286095,
                        -0.25308212637901306,
                        0.26575878262519836,
                        -0.23840822279453278,
                        0.20806658267974854,
                        0.36697152256965637,
                        0.21313294768333435,
                        0.12645436823368073,
                        0.23697035014629364,
                        -0.6005434989929199,
                        -0.2955555319786072,
                        -0.6138526201248169,
                        0.0011291123228147626,
                        -0.3405243158340454,
                        -0.40364494919776917,
                        -0.7951138615608215,
                        -0.33192873001098633,
                        0.10326216369867325,
                        0.18511785566806793,
                        0.46711766719818115,
                        -0.17971616983413696,
                        -1.0596354007720947,
                        0.17032864689826965,
                        0.28625088930130005,
                        0.7349570989608765,
                        0.4669942557811737,
                        0.18145354092121124,
                        -0.08728451281785965,
                        0.3337784707546234,
                        0.6123250722885132,
                        -0.07065549492835999,
                        -0.35770007967948914,
                        0.3001417815685272,
                        -0.345673531293869,
                        0.14091666042804718,
                        -0.08143237978219986,
                        0.34561628103256226,
                        0.5487955212593079,
                        -0.38605576753616333,
                        -0.42095279693603516,
                        0.3566696345806122,
                        -1.602712869644165,
                        0.09484902024269104,
                        0.13593263924121857,
                        0.06251656264066696,
                        0.2388535737991333,
                        -0.1523931622505188,
                        -0.33715158700942993,
                        0.27909737825393677,
                        -0.08833025395870209
                    ],
                    [
                        0.008018285036087036,
                        0.11233100295066833,
                        -0.3711334764957428,
                        0.40812286734580994,
                        -0.2135009467601776,
                        -0.3899112939834595,
                        -0.04093858599662781,
                        -0.04198343679308891,
                        0.059394631534814835,
                        -0.22182810306549072,
                        -0.3113725483417511,
                        -0.050262656062841415,
                        -0.13137345016002655,
                        -0.2229701727628708,
                        -0.19521045684814453,
                        -0.06594362109899521,
                        0.11029836535453796,
                        0.5162307620048523,
                        0.3227057158946991,
                        0.34902599453926086,
                        0.04379669949412346,
                        0.1050681471824646,
                        0.09689104557037354,
                        0.006898784078657627,
                        -0.0772232636809349,
                        0.0594136118888855,
                        0.04070897400379181,
                        -0.11473336815834045,
                        -0.06513447314500809,
                        -0.019500721246004105,
                        -0.0693080946803093,
                        -0.2966122329235077,
                        -0.09454885125160217,
                        -0.1991996169090271,
                        0.017655231058597565,
                        -0.16896474361419678,
                        -0.07810226827859879,
                        0.13562165200710297,
                        0.19901496171951294,
                        0.27232789993286133,
                        -0.15200993418693542,
                        0.06318499892950058,
                        0.0028681240510195494,
                        -0.584479808807373,
                        0.3178775906562805,
                        -0.016387123614549637,
                        0.1885296106338501,
                        0.024229280650615692,
                        0.16277380287647247,
                        0.08469316363334656,
                        -0.18705430626869202,
                        -0.4720360338687897,
                        0.004247230943292379,
                        0.126960888504982,
                        0.3850986063480377,
                        -0.00035717274295166135,
                        -0.0841899961233139,
                        -0.0960938036441803,
                        -0.18300221860408783,
                        0.7898837327957153,
                        -0.07978793233633041,
                        -0.36249837279319763,
                        -0.03978462144732475,
                        0.018760699778795242
                    ]
                ],
                [
                    0.41479039192199707,
                    0.8232957124710083,
                    -0.6210262775421143,
                    -0.08711430430412292,
                    -2.8173668384552,
                    0.20402891933918,
                    0.39137277007102966,
                    0.3818463087081909,
                    -0.6643319129943848,
                    -0.007073991000652313,
                    1.3932480812072754,
                    2.122589588165283,
                    0.41307133436203003,
                    -1.472583532333374,
                    0.8570576906204224,
                    -1.5901821851730347,
                    -0.2888335585594177,
                    0.08768261969089508,
                    0.5121663212776184,
                    -0.01477709412574768,
                    3.4050655364990234,
                    0.31167712807655334,
                    0.2742302417755127,
                    0.5251271724700928,
                    1.0569428205490112,
                    0.3323283791542053,
                    -0.08137591928243637,
                    -0.11374586820602417,
                    0.08744541555643082,
                    2.48688006401062,
                    -0.24341773986816406,
                    2.4061455726623535,
                    0.25255754590034485,
                    0.026608876883983612,
                    0.11130079627037048,
                    -0.3880636692047119,
                    0.18729455769062042,
                    -0.2545933127403259,
                    0.4908069372177124,
                    -0.15246303379535675,
                    0.03712816163897514,
                    -0.21389761567115784,
                    0.7321432828903198,
                    -0.32582390308380127,
                    -0.23901446163654327,
                    0.31284865736961365,
                    -0.42643284797668457,
                    0.2785783112049103,
                    0.9363971948623657,
                    1.3552203178405762,
                    0.8681623935699463,
                    0.3100847601890564,
                    0.49640995264053345,
                    0.8166794776916504,
                    1.034378170967102,
                    0.33493322134017944,
                    0.1722070425748825,
                    0.5353338122367859,
                    1.7291538715362549,
                    -0.26698723435401917,
                    0.797410249710083,
                    0.5291844010353088,
                    0.8808484077453613,
                    0.23521751165390015
                ]
            ]
        },
        {
            "type": "dense",
            "activation": "",
            "shape": [
                null,
                null,
                1
            ],
            "weights": [
                [
                    [
                        -0.03685571253299713
                    ],
                    [
                        -0.021549833938479424
                    ],
                    [
                        -0.12252762168645859
                    ],
                    [
                        0.02771698124706745
                    ],
                    [
                        -0.11022147536277771
                    ],
                    [
                        -0.07528045028448105
                    ],
                    [
                        -0.10403723269701004
                    ],
                    [
                        0.15227973461151123
                    ],
                    [
                        -0.32074275612831116
                    ],
                    [
                        0.06698469072580338
                    ],
                    [
                        0.006968793924897909
                    ],
                    [
                        1.533043384552002
                    ],
                    [
                        0.0005302411736920476
                    ],
                    [
                        -0.06245715543627739
                    ],
                    [
                        -0.024656016379594803
                    ],
                    [
                        0.048138439655303955
                    ]
                ],
                [
                    0.15174633264541626
                ]
            ]
        }
    ],
    "samplerate": 48000.0,
    "author": "AIDA DSP",
    "esr": 0.042486097663640976
}
