{
    "in_shape": [
        null,
        null,
        1
    ],
    "in_gain": 6,
    "out_gain": -4,
    "layers": [
        {
            "type": "lstm",
            "activation": "",
            "shape": [
                null,
                null,
                12
            ],
            "weights": [
                [
                    [
                        0.20872361958026886,
                        -0.45455366373062134,
                        -0.006283156108111143,
                        0.12360429763793945,
                        0.18183864653110504,
                        0.15274885296821594,
                        -0.36386510729789734,
                        -0.16175471246242523,
                        -0.00645373435690999,
                        0.6897585391998291,
                        0.27502092719078064,
                        0.0901598408818245,
                        -0.10690751671791077,
                        -0.4077727198600769,
                        -0.2375437170267105,
                        -0.18879792094230652,
                        0.009297707118093967,
                        0.10882765054702759,
                        -0.38012126088142395,
                        -0.18906769156455994,
                        0.04719628766179085,
                        0.3999708294868469,
                        0.183220773935318,
                        0.11097326129674911,
                        0.12900082767009735,
                        0.04355199635028839,
                        0.5912765264511108,
                        0.056219812482595444,
                        -0.5958788990974426,
                        -0.07061480730772018,
                        0.7966030240058899,
                        -0.04599388316273689,
                        0.1823536902666092,
                        0.43086379766464233,
                        -0.27313798666000366,
                        -0.000883313303347677,
                        -0.07121004164218903,
                        -0.10919442027807236,
                        -0.1998155564069748,
                        0.09791284054517746,
                        0.2531362473964691,
                        0.1420345902442932,
                        -0.24061118066310883,
                        -0.19831691682338715,
                        -0.249863401055336,
                        0.685703456401825,
                        0.24785152077674866,
                        0.07660318911075592
                    ]
                ],
                [
                    [
                        0.2838197946548462,
                        0.012883956544101238,
                        -0.01792919635772705,
                        -0.19712746143341064,
                        0.0060623884201049805,
                        0.039151713252067566,
                        0.07029213011264801,
                        0.09963788837194443,
                        0.08702386170625687,
                        -0.027849577367305756,
                        -0.09184227138757706,
                        0.24656321108341217,
                        0.24011118710041046,
                        -0.036609187722206116,
                        0.12443515658378601,
                        -0.03749395161867142,
                        0.06044371426105499,
                        0.004980140365660191,
                        0.4922026991844177,
                        0.03415864706039429,
                        0.4710761308670044,
                        0.08083425462245941,
                        0.01144369225949049,
                        0.6491169333457947,
                        0.21793708205223083,
                        0.29272788763046265,
                        -0.22474800050258636,
                        -0.837766170501709,
                        0.11964363604784012,
                        -0.00987324956804514,
                        -0.06660054624080658,
                        -0.5402446389198303,
                        -0.24566395580768585,
                        -0.023606587201356888,
                        -0.8434712290763855,
                        1.2516306638717651,
                        0.26395222544670105,
                        -0.15349142253398895,
                        0.039834752678871155,
                        -0.1473625749349594,
                        0.003687542397528887,
                        0.02306493930518627,
                        -0.05162956193089485,
                        0.10835088044404984,
                        -0.1056784987449646,
                        0.07137852907180786,
                        -0.0862206518650055,
                        0.1652551293373108
                    ],
                    [
                        0.18800944089889526,
                        0.14894646406173706,
                        -0.22945792973041534,
                        -0.20768889784812927,
                        -0.06670069694519043,
                        -0.001640467089600861,
                        0.013200180605053902,
                        0.055174220353364944,
                        0.11405055224895477,
                        -0.14819784462451935,
                        0.028562122955918312,
                        0.1481616199016571,
                        -0.065008744597435,
                        0.1971445083618164,
                        -0.0393315926194191,
                        -0.2613920271396637,
                        -0.06973064690828323,
                        0.030996637418866158,
                        0.15414607524871826,
                        0.015656718984246254,
                        0.3489009141921997,
                        -0.13938239216804504,
                        -0.01342945545911789,
                        -0.032449252903461456,
                        -0.5380592942237854,
                        -0.1895303875207901,
                        0.42677968740463257,
                        0.23420287668704987,
                        -0.10931281745433807,
                        -0.15120239555835724,
                        0.08341384679079056,
                        -0.019602110609412193,
                        -0.19233328104019165,
                        0.16135379672050476,
                        -0.6501219272613525,
                        0.09678589552640915,
                        0.2077980786561966,
                        0.26525384187698364,
                        0.11944795399904251,
                        -0.17531414330005646,
                        -0.05242357403039932,
                        -0.004418454132974148,
                        0.08478865027427673,
                        0.05399426817893982,
                        0.7405158877372742,
                        -0.145844966173172,
                        -0.04276810213923454,
                        0.0809442326426506
                    ],
                    [
                        -0.17482611536979675,
                        -0.3965683877468109,
                        0.1417655646800995,
                        0.053171057254076004,
                        -0.009182860143482685,
                        -0.0029511521570384502,
                        -0.10637440532445908,
                        -0.0695914626121521,
                        0.2556312084197998,
                        0.22499248385429382,
                        0.1287943720817566,
                        -0.10010446608066559,
                        -0.10957465320825577,
                        -0.4529890716075897,
                        0.024129517376422882,
                        0.21442419290542603,
                        -0.024313395842909813,
                        -0.004073734395205975,
                        -0.49112212657928467,
                        -0.03019789420068264,
                        -0.25268179178237915,
                        0.06494863331317902,
                        0.041736386716365814,
                        -0.004433842841535807,
                        -0.700802206993103,
                        -0.5038308501243591,
                        0.3170551061630249,
                        0.6208835244178772,
                        0.054220862686634064,
                        0.047953009605407715,
                        0.08362443000078201,
                        -0.12318581342697144,
                        0.5578110814094543,
                        0.4091063141822815,
                        0.0012199950870126486,
                        -0.6947522163391113,
                        -0.17893795669078827,
                        -0.29504966735839844,
                        0.11316930502653122,
                        -0.022827181965112686,
                        -0.020878776907920837,
                        0.0007259447011165321,
                        -0.2186221480369568,
                        -0.08134151995182037,
                        0.011881938204169273,
                        0.24207887053489685,
                        0.033359214663505554,
                        -0.12397509068250656
                    ],
                    [
                        0.6495663523674011,
                        -0.4743463397026062,
                        0.08401483297348022,
                        0.07042741775512695,
                        0.07691310346126556,
                        -0.0902487188577652,
                        -0.15737687051296234,
                        0.0440947487950325,
                        0.08167832344770432,
                        0.24767354130744934,
                        0.17926208674907684,
                        0.34886661171913147,
                        -0.08919647336006165,
                        -0.3770337700843811,
                        -0.05917956680059433,
                        0.47722533345222473,
                        -0.027763761579990387,
                        -0.03168172389268875,
                        -0.42140355706214905,
                        -0.001050554565154016,
                        -0.3245517611503601,
                        0.19617673754692078,
                        0.015268167480826378,
                        0.3714720606803894,
                        0.04038877785205841,
                        -0.34662938117980957,
                        0.062231581658124924,
                        -0.3118126094341278,
                        -0.5287395119667053,
                        0.13569258153438568,
                        0.03476036712527275,
                        0.38268521428108215,
                        0.373746395111084,
                        0.36106032133102417,
                        0.3532932996749878,
                        0.499624639749527,
                        0.5557628273963928,
                        -0.26766547560691833,
                        0.023967351764440536,
                        0.1371764838695526,
                        0.06164870783686638,
                        -0.0859149768948555,
                        -0.13067033886909485,
                        0.03823517635464668,
                        0.06282712519168854,
                        0.11811885982751846,
                        0.1195032075047493,
                        0.10626648366451263
                    ],
                    [
                        -0.5127565264701843,
                        -0.02603977546095848,
                        -0.08292315900325775,
                        -0.027600856497883797,
                        -0.05500386282801628,
                        -0.032335348427295685,
                        -0.1193016842007637,
                        0.012770590372383595,
                        -0.03895210474729538,
                        -0.1012735366821289,
                        -0.013364008627831936,
                        0.02616073749959469,
                        0.16380637884140015,
                        -0.05690339580178261,
                        0.009088858030736446,
                        0.09624408185482025,
                        -0.010751303285360336,
                        -0.021239526569843292,
                        -0.1781354695558548,
                        0.03324007987976074,
                        0.2913547158241272,
                        -0.006415397394448519,
                        -0.04662960767745972,
                        -0.017138855531811714,
                        -0.08701828867197037,
                        -0.19682568311691284,
                        -0.15455327928066254,
                        1.2594785690307617,
                        -0.32587090134620667,
                        0.4324725270271301,
                        -0.07766719162464142,
                        -0.32839956879615784,
                        0.08305586129426956,
                        -0.1814708709716797,
                        0.5562745928764343,
                        0.7158850431442261,
                        -0.14033034443855286,
                        -0.11047687381505966,
                        0.0684635117650032,
                        0.01616598665714264,
                        -0.040634214878082275,
                        -0.026682035997509956,
                        -0.08349609375,
                        0.054719988256692886,
                        0.25490474700927734,
                        -0.25111645460128784,
                        -0.1325700730085373,
                        -0.01688912697136402
                    ],
                    [
                        -0.1183825358748436,
                        -0.024198751896619797,
                        -0.020035048946738243,
                        -0.029697604477405548,
                        -0.020817818120121956,
                        -0.011435586959123611,
                        0.04739803820848465,
                        0.006521246396005154,
                        0.04217935726046562,
                        0.024279054254293442,
                        -0.02267938107252121,
                        0.011405213735997677,
                        -0.006133998278528452,
                        -0.06693378835916519,
                        -0.01081300899386406,
                        0.04503371939063072,
                        0.00813204888254404,
                        -0.011942406184971333,
                        0.0019762921147048473,
                        0.011406472884118557,
                        0.0977511927485466,
                        0.05766104906797409,
                        0.03607233613729477,
                        0.10780669003725052,
                        0.1733349710702896,
                        -0.0019396365387365222,
                        0.05983518809080124,
                        -0.33665040135383606,
                        -0.25610077381134033,
                        -0.0030512043740600348,
                        0.0451304130256176,
                        0.2187877744436264,
                        -0.01211732067167759,
                        -0.14653174579143524,
                        0.32206791639328003,
                        0.3481282591819763,
                        -0.08554133027791977,
                        -0.05890500918030739,
                        -0.000705953047145158,
                        -0.017114367336034775,
                        -0.019046718254685402,
                        -0.01504755299538374,
                        -0.01356563437730074,
                        0.010955723002552986,
                        0.014718487858772278,
                        0.014861727133393288,
                        -0.028685245662927628,
                        0.02729598991572857
                    ],
                    [
                        -0.5893576741218567,
                        -0.4937386214733124,
                        -0.10407619923353195,
                        0.19763989746570587,
                        0.08805151283740997,
                        0.0012579411268234253,
                        -0.0721820667386055,
                        -0.14702624082565308,
                        -0.023897085338830948,
                        0.39140012860298157,
                        -0.13525091111660004,
                        -0.2216806709766388,
                        -0.28342464566230774,
                        -0.5981895923614502,
                        -0.33013325929641724,
                        0.3250885605812073,
                        0.001140531967394054,
                        -0.016845930367708206,
                        -0.2614080309867859,
                        -0.06840398162603378,
                        -0.3427528440952301,
                        0.20782695710659027,
                        0.07577084749937057,
                        0.13927017152309418,
                        -0.4906337261199951,
                        -0.5210354924201965,
                        0.3612152934074402,
                        0.014985409565269947,
                        0.14925110340118408,
                        -0.009391105733811855,
                        0.15775202214717865,
                        -0.04586978256702423,
                        0.4683676064014435,
                        0.4873781204223633,
                        -0.17862176895141602,
                        0.38560256361961365,
                        -0.4535772502422333,
                        -0.46132466197013855,
                        -0.22457103431224823,
                        0.10663273185491562,
                        0.0736919566988945,
                        0.008903348818421364,
                        -0.06488622725009918,
                        -0.17005890607833862,
                        -0.3430485129356384,
                        0.3888823091983795,
                        -0.19561322033405304,
                        -0.15107062458992004
                    ],
                    [
                        0.2114229053258896,
                        -0.007390202023088932,
                        0.02014094404876232,
                        0.07723189145326614,
                        0.005127540323883295,
                        0.005591251887381077,
                        0.0008860728703439236,
                        0.02682008221745491,
                        0.08188115060329437,
                        0.02002647891640663,
                        0.04206332564353943,
                        -0.02639980986714363,
                        -0.037043120712041855,
                        -0.0033550525549799204,
                        -0.01037550438195467,
                        -0.04161057248711586,
                        -0.03207625448703766,
                        0.0028264422435313463,
                        -0.14715898036956787,
                        0.002200659364461899,
                        -0.29876014590263367,
                        -0.016077447682619095,
                        -0.017337195575237274,
                        -0.33873745799064636,
                        0.23832757771015167,
                        0.13165225088596344,
                        0.008911702781915665,
                        0.22234709560871124,
                        0.1976616382598877,
                        -0.2607121467590332,
                        -0.17290453612804413,
                        -0.025036677718162537,
                        0.008460359647870064,
                        -0.08538937568664551,
                        -0.17989517748355865,
                        -1.0468270778656006,
                        0.016431011259555817,
                        -0.025063013657927513,
                        -0.038837432861328125,
                        0.06614723056554794,
                        -0.0006444214377552271,
                        0.005450631491839886,
                        0.07568337023258209,
                        0.036920465528964996,
                        -0.06533778458833694,
                        0.054921992123126984,
                        0.06856218725442886,
                        -0.03960210457444191
                    ],
                    [
                        0.010281939059495926,
                        -0.21430979669094086,
                        0.12823793292045593,
                        -0.21171484887599945,
                        -0.20925197005271912,
                        -0.0064809974282979965,
                        -0.18988828361034393,
                        -0.0657152384519577,
                        0.2610202133655548,
                        0.24667899310588837,
                        0.1705411821603775,
                        -0.20239320397377014,
                        0.014320519752800465,
                        -0.4876454472541809,
                        0.06674079596996307,
                        0.39694005250930786,
                        -0.018682831898331642,
                        -0.00492470059543848,
                        -0.28514808416366577,
                        -0.01007399894297123,
                        -0.4657662808895111,
                        0.06749079376459122,
                        0.08207786828279495,
                        0.16871245205402374,
                        0.6898328065872192,
                        -0.28239864110946655,
                        -0.0612410306930542,
                        0.35275906324386597,
                        0.7722713351249695,
                        0.21153581142425537,
                        -0.28168806433677673,
                        -0.2688080966472626,
                        0.5998522639274597,
                        0.4203733801841736,
                        0.26669684052467346,
                        0.2551719844341278,
                        -0.26281142234802246,
                        -0.35642755031585693,
                        -0.06381238251924515,
                        -0.25643661618232727,
                        -0.23863761126995087,
                        -0.011485256254673004,
                        -0.29795071482658386,
                        -0.0850345641374588,
                        -0.14238038659095764,
                        0.28770649433135986,
                        0.018760979175567627,
                        -0.1866016685962677
                    ],
                    [
                        0.26289162039756775,
                        -0.002244719071313739,
                        0.17202836275100708,
                        -0.15404252707958221,
                        -0.06434495747089386,
                        -0.025167766958475113,
                        0.2629496157169342,
                        -0.02764556184411049,
                        0.542286217212677,
                        -0.03825264424085617,
                        0.03277016058564186,
                        0.13013866543769836,
                        0.24222859740257263,
                        -0.1083601787686348,
                        0.16350284218788147,
                        0.10134853422641754,
                        0.020734690129756927,
                        -0.00613179337233305,
                        0.1363849937915802,
                        0.02426995150744915,
                        0.006322801113128662,
                        0.014307674020528793,
                        -0.0750364288687706,
                        0.3329707682132721,
                        -0.12940295040607452,
                        -0.06617970764636993,
                        0.1983647346496582,
                        0.009340636432170868,
                        0.06755721569061279,
                        0.15986715257167816,
                        0.03173457086086273,
                        -0.07982487976551056,
                        0.09205114096403122,
                        -0.13688887655735016,
                        0.45018070936203003,
                        0.5610220432281494,
                        0.2865467071533203,
                        -0.035472556948661804,
                        0.3258145749568939,
                        -0.14453545212745667,
                        -0.05648060888051987,
                        -0.03273427113890648,
                        0.018030228093266487,
                        -0.019903672859072685,
                        0.5589385628700256,
                        -0.07213734835386276,
                        -0.041907645761966705,
                        -0.019731685519218445
                    ],
                    [
                        -0.1596287041902542,
                        -0.028537174686789513,
                        -0.09707169979810715,
                        -0.021227288991212845,
                        -0.03162413835525513,
                        -0.03012312389910221,
                        0.15849684178829193,
                        0.05079478770494461,
                        -0.2115047127008438,
                        0.043099235743284225,
                        -0.0014235656708478928,
                        -0.006001627072691917,
                        0.03783245012164116,
                        -0.05961691215634346,
                        0.0008125471067614853,
                        0.042568471282720566,
                        -0.009184695780277252,
                        -0.02921636402606964,
                        0.12576605379581451,
                        0.02282232604920864,
                        0.13773971796035767,
                        0.12306660413742065,
                        0.09365234524011612,
                        0.07775884866714478,
                        1.1252310276031494,
                        0.26095637679100037,
                        -0.18288367986679077,
                        -0.5213097929954529,
                        -0.6293293833732605,
                        -0.13431316614151,
                        0.03943507745862007,
                        0.15176022052764893,
                        -0.06327185779809952,
                        -0.3264434337615967,
                        0.09740788489580154,
                        -0.9963534474372864,
                        -0.20215101540088654,
                        -0.0937061756849289,
                        -0.07585643976926804,
                        -0.0023666482884436846,
                        -0.027959153056144714,
                        -0.044041991233825684,
                        0.14311692118644714,
                        0.05306312069296837,
                        -0.06264391541481018,
                        0.05729248747229576,
                        0.03915104269981384,
                        0.03992268070578575
                    ],
                    [
                        0.25574570894241333,
                        0.10101819783449173,
                        -0.0868896022439003,
                        -0.05531483516097069,
                        0.024940304458141327,
                        0.14164359867572784,
                        -0.039838846772909164,
                        0.363729864358902,
                        0.37486782670021057,
                        0.00011361508950358257,
                        0.19374534487724304,
                        0.46607664227485657,
                        0.04083862900733948,
                        -0.05692577362060547,
                        0.23059235513210297,
                        -0.28438717126846313,
                        0.03562123328447342,
                        0.061803556978702545,
                        0.5748478174209595,
                        0.09922856837511063,
                        1.1972644329071045,
                        0.044873446226119995,
                        0.1595754325389862,
                        0.24177847802639008,
                        -0.6042782068252563,
                        0.34602463245391846,
                        -0.16501502692699432,
                        -1.020289659500122,
                        -0.34130361676216125,
                        -0.20166844129562378,
                        -0.6087748408317566,
                        0.7260943055152893,
                        -0.5227832198143005,
                        -0.7692118287086487,
                        0.15912267565727234,
                        0.1512662023305893,
                        0.3149339258670807,
                        -0.3618778884410858,
                        -0.13923969864845276,
                        -0.01195373572409153,
                        0.06624787300825119,
                        0.14612708985805511,
                        0.26232632994651794,
                        0.45581746101379395,
                        0.29579511284828186,
                        0.21170690655708313,
                        0.2928529977798462,
                        0.5777833461761475
                    ]
                ],
                [
                    0.00017980486154556274,
                    -0.8290916681289673,
                    -0.43065541982650757,
                    1.3769316673278809,
                    0.9611902832984924,
                    -0.09788186848163605,
                    -0.7262865304946899,
                    0.1702107936143875,
                    -0.8762351274490356,
                    -0.505646824836731,
                    0.018972247838974,
                    1.6341480016708374,
                    0.7550036907196045,
                    0.2828330993652344,
                    0.649915337562561,
                    -0.503447413444519,
                    -0.42698803544044495,
                    -0.09749884158372879,
                    0.7818987369537354,
                    0.0219026580452919,
                    1.385202169418335,
                    0.01945352554321289,
                    0.22542093694210052,
                    0.835578978061676,
                    0.12479974329471588,
                    -0.23748640716075897,
                    -0.15254844725131989,
                    0.2666035592556,
                    0.2928515672683716,
                    0.10400781035423279,
                    -0.08915573358535767,
                    -0.1570391058921814,
                    0.02962467074394226,
                    -0.10299920290708542,
                    0.12391304969787598,
                    0.0952313244342804,
                    0.7106202840805054,
                    -0.6054282784461975,
                    0.128667414188385,
                    1.6963754892349243,
                    0.8684701919555664,
                    -0.07341593503952026,
                    0.32587355375289917,
                    0.025266610085964203,
                    0.3274449408054352,
                    -0.1366964876651764,
                    0.12245705723762512,
                    2.482956647872925
                ]
            ]
        },
        {
            "type": "dense",
            "activation": "",
            "shape": [
                null,
                null,
                1
            ],
            "weights": [
                [
                    [
                        -0.35430532693862915
                    ],
                    [
                        0.22744490206241608
                    ],
                    [
                        -0.07766353338956833
                    ],
                    [
                        0.36190265417099
                    ],
                    [
                        -0.02024325169622898
                    ],
                    [
                        0.0062133632600307465
                    ],
                    [
                        -0.1432642936706543
                    ],
                    [
                        -0.07207175344228745
                    ],
                    [
                        -0.3761778771877289
                    ],
                    [
                        0.07114089280366898
                    ],
                    [
                        -0.09867604821920395
                    ],
                    [
                        -0.8179561495780945
                    ]
                ],
                [
                    -0.03276604786515236
                ]
            ]
        }
    ],
    "samplerate": 48000.0,
    "author": "AIDA DSP",
    "esr": 0.14726723730564117
}
