{
    "in_shape": [
        null,
        null,
        1
    ],
    "out_gain": -1,
    "layers": [
        {
            "type": "lstm",
            "activation": "",
            "shape": [
                null,
                null,
                12
            ],
            "weights": [
                [
                    [
                        -0.21038298308849335,
                        -0.1142376959323883,
                        0.30110520124435425,
                        0.10306810587644577,
                        -0.3061099052429199,
                        -0.039078351110219955,
                        -0.09505003690719604,
                        -0.1377200037240982,
                        0.030152512714266777,
                        0.03753994405269623,
                        -0.04568025842308998,
                        -0.35745692253112793,
                        0.2686699330806732,
                        0.06488794833421707,
                        -0.06169211491942406,
                        0.2591218054294586,
                        -0.057922448962926865,
                        0.10347621142864227,
                        0.029242688789963722,
                        -0.21181629598140717,
                        -0.11389502882957458,
                        -0.11496446281671524,
                        0.06633187085390091,
                        0.25838997960090637,
                        -0.08934368193149567,
                        0.034095633774995804,
                        0.6877291798591614,
                        -0.5860943794250488,
                        0.38165077567100525,
                        -0.1742447465658188,
                        -0.1843854933977127,
                        0.17363815009593964,
                        0.223288431763649,
                        0.379210889339447,
                        -0.2649551331996918,
                        -0.6667391657829285,
                        -1.1621851921081543,
                        -0.11008545011281967,
                        -0.012565433979034424,
                        0.788964033126831,
                        -0.09466177970170975,
                        0.6845170855522156,
                        -0.27966490387916565,
                        -0.25116580724716187,
                        0.116744264960289,
                        0.035079747438430786,
                        -0.07739967107772827,
                        -0.14042040705680847
                    ]
                ],
                [
                    [
                        -0.0012967041693627834,
                        0.37021830677986145,
                        0.10983426123857498,
                        0.09010853618383408,
                        -0.6928784847259521,
                        0.17352071404457092,
                        -0.5044644474983215,
                        0.1722252517938614,
                        -0.20196612179279327,
                        0.3738921284675598,
                        0.25788724422454834,
                        -0.27198490500450134,
                        0.36345627903938293,
                        0.3266579210758209,
                        0.0909700021147728,
                        -0.008940736763179302,
                        0.7734183669090271,
                        0.12822021543979645,
                        0.644972562789917,
                        -0.07335077226161957,
                        0.6451929807662964,
                        -0.07436542212963104,
                        -0.02803381346166134,
                        0.25780951976776123,
                        0.19908718764781952,
                        0.1959226131439209,
                        0.07409410923719406,
                        0.057612109929323196,
                        -0.08472540974617004,
                        -0.17210114002227783,
                        -0.0271709393709898,
                        0.1780904233455658,
                        0.43133020401000977,
                        -1.4510623216629028,
                        0.4927532970905304,
                        0.04487643018364906,
                        0.6089474558830261,
                        0.6988685131072998,
                        0.27113914489746094,
                        -0.09276517480611801,
                        -0.16082021594047546,
                        0.030268121510744095,
                        -0.18983963131904602,
                        0.11517003178596497,
                        0.45274817943573,
                        0.3985828459262848,
                        0.5372220277786255,
                        -0.015965884551405907
                    ],
                    [
                        -0.01570030301809311,
                        0.07839522510766983,
                        0.14640860259532928,
                        0.27970632910728455,
                        -0.8807224035263062,
                        -0.03996853530406952,
                        -0.8528723120689392,
                        0.3846574127674103,
                        -0.2535783350467682,
                        0.620025098323822,
                        0.06279731541872025,
                        -0.19819603860378265,
                        0.08192446082830429,
                        0.2568144202232361,
                        -0.043643768876791,
                        0.11032621562480927,
                        1.1045682430267334,
                        0.14998018741607666,
                        0.7429190278053284,
                        0.28075283765792847,
                        0.3168383240699768,
                        0.6838690042495728,
                        -0.26452478766441345,
                        0.5387757420539856,
                        -0.20410799980163574,
                        0.017926929518580437,
                        -0.15962596237659454,
                        -0.6964588761329651,
                        -0.07181572914123535,
                        -0.5300000309944153,
                        0.20178748667240143,
                        -0.38379383087158203,
                        0.33345505595207214,
                        0.33591407537460327,
                        0.16053679585456848,
                        -0.17472560703754425,
                        0.020404091104865074,
                        0.39170151948928833,
                        0.322538822889328,
                        -0.05109572038054466,
                        0.20903217792510986,
                        -0.17335887253284454,
                        -0.12136286497116089,
                        0.4866519868373871,
                        0.23537342250347137,
                        0.7275123596191406,
                        0.2027711570262909,
                        0.17528332769870758
                    ],
                    [
                        -0.2118152230978012,
                        -0.16758735477924347,
                        0.06421694159507751,
                        -0.10529545694589615,
                        -0.32038384675979614,
                        -0.21289630234241486,
                        0.03129051625728607,
                        0.1132684275507927,
                        0.23671133816242218,
                        0.07312867045402527,
                        -0.11140751093626022,
                        0.21268966794013977,
                        0.006948261056095362,
                        0.28427574038505554,
                        -0.1646651327610016,
                        0.03258401155471802,
                        -0.20442822575569153,
                        -0.22903944551944733,
                        -0.1593666672706604,
                        0.4015471339225769,
                        -0.2419651746749878,
                        0.40052497386932373,
                        0.2746194899082184,
                        0.013257215730845928,
                        0.03169795870780945,
                        0.3910166323184967,
                        0.2767186462879181,
                        0.7281777262687683,
                        -0.041793111711740494,
                        -0.4535790681838989,
                        0.09595026075839996,
                        0.5486539602279663,
                        -0.4673148989677429,
                        -0.6187789440155029,
                        0.7437025904655457,
                        -0.2152329832315445,
                        0.7271852493286133,
                        -0.6714402437210083,
                        -0.12025272101163864,
                        0.08543036133050919,
                        -0.176584392786026,
                        -0.14875528216362,
                        -0.042108941823244095,
                        -0.005851032678037882,
                        0.09947576373815536,
                        0.13945990800857544,
                        -0.07029461860656738,
                        0.2997836470603943
                    ],
                    [
                        0.18154238164424896,
                        0.12707579135894775,
                        -0.18305474519729614,
                        -0.005234279669821262,
                        0.5974563956260681,
                        0.0940895602107048,
                        0.6832799315452576,
                        -0.4028927981853485,
                        0.29099902510643005,
                        -0.1991596668958664,
                        -0.3737472593784332,
                        0.21200664341449738,
                        -0.3262442946434021,
                        0.03398331627249718,
                        -0.03252736106514931,
                        -0.1929495930671692,
                        -1.2611114978790283,
                        -0.6139939427375793,
                        -0.8901655673980713,
                        -0.7746133804321289,
                        -0.10949895530939102,
                        -0.13333609700202942,
                        -0.387307733297348,
                        -0.1623203009366989,
                        0.03620465472340584,
                        -0.29290395975112915,
                        -0.013577044941484928,
                        0.06322327256202698,
                        0.02661602757871151,
                        -0.36500805616378784,
                        0.1675516664981842,
                        -0.14330433309078217,
                        0.36592671275138855,
                        -0.26771631836891174,
                        -0.21047472953796387,
                        0.1354232281446457,
                        -0.17991943657398224,
                        0.2560734152793884,
                        -0.2318602055311203,
                        -0.511763870716095,
                        0.14478155970573425,
                        -0.1131812110543251,
                        -0.36821287870407104,
                        -0.6903342008590698,
                        -0.02124880999326706,
                        -0.2629695534706116,
                        -0.37731844186782837,
                        -0.5035094618797302
                    ],
                    [
                        0.0858319029211998,
                        -0.0887594223022461,
                        0.03672417625784874,
                        0.10439082235097885,
                        0.16892632842063904,
                        -0.1988208144903183,
                        -0.01178049948066473,
                        -0.15468989312648773,
                        -0.03830992057919502,
                        -0.21886111795902252,
                        -0.02037900872528553,
                        0.03114072047173977,
                        -0.04321369528770447,
                        -0.0009082849137485027,
                        0.11525201052427292,
                        0.2965970039367676,
                        -0.10578860342502594,
                        -0.03247702494263649,
                        -0.11303892731666565,
                        0.01029267255216837,
                        0.13569998741149902,
                        -0.09943964332342148,
                        0.12740838527679443,
                        -0.06815797090530396,
                        0.050048403441905975,
                        0.11855736374855042,
                        -0.6765965223312378,
                        0.24307744204998016,
                        0.1546943187713623,
                        -0.0019635024946182966,
                        0.1611035019159317,
                        0.00991310179233551,
                        -0.1994636058807373,
                        -0.23331128060817719,
                        0.008194204419851303,
                        0.8953720927238464,
                        0.1215682253241539,
                        -0.1684211641550064,
                        -0.13438932597637177,
                        -0.07418064028024673,
                        -0.5251184701919556,
                        0.06056706979870796,
                        -0.4171904921531677,
                        0.12652695178985596,
                        0.17002670466899872,
                        -0.2271559089422226,
                        -0.12321051955223083,
                        -0.14676587283611298
                    ],
                    [
                        0.04839243367314339,
                        0.1685533970594406,
                        0.16147267818450928,
                        0.1424144208431244,
                        -0.9938974380493164,
                        0.20287108421325684,
                        -0.3299410939216614,
                        0.1555851697921753,
                        -0.3541174530982971,
                        0.0075579979456961155,
                        0.0010082208318635821,
                        0.1657993346452713,
                        0.31157386302948,
                        0.11672759801149368,
                        0.3082152009010315,
                        0.11983399838209152,
                        0.009771431796252728,
                        0.19307230412960052,
                        0.21183569729328156,
                        0.08162891864776611,
                        0.05617600306868553,
                        0.31178176403045654,
                        -0.37569668889045715,
                        -0.012862053699791431,
                        0.06204436719417572,
                        0.6556931138038635,
                        0.1959332972764969,
                        0.6594917178153992,
                        -0.012777942232787609,
                        0.3140425980091095,
                        0.015838084742426872,
                        0.2600044310092926,
                        -0.11881149560213089,
                        0.319953054189682,
                        -0.03462608531117439,
                        0.1335742473602295,
                        0.059933215379714966,
                        0.07937517017126083,
                        0.22391988337039948,
                        0.1618986278772354,
                        0.12559449672698975,
                        0.4383554458618164,
                        -0.36810576915740967,
                        0.2646911144256592,
                        0.15857240557670593,
                        -0.016220901161432266,
                        0.20719391107559204,
                        0.22925272583961487
                    ],
                    [
                        -0.02705271542072296,
                        0.07203491777181625,
                        -0.2125111073255539,
                        -0.12433163076639175,
                        0.05033044517040253,
                        0.12201014906167984,
                        0.09052663296461105,
                        -0.09472367912530899,
                        -0.29397252202033997,
                        -0.018374361097812653,
                        0.0495634526014328,
                        0.04829266294836998,
                        0.14545907080173492,
                        -0.11328065395355225,
                        -0.28149405121803284,
                        -0.24556320905685425,
                        0.40146979689598083,
                        -0.2628101706504822,
                        0.1505475789308548,
                        -0.10249810665845871,
                        -0.3507814407348633,
                        0.07909320294857025,
                        -0.048743847757577896,
                        -0.25132814049720764,
                        -0.25645938515663147,
                        -0.664196789264679,
                        0.15848147869110107,
                        -0.0639861673116684,
                        -0.08268086612224579,
                        0.42434218525886536,
                        0.6242499947547913,
                        -0.4600263833999634,
                        0.0408349484205246,
                        0.026422131806612015,
                        0.16817791759967804,
                        -0.48924604058265686,
                        -0.07614751905202866,
                        0.06487860530614853,
                        -0.04673396423459053,
                        -0.10718338936567307,
                        0.1754046529531479,
                        -0.2512275278568268,
                        0.2716065049171448,
                        -0.19380922615528107,
                        -0.09240517765283585,
                        -0.01795584335923195,
                        0.12958626449108124,
                        0.06039981544017792
                    ],
                    [
                        0.43517664074897766,
                        0.06432408839464188,
                        0.09205715358257294,
                        -0.03767755255103111,
                        0.37855252623558044,
                        0.1122509092092514,
                        0.16823792457580566,
                        0.13903672993183136,
                        0.1845884919166565,
                        0.2626493275165558,
                        -0.1050948053598404,
                        0.12090699374675751,
                        0.3253587484359741,
                        0.8195298314094543,
                        -0.28424185514450073,
                        -0.9063400030136108,
                        -0.3380064070224762,
                        -0.24962912499904633,
                        0.09928213059902191,
                        -0.05256262421607971,
                        0.6509978771209717,
                        0.17267358303070068,
                        -0.1880636066198349,
                        -0.3574610650539398,
                        0.30649515986442566,
                        0.2778331935405731,
                        -0.26660603284835815,
                        0.9644021391868591,
                        0.34985530376434326,
                        0.0583016462624073,
                        0.3543165326118469,
                        0.5695396065711975,
                        -0.35178282856941223,
                        0.3473028242588043,
                        0.48004236817359924,
                        -0.323048859834671,
                        0.32811158895492554,
                        0.6297833919525146,
                        0.012832889333367348,
                        -0.31085139513015747,
                        -0.21553273499011993,
                        0.1156117245554924,
                        0.12033917009830475,
                        0.42589786648750305,
                        0.3031907081604004,
                        0.38956600427627563,
                        0.13546162843704224,
                        -0.07908877730369568
                    ],
                    [
                        0.16510482132434845,
                        0.180255725979805,
                        0.2644919753074646,
                        -0.03333674743771553,
                        -0.7223868370056152,
                        0.256814181804657,
                        -0.2657761871814728,
                        0.3221847712993622,
                        -0.2718031406402588,
                        0.21853412687778473,
                        0.10811277478933334,
                        0.13182106614112854,
                        0.438585102558136,
                        -0.012795043177902699,
                        0.35766372084617615,
                        -0.29997876286506653,
                        0.33129411935806274,
                        0.09675838053226471,
                        0.5769944787025452,
                        0.19666436314582825,
                        0.39655163884162903,
                        0.3343207836151123,
                        -0.050206009298563004,
                        0.496684193611145,
                        0.03456519544124603,
                        -0.6322047710418701,
                        0.26330509781837463,
                        -0.3858923316001892,
                        -0.19000370800495148,
                        0.26122862100601196,
                        0.28589963912963867,
                        0.478519082069397,
                        0.38043543696403503,
                        -0.20218618214130402,
                        0.23622377216815948,
                        0.10701804608106613,
                        0.05460243672132492,
                        0.15312033891677856,
                        0.3347127139568329,
                        -0.09033498913049698,
                        0.08915919065475464,
                        -0.003056064248085022,
                        0.11305681616067886,
                        -0.09497779607772827,
                        0.27892637252807617,
                        0.22867856919765472,
                        0.07769982516765594,
                        0.36820849776268005
                    ],
                    [
                        0.004222372081130743,
                        0.15043185651302338,
                        -0.15970566868782043,
                        -0.6268029808998108,
                        -0.35245057940483093,
                        0.001806636806577444,
                        0.08730702102184296,
                        -0.2838127911090851,
                        0.13620299100875854,
                        0.0071221026591956615,
                        0.002405817387625575,
                        -0.19630154967308044,
                        0.1290266513824463,
                        0.03643694519996643,
                        0.5008970499038696,
                        -0.5181898474693298,
                        -0.0787062868475914,
                        0.27505412697792053,
                        -0.0788155198097229,
                        0.42635029554367065,
                        -0.08052617311477661,
                        -0.1385161578655243,
                        -0.10123088955879211,
                        0.21932639181613922,
                        0.4172135889530182,
                        -0.057437606155872345,
                        0.42486798763275146,
                        -0.26125404238700867,
                        -0.20295602083206177,
                        0.5253416895866394,
                        0.2725300192832947,
                        -1.0347250699996948,
                        0.1240498498082161,
                        0.07959343492984772,
                        -0.8948746919631958,
                        0.17249490320682526,
                        1.7795664072036743,
                        0.20358751714229584,
                        0.0687607005238533,
                        -1.5648179054260254,
                        -0.26561346650123596,
                        0.22829902172088623,
                        0.017514526844024658,
                        -0.1657848209142685,
                        0.3859444558620453,
                        -0.06704548746347427,
                        0.06224421411752701,
                        -0.07147271186113358
                    ],
                    [
                        0.0028316827956587076,
                        0.20748472213745117,
                        0.017474446445703506,
                        0.1340697705745697,
                        -0.8767572641372681,
                        0.1529838889837265,
                        -0.22070731222629547,
                        0.3311592638492584,
                        -0.42131420969963074,
                        0.24348238110542297,
                        0.13275980949401855,
                        -0.15418487787246704,
                        0.4237883687019348,
                        0.025089221075177193,
                        0.39990612864494324,
                        -0.2940922975540161,
                        0.8897280693054199,
                        0.2021043598651886,
                        1.1496838331222534,
                        0.09010308980941772,
                        0.29991063475608826,
                        -0.243604376912117,
                        0.10964865237474442,
                        0.2661130130290985,
                        0.3649093508720398,
                        0.10160975903272629,
                        -0.48822441697120667,
                        -0.039347920566797256,
                        0.3300468921661377,
                        0.1340452879667282,
                        -0.1595468968153,
                        -0.2630993723869324,
                        -0.04511180892586708,
                        0.20457015931606293,
                        0.40736469626426697,
                        -0.1009143590927124,
                        -0.2979276776313782,
                        0.1858864724636078,
                        0.23529857397079468,
                        0.38064995408058167,
                        0.19358916580677032,
                        0.32097309827804565,
                        0.40319129824638367,
                        0.3091730773448944,
                        0.1928323656320572,
                        0.30051589012145996,
                        0.32850492000579834,
                        0.2586115300655365
                    ],
                    [
                        0.3443116843700409,
                        -0.09023559838533401,
                        -0.2288002222776413,
                        0.7323295474052429,
                        0.5843081474304199,
                        0.03368670493364334,
                        0.4136386215686798,
                        -0.23539580404758453,
                        0.43036961555480957,
                        -0.09991899877786636,
                        -0.062284257262945175,
                        -0.17604736983776093,
                        -0.38508841395378113,
                        0.18539030849933624,
                        -0.053028278052806854,
                        0.9629474878311157,
                        -0.20375077426433563,
                        -0.0248451828956604,
                        -0.3550809621810913,
                        -0.3340100347995758,
                        0.25059032440185547,
                        -0.27740323543548584,
                        -0.1888732612133026,
                        -0.612339198589325,
                        0.15888573229312897,
                        0.7999030947685242,
                        0.4436933398246765,
                        -0.059738367795944214,
                        -0.45181629061698914,
                        0.36216211318969727,
                        -0.019776474684476852,
                        0.4951724112033844,
                        -0.1790951043367386,
                        -0.002779649803414941,
                        -0.503383219242096,
                        0.46535077691078186,
                        0.09922181814908981,
                        -0.4680172801017761,
                        -0.12992967665195465,
                        0.2458036094903946,
                        0.16007477045059204,
                        0.34112074971199036,
                        0.2277747094631195,
                        0.21334624290466309,
                        -0.12422745674848557,
                        -0.011530442163348198,
                        -0.3721855878829956,
                        -0.3609127700328827
                    ]
                ],
                [
                    -0.31478434801101685,
                    0.4717753827571869,
                    0.5168777704238892,
                    0.5202993750572205,
                    -1.3857262134552002,
                    0.11554586887359619,
                    -2.5227560997009277,
                    0.17102374136447906,
                    -0.674726665019989,
                    1.269594430923462,
                    0.817837655544281,
                    0.061095934361219406,
                    1.7747724056243896,
                    0.31989946961402893,
                    0.0640721395611763,
                    0.7216907739639282,
                    2.2936110496520996,
                    0.6328774690628052,
                    2.677385091781616,
                    0.05190693959593773,
                    1.0856471061706543,
                    -0.2503718137741089,
                    0.44824886322021484,
                    0.6882715821266174,
                    0.16670246422290802,
                    0.6634712219238281,
                    0.01358675118535757,
                    -0.16655376553535461,
                    -0.41494420170783997,
                    0.1595132052898407,
                    0.022836634889245033,
                    0.1827544867992401,
                    -0.05971851572394371,
                    0.08512859046459198,
                    -0.2161863148212433,
                    0.6052802801132202,
                    0.22779539227485657,
                    0.31309399008750916,
                    1.0098469257354736,
                    0.5421998500823975,
                    0.46173134446144104,
                    0.5192890167236328,
                    0.06542261689901352,
                    0.40587249398231506,
                    0.5754315853118896,
                    1.264150619506836,
                    0.619295060634613,
                    0.6757650375366211
                ]
            ]
        },
        {
            "type": "dense",
            "activation": "",
            "shape": [
                null,
                null,
                1
            ],
            "weights": [
                [
                    [
                        0.20995979011058807
                    ],
                    [
                        0.31185171008110046
                    ],
                    [
                        -0.08774248510599136
                    ],
                    [
                        0.5279611945152283
                    ],
                    [
                        0.11790201812982559
                    ],
                    [
                        -0.020578276365995407
                    ],
                    [
                        -0.04934506490826607
                    ],
                    [
                        0.156828373670578
                    ],
                    [
                        0.16663450002670288
                    ],
                    [
                        0.27438807487487793
                    ],
                    [
                        0.04966307058930397
                    ],
                    [
                        -0.13749390840530396
                    ]
                ],
                [
                    -0.1382712721824646
                ]
            ]
        }
    ],
    "samplerate": 48000.0,
    "author": "AIDA DSP",
    "esr": 0.014980683103203773
}
