{
    "in_shape": [
        null,
        null,
        1
    ],
    "in_gain": 6,
    "out_gain": -4,
    "layers": [
        {
            "type": "lstm",
            "activation": "",
            "shape": [
                null,
                null,
                12
            ],
            "weights": [
                [
                    [
                        0.018055951222777367,
                        0.09024252742528915,
                        0.04650748893618584,
                        0.14562153816223145,
                        0.05125931650400162,
                        0.3443496525287628,
                        -0.0625198632478714,
                        -0.11604171991348267,
                        -0.0828128233551979,
                        -0.0551999993622303,
                        -0.6544070839881897,
                        -0.17216013371944427,
                        -0.02246919646859169,
                        0.028216632083058357,
                        0.138485848903656,
                        0.023120660334825516,
                        0.2935182750225067,
                        0.0036393292248249054,
                        0.0020305528305470943,
                        0.29597800970077515,
                        -0.4673757255077362,
                        -0.07973257452249527,
                        -0.18177354335784912,
                        -0.0010549678700044751,
                        0.13140089809894562,
                        0.042449839413166046,
                        -0.05060763657093048,
                        -0.17305900156497955,
                        0.28992003202438354,
                        -0.2782006859779358,
                        0.034191254526376724,
                        -0.026840178295969963,
                        -1.3341155052185059,
                        -0.10970883071422577,
                        -1.0979892015457153,
                        -0.5050881505012512,
                        -0.04943052679300308,
                        0.07698816061019897,
                        0.1813744306564331,
                        0.19155021011829376,
                        -0.4367997348308563,
                        -0.19057892262935638,
                        0.010929570533335209,
                        0.22377802431583405,
                        -0.9622817039489746,
                        -0.003522769780829549,
                        1.2150050401687622,
                        -0.23389512300491333
                    ]
                ],
                [
                    [
                        0.12453467398881912,
                        0.07420387864112854,
                        -0.3633052706718445,
                        0.18414917588233948,
                        -0.04493527114391327,
                        -0.02772163227200508,
                        -0.18594346940517426,
                        0.49570727348327637,
                        0.04223969951272011,
                        0.006471375003457069,
                        -0.2689763009548187,
                        0.047529224306344986,
                        0.02803253009915352,
                        -0.06025853753089905,
                        -0.022166572511196136,
                        -0.05726704001426697,
                        -0.059536952525377274,
                        0.0863877609372139,
                        -0.07925215363502502,
                        0.06783135235309601,
                        0.02609204687178135,
                        -0.09086263179779053,
                        -0.07237089425325394,
                        0.05821557715535164,
                        -0.526202380657196,
                        0.8495017886161804,
                        -0.45424792170524597,
                        0.42566701769828796,
                        0.1725134700536728,
                        -0.7393650412559509,
                        -0.36591941118240356,
                        -0.427024781703949,
                        -0.3267991542816162,
                        -0.7580772042274475,
                        -0.29884007573127747,
                        -0.267410010099411,
                        0.15386314690113068,
                        0.07066676765680313,
                        -0.23566153645515442,
                        0.27531442046165466,
                        -0.022973552346229553,
                        -0.04425107687711716,
                        -0.04994085058569908,
                        0.10867451131343842,
                        0.4582540988922119,
                        -0.06896475702524185,
                        -1.268120527267456,
                        0.05388084426522255
                    ],
                    [
                        -0.10587754100561142,
                        0.15676432847976685,
                        -0.1950521618127823,
                        0.05147521570324898,
                        0.047935809940099716,
                        0.0828193873167038,
                        0.04567164555191994,
                        0.6252384781837463,
                        0.24483750760555267,
                        0.0950755700469017,
                        -0.470417857170105,
                        0.01499899011105299,
                        -0.19131453335285187,
                        0.14619868993759155,
                        -0.0375080406665802,
                        0.07338784635066986,
                        0.201189324259758,
                        0.10812835395336151,
                        -0.07939522713422775,
                        0.20371414721012115,
                        0.04809980466961861,
                        -0.1555575579404831,
                        -0.5624551177024841,
                        0.09469743818044662,
                        -0.501117467880249,
                        -0.8690664768218994,
                        -0.8741307854652405,
                        -0.8014021515846252,
                        0.39159560203552246,
                        0.11266771703958511,
                        -0.10716377198696136,
                        -0.7137089371681213,
                        -0.8843534588813782,
                        -0.6031815409660339,
                        -0.4863700568675995,
                        0.7283897995948792,
                        -0.17811135947704315,
                        0.1827820986509323,
                        -0.06894293427467346,
                        0.05759550258517265,
                        -0.37300992012023926,
                        0.10218311846256256,
                        -0.0002421767421765253,
                        0.36187177896499634,
                        -0.20061400532722473,
                        0.051387395709753036,
                        0.3572482168674469,
                        0.041022107005119324
                    ],
                    [
                        -0.09726681560277939,
                        -0.008542248047888279,
                        0.5516161918640137,
                        -0.23144099116325378,
                        0.2688274383544922,
                        -0.1251649409532547,
                        0.31155896186828613,
                        0.16624733805656433,
                        -0.05489769205451012,
                        -0.005764102563261986,
                        0.46728515625,
                        -0.07856311649084091,
                        -0.17307527363300323,
                        0.0965677872300148,
                        0.10682733356952667,
                        0.07538587599992752,
                        -0.1363225132226944,
                        -0.24287790060043335,
                        -0.16251018643379211,
                        -0.02278546243906021,
                        -0.3170553147792816,
                        0.061335042119026184,
                        -0.3682832419872284,
                        -0.00415376340970397,
                        -0.2725372612476349,
                        0.8607572317123413,
                        -0.19723203778266907,
                        0.07645604014396667,
                        -0.6009722948074341,
                        0.3274136483669281,
                        0.5573686957359314,
                        0.00449751503765583,
                        -0.46727728843688965,
                        0.1566857099533081,
                        -0.49706900119781494,
                        0.37656140327453613,
                        -0.15060856938362122,
                        0.014003132469952106,
                        0.46614956855773926,
                        -0.35098493099212646,
                        0.07128573209047318,
                        -0.1418367177248001,
                        0.14445935189723969,
                        -0.12677589058876038,
                        0.17729879915714264,
                        0.06920687109231949,
                        -0.7977389097213745,
                        -0.09955430775880814
                    ],
                    [
                        0.00027254020096734166,
                        -0.021415086463093758,
                        -0.07448232173919678,
                        -0.052487168461084366,
                        -0.0063055818900465965,
                        -0.025039255619049072,
                        -0.05236009508371353,
                        0.09665165841579437,
                        0.017328210175037384,
                        0.030899712815880775,
                        0.12279107421636581,
                        0.005468450952321291,
                        -0.040626347064971924,
                        0.12141595035791397,
                        0.04999074712395668,
                        -0.07847224920988083,
                        0.051377322524785995,
                        0.03115682862699032,
                        0.06765522807836533,
                        0.026222238317131996,
                        -0.11289597302675247,
                        0.08713541179895401,
                        0.012497247196733952,
                        0.02111559361219406,
                        -1.2370145320892334,
                        1.0175516605377197,
                        -0.26004448533058167,
                        -0.5302850008010864,
                        -0.15626747906208038,
                        -0.18421435356140137,
                        0.060293104499578476,
                        -0.2739114463329315,
                        -0.13390801846981049,
                        -0.061026431620121,
                        -0.10817001014947891,
                        0.028438108041882515,
                        0.023548753932118416,
                        -0.013225638307631016,
                        -0.039839502424001694,
                        -0.03934676945209503,
                        0.098821260035038,
                        0.002440966432914138,
                        -0.05360215902328491,
                        0.09288164973258972,
                        -0.10499788820743561,
                        0.05801570788025856,
                        0.37424659729003906,
                        0.012828836217522621
                    ],
                    [
                        0.04514358937740326,
                        0.11568020284175873,
                        -0.12220638990402222,
                        0.10112963616847992,
                        0.025716183707118034,
                        0.29401832818984985,
                        0.3587074279785156,
                        -0.3720792829990387,
                        0.04308164119720459,
                        0.0381866917014122,
                        -0.13469821214675903,
                        0.1403384804725647,
                        0.14826805889606476,
                        -0.00766698457300663,
                        0.2870064675807953,
                        0.02270645648241043,
                        0.4126089811325073,
                        0.34542712569236755,
                        -0.004845601972192526,
                        -0.09850305318832397,
                        -0.10884226858615875,
                        0.018903443589806557,
                        1.2199923992156982,
                        -0.009187815710902214,
                        -0.2923138737678528,
                        -0.06898897141218185,
                        -0.07980148494243622,
                        0.33740633726119995,
                        -0.02953118272125721,
                        0.38647347688674927,
                        -0.47468405961990356,
                        0.10209852457046509,
                        1.1660568714141846,
                        0.09855149686336517,
                        0.7634760141372681,
                        0.6619511842727661,
                        0.04378040134906769,
                        0.12566415965557098,
                        -0.03128691390156746,
                        0.060419172048568726,
                        0.092664435505867,
                        0.3414930999279022,
                        0.1601923108100891,
                        -0.12794534862041473,
                        -0.05328928679227829,
                        0.03516122326254845,
                        0.36461499333381653,
                        0.16100220382213593
                    ],
                    [
                        0.09552567452192307,
                        0.02432544343173504,
                        -0.1415189951658249,
                        0.2605764865875244,
                        0.15421025454998016,
                        -0.1405913084745407,
                        0.0587247759103775,
                        0.031722672283649445,
                        -0.024531124159693718,
                        -0.120109923183918,
                        -0.031501658260822296,
                        0.031036334112286568,
                        0.07864702492952347,
                        0.04356642812490463,
                        -0.05486387014389038,
                        0.2663132846355438,
                        0.1883946657180786,
                        0.07157225161790848,
                        -0.03963729366660118,
                        -0.2378280758857727,
                        0.05278155952692032,
                        -0.15342029929161072,
                        0.8101294040679932,
                        -0.03095080517232418,
                        0.8307890892028809,
                        0.5771282911300659,
                        0.06784860789775848,
                        -0.2783588469028473,
                        0.45431652665138245,
                        -0.10835389792919159,
                        1.0159960985183716,
                        0.1663486808538437,
                        0.6732639670372009,
                        -0.19171687960624695,
                        0.5115501880645752,
                        1.055290699005127,
                        0.06878350675106049,
                        0.033064600080251694,
                        -0.10773365944623947,
                        0.3817003667354584,
                        0.03795649856328964,
                        -0.10852004587650299,
                        0.00404991814866662,
                        0.020973186939954758,
                        -0.28067731857299805,
                        -0.06634122133255005,
                        0.6484190225601196,
                        -0.015507993288338184
                    ],
                    [
                        0.21977058053016663,
                        0.15799874067306519,
                        -0.9515825510025024,
                        0.20539997518062592,
                        0.03675359487533569,
                        0.021787168458104134,
                        -0.04931613430380821,
                        1.1895005702972412,
                        0.1792423576116562,
                        0.1235366016626358,
                        -0.400124728679657,
                        -0.01807338371872902,
                        -0.035304803401231766,
                        -0.0032324863132089376,
                        -0.20921207964420319,
                        -0.12004522979259491,
                        0.046104367822408676,
                        0.31424614787101746,
                        0.04595008119940758,
                        0.1938686966896057,
                        -0.05369151756167412,
                        -0.1397552341222763,
                        -0.15463662147521973,
                        0.19709783792495728,
                        0.45336705446243286,
                        0.018146898597478867,
                        -1.322326421737671,
                        0.5875940918922424,
                        0.704940676689148,
                        -0.48261916637420654,
                        0.2650214433670044,
                        -1.3780969381332397,
                        -0.36929863691329956,
                        0.886994481086731,
                        -0.26273810863494873,
                        0.2579249441623688,
                        0.2149185836315155,
                        0.1442420333623886,
                        -0.8029587864875793,
                        0.329598069190979,
                        -0.011603638529777527,
                        0.022776128724217415,
                        -0.016420762985944748,
                        0.6354537010192871,
                        0.18162479996681213,
                        0.045716769993305206,
                        -0.3612774908542633,
                        -0.0007891590939834714
                    ],
                    [
                        -0.1843421459197998,
                        -0.1701989769935608,
                        -0.3410467803478241,
                        -0.1322477161884308,
                        -0.33709481358528137,
                        -0.16734950244426727,
                        -0.40321463346481323,
                        -0.4565187096595764,
                        -0.5508584380149841,
                        -0.035743314772844315,
                        0.07397078722715378,
                        -0.19024908542633057,
                        -0.13190151751041412,
                        0.1540062129497528,
                        -0.05876501277089119,
                        -0.007082424592226744,
                        0.21814827620983124,
                        0.024040961638092995,
                        0.4731430113315582,
                        -0.12235397100448608,
                        0.03907288610935211,
                        -0.007184067741036415,
                        -0.3004501163959503,
                        -0.11102905124425888,
                        -0.13387025892734528,
                        0.4481799900531769,
                        -0.1815885603427887,
                        0.2864896357059479,
                        -0.23313374817371368,
                        0.4353565573692322,
                        0.4070286154747009,
                        0.21316568553447723,
                        -0.19323624670505524,
                        0.1553473025560379,
                        -0.6325052976608276,
                        -0.0206229779869318,
                        -0.158579021692276,
                        -0.1737348884344101,
                        -0.21603462100028992,
                        -0.12274844199419022,
                        -0.5595045685768127,
                        -0.18772944808006287,
                        -0.08722035586833954,
                        -0.7946601510047913,
                        0.3315931558609009,
                        -0.012911012396216393,
                        -0.3585304617881775,
                        -0.17778828740119934
                    ],
                    [
                        -0.41057178378105164,
                        -0.19248105585575104,
                        -0.1435060352087021,
                        -0.2856443226337433,
                        0.1533576101064682,
                        -0.06473638117313385,
                        0.013991470448672771,
                        -0.3351672291755676,
                        -0.010915297083556652,
                        -0.5184881091117859,
                        0.49757206439971924,
                        -0.2610897719860077,
                        -0.20120202004909515,
                        -0.11613014340400696,
                        0.26785916090011597,
                        -0.09501824527978897,
                        -0.09311772882938385,
                        0.29148972034454346,
                        0.2764979302883148,
                        -0.02491091378033161,
                        -0.2774762809276581,
                        -0.24397006630897522,
                        0.17621004581451416,
                        0.012512383982539177,
                        0.21725940704345703,
                        -0.17704717814922333,
                        0.19923733174800873,
                        -0.045575398951768875,
                        -0.3648078739643097,
                        -0.7524826526641846,
                        -0.4848534166812897,
                        0.4216122329235077,
                        0.0834093689918518,
                        -0.2384987622499466,
                        0.23407800495624542,
                        0.033432282507419586,
                        -0.37713050842285156,
                        -0.19282470643520355,
                        0.030465276911854744,
                        -0.2585916519165039,
                        0.33970126509666443,
                        -0.14113403856754303,
                        -0.011121685616672039,
                        -0.32392245531082153,
                        0.3742158114910126,
                        -0.3688702881336212,
                        1.1711764335632324,
                        -0.2588426470756531
                    ],
                    [
                        0.07600892335176468,
                        0.07335209101438522,
                        -0.1651628166437149,
                        -0.04016922041773796,
                        -0.035234443843364716,
                        -0.05207451805472374,
                        -0.09020388126373291,
                        0.19668321311473846,
                        0.09332244843244553,
                        0.14658589661121368,
                        -0.30259010195732117,
                        0.056071724742650986,
                        -0.014214366674423218,
                        0.15652328729629517,
                        0.027380768209695816,
                        -0.010449133813381195,
                        -0.021107813343405724,
                        -0.11975766718387604,
                        0.05675306171178818,
                        0.03883151710033417,
                        0.05672655627131462,
                        -0.025222791358828545,
                        -0.5318077802658081,
                        0.08864841610193253,
                        0.657420814037323,
                        1.2167283296585083,
                        -0.5855521559715271,
                        -0.497835636138916,
                        -0.013609763234853745,
                        -0.22268497943878174,
                        -0.9609842300415039,
                        -0.24956801533699036,
                        -0.8125816583633423,
                        -0.025003302842378616,
                        -0.5833098292350769,
                        0.9416559338569641,
                        0.062342625111341476,
                        0.08247893303632736,
                        0.051178861409425735,
                        -0.16455453634262085,
                        -0.3186787962913513,
                        -0.04575638845562935,
                        -0.0028853921685367823,
                        -0.06431211531162262,
                        -0.46901512145996094,
                        0.11591269075870514,
                        0.2642746865749359,
                        0.06676698476076126
                    ],
                    [
                        0.20594732463359833,
                        0.40437209606170654,
                        0.031203145161271095,
                        0.18516191840171814,
                        -0.3627370297908783,
                        0.14662565290927887,
                        0.3069518506526947,
                        -0.2554771304130554,
                        -0.1526135951280594,
                        0.2937912046909332,
                        -0.16053278744220734,
                        0.3742414712905884,
                        0.11467677354812622,
                        -0.3190421164035797,
                        0.3184937834739685,
                        -0.13028334081172943,
                        0.2548234462738037,
                        -0.16449576616287231,
                        -0.1515791267156601,
                        -0.12182847410440445,
                        0.5840290188789368,
                        0.05488314479589462,
                        0.7127968668937683,
                        -0.3742552399635315,
                        0.7894036173820496,
                        -0.6168643832206726,
                        0.6490015387535095,
                        0.21385571360588074,
                        -0.5953319072723389,
                        -1.4108116626739502,
                        -0.23658502101898193,
                        0.820519745349884,
                        -0.07054396718740463,
                        -0.20451200008392334,
                        0.4455394744873047,
                        -0.17883814871311188,
                        0.1830291897058487,
                        0.41985443234443665,
                        0.3740117847919464,
                        0.16041217744350433,
                        0.16104109585285187,
                        0.26150473952293396,
                        0.39037656784057617,
                        -0.18472887575626373,
                        0.25974902510643005,
                        0.3324303925037384,
                        0.5781802535057068,
                        0.4616806209087372
                    ],
                    [
                        0.10764971375465393,
                        0.08891201764345169,
                        -0.18784861266613007,
                        0.07911570370197296,
                        0.11186663061380386,
                        -0.11541394889354706,
                        0.14580141007900238,
                        0.2681480944156647,
                        0.2954650819301605,
                        0.03824175149202347,
                        -0.14204764366149902,
                        0.09043103456497192,
                        0.061930932104587555,
                        -0.10855835676193237,
                        0.08026783913373947,
                        0.12034112215042114,
                        0.1272420585155487,
                        0.031153123825788498,
                        -0.003962003160268068,
                        0.11126569658517838,
                        0.03992798179388046,
                        -0.1611219197511673,
                        0.1439305692911148,
                        0.010784115642309189,
                        0.39201638102531433,
                        -0.5687600374221802,
                        -0.6531215310096741,
                        0.5541623830795288,
                        0.33738622069358826,
                        0.7037381529808044,
                        -0.5069774985313416,
                        -0.7796869874000549,
                        -0.008537082001566887,
                        -0.7083597183227539,
                        0.12294576317071915,
                        -0.8576423525810242,
                        0.10674038529396057,
                        0.07071377336978912,
                        -0.0908469557762146,
                        0.09618658572435379,
                        0.0746689960360527,
                        -0.050953350961208344,
                        0.0713120698928833,
                        0.1677754819393158,
                        -0.23984374105930328,
                        0.03806101158261299,
                        -0.09044759720563889,
                        0.09713127464056015
                    ]
                ],
                [
                    1.0504720211029053,
                    1.8567942380905151,
                    -0.8589117527008057,
                    0.7138879299163818,
                    -0.5721203088760376,
                    1.2241599559783936,
                    0.9634408354759216,
                    -0.8069044947624207,
                    -1.1857600212097168,
                    0.8304274082183838,
                    -0.8291906118392944,
                    1.1582082509994507,
                    -0.4819134473800659,
                    -1.0618871450424194,
                    1.0530903339385986,
                    -0.8031372427940369,
                    1.544273853302002,
                    -0.37623196840286255,
                    0.5182561278343201,
                    0.8064762949943542,
                    1.3302364349365234,
                    -0.17516130208969116,
                    1.4386893510818481,
                    -0.9974796772003174,
                    -0.20009781420230865,
                    0.24366380274295807,
                    -0.20992285013198853,
                    -0.13207443058490753,
                    0.2691892385482788,
                    0.36601054668426514,
                    0.14175885915756226,
                    -0.2110626995563507,
                    -0.25798413157463074,
                    0.02601182460784912,
                    0.3794211745262146,
                    0.015610992908477783,
                    1.2567274570465088,
                    2.0115861892700195,
                    0.11990199983119965,
                    0.5547516345977783,
                    -0.20805108547210693,
                    1.180241346359253,
                    1.8853565454483032,
                    0.11802159249782562,
                    -0.5935619473457336,
                    1.2991926670074463,
                    -0.30855393409729004,
                    1.3368890285491943
                ]
            ]
        },
        {
            "type": "dense",
            "activation": "",
            "shape": [
                null,
                null,
                1
            ],
            "weights": [
                [
                    [
                        0.4208510220050812
                    ],
                    [
                        0.7574655413627625
                    ],
                    [
                        0.6158515810966492
                    ],
                    [
                        0.12537600100040436
                    ],
                    [
                        -0.6692183017730713
                    ],
                    [
                        -0.42357945442199707
                    ],
                    [
                        0.8207948207855225
                    ],
                    [
                        0.5925360321998596
                    ],
                    [
                        0.21199853718280792
                    ],
                    [
                        0.49921295046806335
                    ],
                    [
                        -0.05174470320343971
                    ],
                    [
                        0.3698132336139679
                    ]
                ],
                [
                    0.08598437905311584
                ]
            ]
        }
    ],
    "samplerate": 48000.0,
    "author": "AIDA DSP",
    "esr": 0.13561569154262543
}
