{
    "in_shape": [
        null,
        null,
        1
    ],
    "out_gain": -3.3,
    "layers": [
        {
            "type": "lstm",
            "activation": "",
            "shape": [
                null,
                null,
                12
            ],
            "weights": [
                [
                    [
                        0.5181094408035278,
                        -0.24533411860466003,
                        -0.14523018896579742,
                        0.26890626549720764,
                        -0.005427586380392313,
                        0.056763287633657455,
                        0.12400990724563599,
                        0.3227972686290741,
                        -0.006276399828493595,
                        0.3657311201095581,
                        0.40490293502807617,
                        -0.007130376994609833,
                        0.35233238339424133,
                        -0.11724468320608139,
                        -0.10161207616329193,
                        0.31353580951690674,
                        0.12771615386009216,
                        -0.008747020736336708,
                        0.7706629037857056,
                        0.37837502360343933,
                        -0.36853721737861633,
                        0.12768135964870453,
                        0.3697982728481293,
                        0.2662079334259033,
                        0.26447564363479614,
                        0.1182580217719078,
                        0.6061394214630127,
                        0.08900041878223419,
                        0.43731844425201416,
                        0.30199986696243286,
                        0.23232534527778625,
                        -0.03826884925365448,
                        -0.021088555455207825,
                        0.8094950914382935,
                        -0.04872428998351097,
                        -0.2157674878835678,
                        -0.07237042486667633,
                        1.159876823425293,
                        -0.046408649533987045,
                        -0.3962472975254059,
                        -0.14535462856292725,
                        0.1515430212020874,
                        0.019491352140903473,
                        -0.02564464509487152,
                        0.09420938789844513,
                        -0.5438282489776611,
                        -0.6844156980514526,
                        -0.8169912099838257
                    ]
                ],
                [
                    [
                        0.25275543332099915,
                        -0.13440364599227905,
                        -0.03261333703994751,
                        0.1156439334154129,
                        0.21525916457176208,
                        0.061893120408058167,
                        0.16485285758972168,
                        -0.00637088855728507,
                        0.01110624149441719,
                        -0.0349431075155735,
                        -0.19962789118289948,
                        -0.04133794084191322,
                        0.16213320195674896,
                        -0.12828092277050018,
                        0.02680964767932892,
                        -0.07697772979736328,
                        0.1751185804605484,
                        -0.11413189023733139,
                        0.16926690936088562,
                        -0.24268338084220886,
                        -0.08217784017324448,
                        -0.2865937352180481,
                        0.1335434764623642,
                        -0.26825660467147827,
                        0.16552609205245972,
                        -0.15360578894615173,
                        -0.28676697611808777,
                        0.5770955681800842,
                        -0.12547704577445984,
                        0.363355427980423,
                        0.23810675740242004,
                        1.1802244186401367,
                        0.374296635389328,
                        0.18073366582393646,
                        0.17993535101413727,
                        -0.5460264086723328,
                        0.33628323674201965,
                        -0.2982007563114166,
                        -0.035430505871772766,
                        -0.38317233324050903,
                        0.13699747622013092,
                        -0.007150518707931042,
                        0.35749295353889465,
                        0.11166520416736603,
                        0.19373314082622528,
                        -0.1516284942626953,
                        -0.2322002649307251,
                        0.27799761295318604
                    ],
                    [
                        0.09818310290575027,
                        -0.09116049855947495,
                        -0.26818546652793884,
                        0.008533578366041183,
                        -0.03363991901278496,
                        0.04271946847438812,
                        -0.02952091209590435,
                        -0.3906763195991516,
                        0.41119346022605896,
                        -0.09358479827642441,
                        0.7451358437538147,
                        -0.09386622905731201,
                        -0.15730631351470947,
                        -0.11895836144685745,
                        0.02345164306461811,
                        0.20351745188236237,
                        -0.025971809402108192,
                        0.18232133984565735,
                        -0.11905405670404434,
                        -0.35903239250183105,
                        -0.3313712179660797,
                        -0.1733994483947754,
                        0.21684561669826508,
                        0.0018661064095795155,
                        -0.24932090938091278,
                        -0.03922954201698303,
                        -0.4021633267402649,
                        -0.3414170444011688,
                        0.01163190882652998,
                        -0.22193756699562073,
                        -0.25549057126045227,
                        0.7335339188575745,
                        0.13599684834480286,
                        -0.08750902116298676,
                        -0.024971414357423782,
                        0.20414718985557556,
                        -0.07865047454833984,
                        -0.3194090723991394,
                        -0.26441675424575806,
                        -0.2517470419406891,
                        -0.19473250210285187,
                        -0.06715315580368042,
                        -0.17526966333389282,
                        -0.24812111258506775,
                        0.1751893162727356,
                        -0.310202956199646,
                        0.5376918315887451,
                        -0.16073404252529144
                    ],
                    [
                        0.22748662531375885,
                        0.07494276016950607,
                        0.013024075888097286,
                        0.6567137241363525,
                        -0.5334917306900024,
                        -0.27892616391181946,
                        0.14320895075798035,
                        0.03305928781628609,
                        0.8968902230262756,
                        -0.15371805429458618,
                        0.01885990798473358,
                        -0.08756524324417114,
                        -0.1464667171239853,
                        -0.043151117861270905,
                        0.36475324630737305,
                        -0.06441214680671692,
                        -0.14565464854240417,
                        -0.11102103441953659,
                        0.03308456391096115,
                        -0.430218905210495,
                        -0.046374280005693436,
                        -0.1652674525976181,
                        0.2946567237377167,
                        0.08968197554349899,
                        0.3117865324020386,
                        -0.30007708072662354,
                        -0.10053490847349167,
                        -0.9111656546592712,
                        1.1832711696624756,
                        0.4953926205635071,
                        0.41482147574424744,
                        -0.39939919114112854,
                        -0.4736262559890747,
                        -0.11018252372741699,
                        0.13569219410419464,
                        0.15861834585666656,
                        0.2381557822227478,
                        -1.1373437643051147,
                        -0.013361446559429169,
                        -0.21474599838256836,
                        -0.12171290814876556,
                        -0.07039911299943924,
                        0.11941588670015335,
                        0.2502559721469879,
                        0.12101657688617706,
                        0.24245162308216095,
                        1.1714502573013306,
                        0.591987133026123
                    ],
                    [
                        -0.08263036608695984,
                        0.06260272860527039,
                        -0.10001419484615326,
                        -0.7916997671127319,
                        -0.07997071743011475,
                        -0.21896734833717346,
                        -0.20208092033863068,
                        -0.15095007419586182,
                        0.04425835236907005,
                        -0.4964389503002167,
                        0.1233660876750946,
                        -0.008568697609007359,
                        -0.022851649671792984,
                        -0.10377540439367294,
                        -0.10534795373678207,
                        -0.3146786689758301,
                        0.10785887390375137,
                        0.016340048983693123,
                        0.4018652141094208,
                        0.16862232983112335,
                        -0.148464635014534,
                        0.09515437483787537,
                        -0.22749149799346924,
                        0.1386725753545761,
                        -0.17727985978126526,
                        0.007425716146826744,
                        0.23993608355522156,
                        0.6003777384757996,
                        -0.2137877494096756,
                        0.05459503084421158,
                        -0.41589298844337463,
                        -0.09884954243898392,
                        0.18743348121643066,
                        0.4997621476650238,
                        0.6768510341644287,
                        0.016913995146751404,
                        0.11674520373344421,
                        -0.5181105732917786,
                        -0.1895577758550644,
                        0.7041218876838684,
                        0.040784530341625214,
                        -0.06414596736431122,
                        0.2617974579334259,
                        0.5695343613624573,
                        0.286715030670166,
                        0.40412095189094543,
                        0.48326927423477173,
                        0.9031802415847778
                    ],
                    [
                        0.12356899678707123,
                        0.2256416231393814,
                        0.006031106226146221,
                        -0.6684798002243042,
                        0.11755289882421494,
                        0.275314599275589,
                        0.06108712777495384,
                        -0.14687605202198029,
                        0.39195165038108826,
                        -0.21964745223522186,
                        -0.14057262241840363,
                        0.06582414358854294,
                        0.2849123179912567,
                        0.2983129620552063,
                        0.022851966321468353,
                        -0.29519298672676086,
                        -0.0037329718470573425,
                        0.05011657252907753,
                        0.16710098087787628,
                        -0.04446110129356384,
                        0.16278208792209625,
                        -0.20228587090969086,
                        0.0814339891076088,
                        -0.2841140329837799,
                        0.38070541620254517,
                        -0.33162200450897217,
                        -0.5417811274528503,
                        1.6067208051681519,
                        0.439288854598999,
                        -0.2823117971420288,
                        0.7247536182403564,
                        -0.1740686595439911,
                        -0.5494334697723389,
                        0.34504225850105286,
                        0.06483321636915207,
                        -0.3647475242614746,
                        0.04553782194852829,
                        0.4949789345264435,
                        0.043437566608190536,
                        0.3899734616279602,
                        0.033033423125743866,
                        0.04670136421918869,
                        0.22466611862182617,
                        -0.2589535713195801,
                        -0.07578744739294052,
                        0.5305345058441162,
                        0.4222191274166107,
                        -0.270846426486969
                    ],
                    [
                        -0.2865295708179474,
                        -0.1667102873325348,
                        -0.010151315480470657,
                        0.11735112220048904,
                        -0.28784483671188354,
                        -0.1389251947402954,
                        -0.1470060795545578,
                        0.21566125750541687,
                        0.5616833567619324,
                        0.19005772471427917,
                        -0.11309411376714706,
                        0.0389178991317749,
                        -0.2022714912891388,
                        -0.35422948002815247,
                        0.005896331276744604,
                        0.07169576734304428,
                        -0.31141331791877747,
                        -0.22628724575042725,
                        -0.4360843896865845,
                        0.5156946778297424,
                        -0.37936893105506897,
                        -0.06279153376817703,
                        0.12127835303544998,
                        0.35409775376319885,
                        -0.3249723017215729,
                        0.22699612379074097,
                        -1.1739306449890137,
                        0.06847827881574631,
                        -0.8711341023445129,
                        0.10536384582519531,
                        -0.5017997622489929,
                        -0.9627532958984375,
                        -0.0048391614109277725,
                        -0.3846064507961273,
                        -0.13561168313026428,
                        0.4699624478816986,
                        -0.19330613315105438,
                        0.11457875370979309,
                        0.00289287231862545,
                        -0.3049878478050232,
                        -0.11440524458885193,
                        -0.019799061119556427,
                        -0.09553858637809753,
                        0.28480884432792664,
                        -0.06433034688234329,
                        -0.298566073179245,
                        0.014972747303545475,
                        -0.5024333000183105
                    ],
                    [
                        0.08569366484880447,
                        0.10349704325199127,
                        0.48479169607162476,
                        0.4772302210330963,
                        0.1914873868227005,
                        0.30704420804977417,
                        0.027426037937402725,
                        -0.14526452124118805,
                        -0.7058687806129456,
                        0.0038309704978019,
                        -0.9304711818695068,
                        0.2962174117565155,
                        0.23591631650924683,
                        0.30853697657585144,
                        -0.046789780259132385,
                        -0.4635365307331085,
                        -0.17644108831882477,
                        0.33663639426231384,
                        0.47704219818115234,
                        -0.399482399225235,
                        0.8054927587509155,
                        0.0679696798324585,
                        1.203590989112854,
                        0.10315582156181335,
                        0.08367007970809937,
                        -0.06755263358354568,
                        -0.37597769498825073,
                        0.04518246650695801,
                        -0.4482642412185669,
                        0.48852720856666565,
                        0.18953150510787964,
                        0.36501023173332214,
                        -0.05939451605081558,
                        -0.11591657996177673,
                        -0.057725705206394196,
                        0.32615846395492554,
                        0.3786848783493042,
                        0.04379594326019287,
                        0.5312609672546387,
                        0.3308301568031311,
                        0.44651365280151367,
                        0.3816048502922058,
                        0.7182613015174866,
                        0.3555491864681244,
                        0.3173426687717438,
                        -0.1729845255613327,
                        -0.011148503050208092,
                        -0.05438600108027458
                    ],
                    [
                        0.04089823365211487,
                        -0.01697368361055851,
                        -0.1312236487865448,
                        -0.7340061664581299,
                        0.29291287064552307,
                        -0.5481516718864441,
                        -0.06897208094596863,
                        -0.20501841604709625,
                        1.085611343383789,
                        -0.3438926935195923,
                        0.4534859359264374,
                        -0.18575643002986908,
                        -0.5520838499069214,
                        -0.1253902018070221,
                        -0.08509331941604614,
                        0.05714796483516693,
                        -0.09585455805063248,
                        -0.10898362100124359,
                        -0.2912570834159851,
                        -0.5478438138961792,
                        -0.8206928372383118,
                        -0.8249884843826294,
                        -0.8533963561058044,
                        -0.586236298084259,
                        -0.5966283082962036,
                        -0.021273160353302956,
                        0.3615589141845703,
                        1.226505160331726,
                        0.3567580282688141,
                        1.2189117670059204,
                        0.07934842258691788,
                        0.18977215886116028,
                        -0.28433045744895935,
                        -0.08912481367588043,
                        0.23580661416053772,
                        -0.8558919429779053,
                        -0.12571081519126892,
                        0.11521818488836288,
                        -0.1612677425146103,
                        0.051191408187150955,
                        0.047807060182094574,
                        -0.24899421632289886,
                        -0.5645202398300171,
                        -0.6959542632102966,
                        -0.34131306409835815,
                        0.0424075685441494,
                        0.1471370905637741,
                        -0.5835027694702148
                    ],
                    [
                        -0.2435625195503235,
                        -0.09645571559667587,
                        -0.13479050993919373,
                        0.09327495843172073,
                        -0.05076790228486061,
                        -0.18691129982471466,
                        -0.08334607630968094,
                        -0.10522084683179855,
                        0.6249521374702454,
                        -0.1895703822374344,
                        0.19934116303920746,
                        0.04549485072493553,
                        -0.21895314753055573,
                        -0.10895007848739624,
                        0.06905723363161087,
                        -0.07902909815311432,
                        0.24592609703540802,
                        0.23786823451519012,
                        -0.2902263104915619,
                        0.38825199007987976,
                        -0.22091099619865417,
                        -0.24496684968471527,
                        -0.24570877850055695,
                        0.11337042599916458,
                        -0.24815377593040466,
                        -0.08987807482481003,
                        0.09663449227809906,
                        0.6501840949058533,
                        0.14397193491458893,
                        -0.42339465022087097,
                        -0.21824897825717926,
                        -0.36069419980049133,
                        0.5102051496505737,
                        0.47345417737960815,
                        0.12313279509544373,
                        0.35093066096305847,
                        -0.15798665583133698,
                        -0.022586748003959656,
                        -0.11775961518287659,
                        -0.1429750919342041,
                        -0.04455532133579254,
                        -0.10191141068935394,
                        -0.23239775002002716,
                        -0.09792410582304001,
                        0.24198976159095764,
                        0.14623218774795532,
                        -0.09093890339136124,
                        0.026930704712867737
                    ],
                    [
                        0.21825112402439117,
                        -0.12247613072395325,
                        -0.2160835564136505,
                        0.08433128148317337,
                        -0.025624005123972893,
                        0.02322295866906643,
                        -0.02594698779284954,
                        -0.02319919317960739,
                        0.4751424491405487,
                        0.13471359014511108,
                        -0.20184072852134705,
                        -0.13118818402290344,
                        -0.20534013211727142,
                        -0.22095176577568054,
                        -0.0940287634730339,
                        -0.13126270473003387,
                        -0.17992471158504486,
                        -0.3470424711704254,
                        0.11545673757791519,
                        -0.36679935455322266,
                        -0.4344123303890228,
                        -0.2687981128692627,
                        -0.043458420783281326,
                        -0.14243464171886444,
                        0.29470184445381165,
                        0.07433772087097168,
                        0.1793331652879715,
                        -0.6638137698173523,
                        -0.5667394995689392,
                        0.041393622756004333,
                        0.22593578696250916,
                        -0.15052206814289093,
                        0.14982523024082184,
                        -0.013934888876974583,
                        -0.04073414206504822,
                        -0.2153540402650833,
                        0.13525380194187164,
                        0.004460171330720186,
                        -0.20956957340240479,
                        -0.3303636610507965,
                        -0.1231456845998764,
                        -0.050200071185827255,
                        -0.34317442774772644,
                        0.06725608557462692,
                        0.13165387511253357,
                        -0.2393454611301422,
                        -0.33390381932258606,
                        -0.31226447224617004
                    ],
                    [
                        0.04293868690729141,
                        -0.06032257527112961,
                        -0.1459355503320694,
                        0.26907145977020264,
                        -0.5492535829544067,
                        0.032431285828351974,
                        0.10560531169176102,
                        0.1598304957151413,
                        0.020714975893497467,
                        0.18973180651664734,
                        -0.18974779546260834,
                        0.04440782219171524,
                        0.0672508254647255,
                        -0.1961786299943924,
                        0.2153426557779312,
                        -0.16267633438110352,
                        -0.12517409026622772,
                        0.29455938935279846,
                        0.10214588046073914,
                        0.2784337103366852,
                        -0.2461830973625183,
                        -0.033679019659757614,
                        0.020067106932401657,
                        0.21136574447155,
                        0.1216563731431961,
                        -1.0104119777679443,
                        1.1164032220840454,
                        0.3882102072238922,
                        -0.2352319061756134,
                        0.06889636069536209,
                        -0.0020429978612810373,
                        -0.5152742266654968,
                        -0.29127320647239685,
                        0.2815784513950348,
                        0.4804101884365082,
                        0.013858313672244549,
                        0.05494476854801178,
                        -0.23214438557624817,
                        -0.17567145824432373,
                        -0.4269113540649414,
                        -0.16536520421504974,
                        -0.0012462572194635868,
                        -0.06339147686958313,
                        0.1132017970085144,
                        -0.09597929567098618,
                        0.2292487621307373,
                        -0.17179745435714722,
                        0.18234579265117645
                    ],
                    [
                        -0.18577417731285095,
                        0.01723611354827881,
                        0.3952387869358063,
                        0.5082983374595642,
                        -0.40856871008872986,
                        -0.001438530278392136,
                        -0.11125418543815613,
                        -0.26127809286117554,
                        -0.9738171696662903,
                        -0.19778035581111908,
                        -0.7117158770561218,
                        0.23275603353977203,
                        0.09947966784238815,
                        0.30191460251808167,
                        0.17263956367969513,
                        0.4690387547016144,
                        0.08523833751678467,
                        0.16077463328838348,
                        0.276326447725296,
                        -0.13733994960784912,
                        0.9310763478279114,
                        0.47640958428382874,
                        1.1896306276321411,
                        0.2695178985595703,
                        0.12312358617782593,
                        -0.43509146571159363,
                        -0.029985720291733742,
                        -0.036035891622304916,
                        0.3624170422554016,
                        -0.13033683598041534,
                        0.16621747612953186,
                        0.41693517565727234,
                        0.058902911841869354,
                        -0.34801414608955383,
                        0.24296298623085022,
                        0.14484544098377228,
                        0.16949807107448578,
                        0.04136592894792557,
                        0.43334314227104187,
                        0.5578327178955078,
                        0.24156518280506134,
                        0.258717805147171,
                        0.33384209871292114,
                        0.16649138927459717,
                        -0.20429980754852295,
                        0.2473548948764801,
                        0.0819229856133461,
                        0.31894293427467346
                    ]
                ],
                [
                    -0.6319819688796997,
                    -0.10746714472770691,
                    1.3017675876617432,
                    0.6771891713142395,
                    0.48755085468292236,
                    0.0232827290892601,
                    -0.08417260646820068,
                    1.0337668657302856,
                    -1.7839642763137817,
                    -0.8870182037353516,
                    -2.1207435131073,
                    0.44006475806236267,
                    0.4480987787246704,
                    0.6564472913742065,
                    -0.3141310214996338,
                    -0.4004618525505066,
                    0.06890282779932022,
                    0.09646368026733398,
                    0.6502804160118103,
                    0.31718966364860535,
                    2.7311272621154785,
                    0.3653099536895752,
                    3.020951986312866,
                    0.5175997018814087,
                    -0.35868293046951294,
                    -0.35186338424682617,
                    0.3974323868751526,
                    0.1966760903596878,
                    0.130511075258255,
                    -0.01621614396572113,
                    0.5734286308288574,
                    -0.5505548119544983,
                    -0.042930617928504944,
                    -0.10955996811389923,
                    -0.03749871253967285,
                    -0.02686382830142975,
                    0.4145963191986084,
                    -0.00831933319568634,
                    1.5000503063201904,
                    0.9888759255409241,
                    1.2772067785263062,
                    1.0773930549621582,
                    0.7344123125076294,
                    1.2927007675170898,
                    -0.08871038258075714,
                    -0.11083684861660004,
                    0.15079034864902496,
                    0.3011360466480255
                ]
            ]
        },
        {
            "type": "dense",
            "activation": "",
            "shape": [
                null,
                null,
                1
            ],
            "weights": [
                [
                    [
                        0.12806588411331177
                    ],
                    [
                        0.12086718529462814
                    ],
                    [
                        0.2822495996952057
                    ],
                    [
                        1.2316350936889648
                    ],
                    [
                        -0.19293320178985596
                    ],
                    [
                        0.03724393993616104
                    ],
                    [
                        -0.11919894814491272
                    ],
                    [
                        0.11157947778701782
                    ],
                    [
                        0.022114040330052376
                    ],
                    [
                        0.0005323287332430482
                    ],
                    [
                        -0.4174604117870331
                    ],
                    [
                        0.19171500205993652
                    ]
                ],
                [
                    0.06084499508142471
                ]
            ]
        }
    ],
    "samplerate": 48000.0,
    "author": "AIDA DSP",
    "esr": 0.010554873384535313
}
