{
    "in_shape": [
        null,
        null,
        1
    ],
    "out_gain": -3,
    "layers": [
        {
            "type": "lstm",
            "activation": "",
            "shape": [
                null,
                null,
                16
            ],
            "weights": [
                [
                    [
                        0.8146859407424927,
                        -0.015590437687933445,
                        0.07787017524242401,
                        0.158379927277565,
                        0.11111017316579819,
                        0.16778448224067688,
                        0.14585663378238678,
                        -0.009038422256708145,
                        -0.5026243925094604,
                        0.0629388689994812,
                        -0.1586436778306961,
                        0.41259661316871643,
                        0.004485164303332567,
                        0.012776611372828484,
                        -0.04640067741274834,
                        -0.00109605654142797,
                        0.3615526258945465,
                        0.11892521381378174,
                        -0.2708375155925751,
                        -0.1407509297132492,
                        -0.03557083010673523,
                        0.2879018187522888,
                        0.007141458336263895,
                        0.06634332984685898,
                        -0.37452003359794617,
                        -0.43033379316329956,
                        -0.08477381616830826,
                        -0.42912790179252625,
                        0.04402977600693703,
                        -0.16975104808807373,
                        -0.03966705873608589,
                        0.05348702147603035,
                        -0.7978109121322632,
                        0.012350885197520256,
                        0.02381405606865883,
                        -0.05165468156337738,
                        0.42092272639274597,
                        0.03024602122604847,
                        0.1524588018655777,
                        -0.04378249868750572,
                        -0.27897194027900696,
                        -2.1841647624969482,
                        0.30277106165885925,
                        -1.0421717166900635,
                        0.053462427109479904,
                        -0.11892806738615036,
                        -0.18401490151882172,
                        0.5921754240989685,
                        -0.12589991092681885,
                        0.003327625570818782,
                        0.10200107097625732,
                        -0.31295469403266907,
                        0.02259245328605175,
                        0.2354530394077301,
                        -0.20339535176753998,
                        -0.001348424586467445,
                        -0.07577196508646011,
                        -0.2216820865869522,
                        -0.2946188449859619,
                        -0.06191165745258331,
                        -0.05002329498529434,
                        -0.04818559065461159,
                        -0.062318265438079834,
                        -0.4553382992744446
                    ]
                ],
                [
                    [
                        0.4976693093776703,
                        -0.14508235454559326,
                        -0.3886948823928833,
                        -0.0677911639213562,
                        -0.10656175762414932,
                        0.6336817145347595,
                        0.09064873307943344,
                        0.00595856225118041,
                        -0.041064873337745667,
                        -0.29429417848587036,
                        -0.03988881781697273,
                        0.47917887568473816,
                        -0.07833694666624069,
                        -0.1847807615995407,
                        -0.0617617666721344,
                        -0.018286043778061867,
                        0.22777268290519714,
                        0.13860736787319183,
                        -0.11529021710157394,
                        0.04232507944107056,
                        0.13279682397842407,
                        0.4457641839981079,
                        -0.28730103373527527,
                        -0.1441819667816162,
                        0.1120031401515007,
                        0.43140536546707153,
                        -0.27645841240882874,
                        0.25411659479141235,
                        0.16338032484054565,
                        -0.15716542303562164,
                        -0.20195654034614563,
                        -0.25134578347206116,
                        -0.25974804162979126,
                        0.043054185807704926,
                        0.19358110427856445,
                        -0.15509521961212158,
                        0.11441350728273392,
                        0.2617526054382324,
                        -0.05046919733285904,
                        -0.00308415899053216,
                        0.3473869860172272,
                        -1.4306209087371826,
                        0.35247448086738586,
                        -1.1059062480926514,
                        0.08622554689645767,
                        -0.12813790142536163,
                        -0.08806060999631882,
                        1.0852240324020386,
                        -0.36899954080581665,
                        0.16035737097263336,
                        -0.12658680975437164,
                        -0.1482406109571457,
                        -0.06959518790245056,
                        -0.1713416576385498,
                        0.10647204518318176,
                        -0.14942306280136108,
                        -0.03973569720983505,
                        -0.5314534306526184,
                        0.07957442849874496,
                        0.29827386140823364,
                        -0.15469878911972046,
                        -0.11971122771501541,
                        -0.18242724239826202,
                        -0.13027794659137726
                    ],
                    [
                        -0.008114048279821873,
                        -0.09879350662231445,
                        0.29891252517700195,
                        0.2318948209285736,
                        0.3495834469795227,
                        0.2284301519393921,
                        0.13672935962677002,
                        0.03955783694982529,
                        0.2350354939699173,
                        0.0518760085105896,
                        -0.02741542086005211,
                        0.11453702300786972,
                        -0.07205105572938919,
                        -0.07501985132694244,
                        0.16857120394706726,
                        0.006713913753628731,
                        0.13360393047332764,
                        -0.46594661474227905,
                        -0.12427853047847748,
                        -0.31370851397514343,
                        0.34781357645988464,
                        -0.18253864347934723,
                        -0.11859244853258133,
                        -0.4239889681339264,
                        0.21352538466453552,
                        0.04236213490366936,
                        -0.33321553468704224,
                        -0.04638240486383438,
                        -0.021240735426545143,
                        0.06616833806037903,
                        -0.04700513184070587,
                        -0.07617539912462234,
                        0.08220833539962769,
                        -1.5435423851013184,
                        0.03969862312078476,
                        -0.07760356366634369,
                        -0.20253273844718933,
                        0.12736649811267853,
                        0.1208847165107727,
                        0.15100573003292084,
                        0.3470458686351776,
                        0.009201829321682453,
                        0.034094374626874924,
                        -0.021801849827170372,
                        0.039716724306344986,
                        0.08045301586389542,
                        0.11300661414861679,
                        0.0018509406363591552,
                        -0.03910500928759575,
                        -0.11420468986034393,
                        -0.017226887866854668,
                        0.0628829225897789,
                        0.13230331242084503,
                        -0.03295910730957985,
                        0.15262621641159058,
                        -0.0032436407636851072,
                        0.45190155506134033,
                        -0.11003310978412628,
                        -0.5893797874450684,
                        -0.12357962876558304,
                        -0.8895576000213623,
                        -0.21148452162742615,
                        -0.30528852343559265,
                        -0.37034332752227783
                    ],
                    [
                        0.05524274706840515,
                        -0.0691385269165039,
                        -0.2439618557691574,
                        0.046846654266119,
                        -0.0290299654006958,
                        -0.5136358737945557,
                        0.2761588394641876,
                        0.28553828597068787,
                        0.23889045417308807,
                        -0.03800763562321663,
                        -0.03434621915221214,
                        -0.06681383401155472,
                        0.03975868225097656,
                        -0.09872685372829437,
                        -0.04231644794344902,
                        -0.08963929861783981,
                        -0.05130930617451668,
                        -0.1419600397348404,
                        -0.08795806765556335,
                        0.2717801332473755,
                        -0.23555442690849304,
                        -0.324214369058609,
                        -0.14825144410133362,
                        0.10923071205615997,
                        0.10833489894866943,
                        -0.8009849786758423,
                        -0.016558604314923286,
                        0.3275160491466522,
                        0.3008362352848053,
                        -0.07399564236402512,
                        -0.04781704023480415,
                        -0.4334682524204254,
                        -0.13351154327392578,
                        0.07359855622053146,
                        0.3684178590774536,
                        0.09250170737504959,
                        0.3249286115169525,
                        0.43265485763549805,
                        0.16483066976070404,
                        -0.41073209047317505,
                        -0.006880120374262333,
                        -0.20161046087741852,
                        0.41069313883781433,
                        -0.23061418533325195,
                        -0.06474262475967407,
                        -0.588418185710907,
                        -0.06444112956523895,
                        -1.0773729085922241,
                        0.1331619918346405,
                        0.05884714424610138,
                        0.04345090687274933,
                        0.04500570520758629,
                        -0.12203191220760345,
                        -0.12742769718170166,
                        0.0659378170967102,
                        0.04531010240316391,
                        0.026110149919986725,
                        -0.41447606682777405,
                        -0.055027708411216736,
                        0.14011864364147186,
                        0.0370599702000618,
                        -0.10117083787918091,
                        -0.3037281930446625,
                        0.21974752843379974
                    ],
                    [
                        0.7955015301704407,
                        -0.4030035734176636,
                        0.6839209198951721,
                        0.2694386839866638,
                        -0.25276681780815125,
                        0.1796329766511917,
                        -0.04161025583744049,
                        -0.058683160692453384,
                        0.20314675569534302,
                        -0.3504990041255951,
                        -0.06929698586463928,
                        -0.03289297968149185,
                        -0.3058333098888397,
                        -0.3318268656730652,
                        0.5694692730903625,
                        -0.3527686893939972,
                        -0.7950824499130249,
                        0.1312139481306076,
                        -0.9655352830886841,
                        -0.4900105893611908,
                        0.0824098289012909,
                        0.0714067593216896,
                        -0.15131209790706635,
                        -0.3407384157180786,
                        0.0988120287656784,
                        0.17361055314540863,
                        -0.16790051758289337,
                        -0.4701477587223053,
                        0.30580267310142517,
                        -0.16032512485980988,
                        -1.077012062072754,
                        0.22835521399974823,
                        -0.24652737379074097,
                        0.3031783699989319,
                        -0.25277209281921387,
                        0.4770742952823639,
                        0.3281726539134979,
                        0.2729354798793793,
                        -0.4054301679134369,
                        -0.9636660814285278,
                        0.08873743563890457,
                        0.2696627080440521,
                        -0.12670260667800903,
                        0.32092490792274475,
                        -0.3768357038497925,
                        0.0048511698842048645,
                        0.2351798117160797,
                        0.635650634765625,
                        -0.39226654171943665,
                        0.1540886014699936,
                        -0.21131187677383423,
                        -0.4255443215370178,
                        -0.3613400161266327,
                        -0.32318422198295593,
                        -0.20000281929969788,
                        -0.27987948060035706,
                        -0.1546432077884674,
                        -0.3629986345767975,
                        -0.5833398699760437,
                        -0.2018119990825653,
                        -0.3434569239616394,
                        -0.4241732358932495,
                        -0.38479921221733093,
                        -0.643839418888092
                    ],
                    [
                        0.04335518181324005,
                        -0.2972213625907898,
                        0.06569987535476685,
                        0.47848910093307495,
                        0.14218395948410034,
                        -0.4061487913131714,
                        0.6548553705215454,
                        0.25419989228248596,
                        0.227255180478096,
                        -0.15352153778076172,
                        -0.09060710668563843,
                        -0.038977790623903275,
                        0.009935030713677406,
                        -0.23958523571491241,
                        0.6950526833534241,
                        -0.07758719474077225,
                        -0.5565072298049927,
                        -0.6096739768981934,
                        -0.5148173570632935,
                        -0.5652286410331726,
                        0.09064585715532303,
                        0.06560706347227097,
                        0.6186890602111816,
                        -0.008125148713588715,
                        0.12253319472074509,
                        -0.08037490397691727,
                        -0.09405667334794998,
                        -0.37432733178138733,
                        0.5607801675796509,
                        0.17820507287979126,
                        -0.45472070574760437,
                        0.32315054535865784,
                        0.12032584846019745,
                        0.42375513911247253,
                        -0.02574392594397068,
                        0.196221724152565,
                        -0.2886219620704651,
                        -0.2636496126651764,
                        0.17295099794864655,
                        0.07500819861888885,
                        -0.18317964673042297,
                        -0.009338390082120895,
                        0.5683097839355469,
                        -0.11825834959745407,
                        0.6803992986679077,
                        0.6188733577728271,
                        0.019212501123547554,
                        -0.11277194321155548,
                        -0.041499264538288116,
                        -0.004074485972523689,
                        -0.24751421809196472,
                        -0.1933882236480713,
                        -0.14732657372951508,
                        -0.13959689438343048,
                        0.569648265838623,
                        -0.10865535587072372,
                        -0.2010839581489563,
                        -0.1263693869113922,
                        -0.5772879719734192,
                        -0.3122389018535614,
                        0.8754329681396484,
                        -0.18386930227279663,
                        -0.10392110794782639,
                        -0.6713981628417969
                    ],
                    [
                        -0.7076297402381897,
                        0.18737371265888214,
                        -1.1325308084487915,
                        -0.5187704563140869,
                        0.038487061858177185,
                        -0.030454276129603386,
                        0.6061636209487915,
                        0.2669934332370758,
                        -0.3160325288772583,
                        0.20178288221359253,
                        -0.30559033155441284,
                        0.1896314024925232,
                        0.35388100147247314,
                        0.1310523897409439,
                        -0.3440820276737213,
                        0.5524752140045166,
                        1.2159498929977417,
                        -0.09240733832120895,
                        1.0954891443252563,
                        0.5442835092544556,
                        -0.025787001475691795,
                        0.37436535954475403,
                        0.24840079247951508,
                        0.10299919545650482,
                        0.057229891419410706,
                        -0.1539180725812912,
                        0.381254106760025,
                        0.1491744965314865,
                        0.9026165008544922,
                        0.28273695707321167,
                        0.9772336483001709,
                        0.7787333726882935,
                        -0.13314157724380493,
                        -0.07123564928770065,
                        -0.2908569872379303,
                        -0.06514433026313782,
                        0.4526416063308716,
                        -0.347824364900589,
                        0.917556881904602,
                        0.08024439960718155,
                        -0.27859631180763245,
                        0.09756942838430405,
                        0.8550817370414734,
                        -0.06343907117843628,
                        -0.8628499507904053,
                        -0.7238199710845947,
                        -0.7008039951324463,
                        0.4429795444011688,
                        0.2978658974170685,
                        0.35378697514533997,
                        0.42046019434928894,
                        0.6188385486602783,
                        0.011018311604857445,
                        0.5369365215301514,
                        0.3606884181499481,
                        0.6902534365653992,
                        -0.18989664316177368,
                        0.20441977679729462,
                        -0.2337508648633957,
                        0.2839089334011078,
                        0.008144784718751907,
                        0.18367987871170044,
                        0.41123539209365845,
                        0.05874819681048393
                    ],
                    [
                        0.28706440329551697,
                        -0.12063999474048615,
                        0.7366725206375122,
                        0.06868207454681396,
                        0.04637901112437248,
                        -0.3730771541595459,
                        -0.16496731340885162,
                        -0.7130303978919983,
                        0.41625019907951355,
                        -0.07436729967594147,
                        -0.023179296404123306,
                        -0.08796500414609909,
                        -0.12372086197137833,
                        0.10861007124185562,
                        -0.38520821928977966,
                        0.013228503055870533,
                        0.013606885448098183,
                        -0.29168859124183655,
                        -0.27015936374664307,
                        0.07612254470586777,
                        -0.3840801417827606,
                        -0.14671458303928375,
                        -0.03098616749048233,
                        0.38312092423439026,
                        0.5693548917770386,
                        0.060529060661792755,
                        -0.23268741369247437,
                        -0.09024006873369217,
                        -0.8558775186538696,
                        0.07461631298065186,
                        0.0014889660524204373,
                        -0.0713251605629921,
                        -0.15318608283996582,
                        -0.17431914806365967,
                        -0.2020445168018341,
                        0.0638028159737587,
                        0.3914066553115845,
                        -0.2305210530757904,
                        0.5812715888023376,
                        0.6724675893783569,
                        -0.6324554681777954,
                        0.018681766465306282,
                        0.2944839894771576,
                        0.021786753088235855,
                        0.31356626749038696,
                        -0.6124297380447388,
                        -0.41724032163619995,
                        0.33850744366645813,
                        0.17709319293498993,
                        -0.30974075198173523,
                        -0.04231051728129387,
                        0.047180451452732086,
                        0.0333489254117012,
                        -0.2588859498500824,
                        -0.1925523281097412,
                        -0.15909774601459503,
                        0.1159149631857872,
                        0.14863911271095276,
                        0.3393748104572296,
                        -0.49413353204727173,
                        -0.11328765004873276,
                        0.19544997811317444,
                        -0.12069762498140335,
                        -0.5767180919647217
                    ],
                    [
                        -0.0430145263671875,
                        0.02424532175064087,
                        -0.5338677167892456,
                        -0.23016558587551117,
                        0.09319782257080078,
                        -0.23741485178470612,
                        -0.03989827632904053,
                        0.11236598342657089,
                        0.3483485281467438,
                        -0.024077896028757095,
                        0.24320851266384125,
                        0.30810779333114624,
                        0.11731541156768799,
                        -0.09304876625537872,
                        -0.28492647409439087,
                        0.5835261344909668,
                        0.5071333646774292,
                        0.09014014899730682,
                        0.4277915060520172,
                        -0.3649963438510895,
                        -0.2060268074274063,
                        -0.14052243530750275,
                        0.24342991411685944,
                        0.5228896737098694,
                        0.037817686796188354,
                        -0.14236195385456085,
                        -0.7327950596809387,
                        0.04915092885494232,
                        -2.022306442260742,
                        -0.05320659279823303,
                        -0.03178779408335686,
                        0.11657777428627014,
                        0.11992765963077545,
                        -0.5432314276695251,
                        0.1513984650373459,
                        0.02025461383163929,
                        -0.04151839390397072,
                        -0.0934109166264534,
                        -0.10152087360620499,
                        0.38935673236846924,
                        -0.13118688762187958,
                        -0.07431752979755402,
                        -0.038156308233737946,
                        0.07312481850385666,
                        1.4357664585113525,
                        0.4715750217437744,
                        0.11849474161863327,
                        -0.1211090013384819,
                        -0.1378660351037979,
                        -0.5515336990356445,
                        0.019863149151206017,
                        -0.1950649619102478,
                        0.18363380432128906,
                        -0.3006930351257324,
                        -0.1701691746711731,
                        -0.029085705056786537,
                        0.22655640542507172,
                        0.21294160187244415,
                        0.07323046028614044,
                        0.41794878244400024,
                        0.3382600247859955,
                        -0.37883543968200684,
                        -0.018559489399194717,
                        0.05897087976336479
                    ],
                    [
                        1.1269851922988892,
                        -0.3176696002483368,
                        0.705204427242279,
                        0.5831224918365479,
                        -0.09922061115503311,
                        -0.048420049250125885,
                        -0.2926856279373169,
                        0.013449681922793388,
                        -0.3068329691886902,
                        -0.32052457332611084,
                        0.043761998414993286,
                        0.09560076892375946,
                        -0.2876880168914795,
                        -0.2405301183462143,
                        0.7728147506713867,
                        0.02846475876867771,
                        -0.33808988332748413,
                        -0.4322056472301483,
                        -0.6547622680664062,
                        -0.40280789136886597,
                        0.27852028608322144,
                        -0.14371748268604279,
                        -0.4138184189796448,
                        -0.47753414511680603,
                        -0.5299787521362305,
                        -0.24873341619968414,
                        -0.24491146206855774,
                        -0.22618432343006134,
                        0.2658654749393463,
                        0.009999750182032585,
                        -0.6922349333763123,
                        -0.004439041018486023,
                        -0.06079757958650589,
                        0.30706408619880676,
                        0.013045266270637512,
                        0.1680057942867279,
                        -0.006840263027697802,
                        0.0826881155371666,
                        0.6036566495895386,
                        0.5499448180198669,
                        0.02468663826584816,
                        0.14124257862567902,
                        -0.049564752727746964,
                        -0.019918911159038544,
                        -0.4194396734237671,
                        -0.2645411789417267,
                        -0.41989967226982117,
                        0.5878016948699951,
                        -0.25135567784309387,
                        0.1251882165670395,
                        0.03211746737360954,
                        0.09316900372505188,
                        -0.17210181057453156,
                        -0.31769436597824097,
                        -0.3714786171913147,
                        -0.25218647718429565,
                        -0.7351642847061157,
                        -0.5486589074134827,
                        -0.1742902249097824,
                        -0.05902707949280739,
                        -0.5084301233291626,
                        -0.2606450915336609,
                        -0.1571650356054306,
                        -0.02729230746626854
                    ],
                    [
                        0.7667555212974548,
                        -0.12743547558784485,
                        0.0003603402874432504,
                        0.05499875918030739,
                        -0.39476561546325684,
                        -0.1115286722779274,
                        -0.11532509326934814,
                        -0.7162006497383118,
                        0.41190803050994873,
                        -0.2875102758407593,
                        0.0025382214225828648,
                        -0.43447721004486084,
                        -0.2956312894821167,
                        -0.0909530445933342,
                        0.21833625435829163,
                        -0.6214715838432312,
                        -0.8261935710906982,
                        -0.1324830800294876,
                        -0.15513555705547333,
                        -0.02958892472088337,
                        -0.09420440346002579,
                        -0.2915401756763458,
                        0.45568156242370605,
                        -0.22867582738399506,
                        0.03877462074160576,
                        -0.6751173734664917,
                        -0.05543261766433716,
                        -0.41807958483695984,
                        0.30335307121276855,
                        0.5128112435340881,
                        -0.1505679041147232,
                        -0.35067394375801086,
                        0.3902260959148407,
                        0.018235191702842712,
                        -0.3863205015659332,
                        0.13452254235744476,
                        0.44316598773002625,
                        -0.14770172536373138,
                        0.03475632518529892,
                        0.15042008459568024,
                        0.4314034879207611,
                        0.024009615182876587,
                        0.02843710035085678,
                        0.23914729058742523,
                        -0.2464948445558548,
                        -0.04333924502134323,
                        -0.12541115283966064,
                        -1.2758065462112427,
                        -0.45375844836235046,
                        -0.08789099007844925,
                        -0.034944482147693634,
                        0.05865612253546715,
                        -0.3666178584098816,
                        -0.4844762086868286,
                        -0.0011539763072505593,
                        -0.22972002625465393,
                        0.38998517394065857,
                        -0.07196629792451859,
                        -0.26684829592704773,
                        -0.4476028084754944,
                        0.18124201893806458,
                        0.030301984399557114,
                        0.03944304585456848,
                        -0.49227428436279297
                    ],
                    [
                        0.20703570544719696,
                        -0.1773882955312729,
                        -0.6055652499198914,
                        -0.14540377259254456,
                        -0.06431809812784195,
                        -0.9445194602012634,
                        0.15621469914913177,
                        -0.8692266941070557,
                        0.004170701839029789,
                        0.08755452930927277,
                        0.16760049760341644,
                        0.034873779863119125,
                        -0.20208215713500977,
                        -0.09763909131288528,
                        -0.12435196340084076,
                        0.6751416325569153,
                        0.09853293001651764,
                        0.26087483763694763,
                        0.4845984876155853,
                        0.4788206219673157,
                        -0.48568493127822876,
                        -0.14499948918819427,
                        -0.06005029380321503,
                        0.13926395773887634,
                        0.44520413875579834,
                        -0.07063046097755432,
                        -0.10151109099388123,
                        0.25667956471443176,
                        0.13788257539272308,
                        0.22557327151298523,
                        0.37294095754623413,
                        0.4030023217201233,
                        -0.009461678564548492,
                        -0.06514589488506317,
                        -0.06570161134004593,
                        0.11750989407300949,
                        -0.2178877294063568,
                        -0.1265275776386261,
                        0.5443766713142395,
                        -0.09755415469408035,
                        0.15444988012313843,
                        0.00035280431620776653,
                        0.6080621480941772,
                        0.08002842962741852,
                        1.0158586502075195,
                        0.028313059359788895,
                        -0.13782279193401337,
                        0.02996993251144886,
                        0.002615107921883464,
                        -0.36848196387290955,
                        0.5245110988616943,
                        0.3138108253479004,
                        -0.1833226978778839,
                        -0.24040062725543976,
                        -0.07058727741241455,
                        -0.07128308713436127,
                        -0.004607845563441515,
                        0.34132176637649536,
                        0.40898680686950684,
                        -0.0021627331152558327,
                        -0.4215570390224457,
                        0.11569245159626007,
                        0.057502973824739456,
                        0.009162425994873047
                    ],
                    [
                        -0.3952278792858124,
                        0.06298708915710449,
                        -0.07560627162456512,
                        0.030355701223015785,
                        0.15687038004398346,
                        0.00866470392793417,
                        0.161759614944458,
                        0.2780608534812927,
                        0.007961510680615902,
                        0.24554643034934998,
                        0.4486633241176605,
                        0.4624810814857483,
                        0.06620027124881744,
                        0.14864487946033478,
                        -0.46443238854408264,
                        0.5998061895370483,
                        0.12190605700016022,
                        0.29087018966674805,
                        0.061154477298259735,
                        -0.48258593678474426,
                        0.22657719254493713,
                        0.2600004971027374,
                        -0.06598641723394394,
                        0.11015517264604568,
                        0.07913921028375626,
                        0.021695518866181374,
                        0.07351163029670715,
                        0.20552179217338562,
                        -0.09561574459075928,
                        0.2684013843536377,
                        0.33424538373947144,
                        0.05798705667257309,
                        0.2336210459470749,
                        0.21324637532234192,
                        -0.17267970740795135,
                        -0.012806512415409088,
                        0.08267544955015182,
                        0.34975993633270264,
                        0.33956384658813477,
                        -0.23517611622810364,
                        -0.04706355556845665,
                        -0.027919823303818703,
                        0.24250398576259613,
                        0.03353358060121536,
                        0.013829139992594719,
                        -0.48043251037597656,
                        -0.016715453937649727,
                        -0.4527146816253662,
                        0.017633579671382904,
                        0.07108859717845917,
                        -0.29225048422813416,
                        0.32466912269592285,
                        0.1537494957447052,
                        0.09278213977813721,
                        0.26295340061187744,
                        0.1441744863986969,
                        0.15557312965393066,
                        0.926163375377655,
                        -0.006139270029962063,
                        0.12765483558177948,
                        -0.19344961643218994,
                        0.0334840789437294,
                        -0.14038485288619995,
                        0.3566426634788513
                    ],
                    [
                        -0.00748587679117918,
                        -0.25969624519348145,
                        0.37292128801345825,
                        0.7444567084312439,
                        -0.38712528347969055,
                        0.2024075835943222,
                        0.09190960973501205,
                        -0.7056896686553955,
                        0.0020062075927853584,
                        -0.23023942112922668,
                        0.31713753938674927,
                        0.0992671549320221,
                        -0.7838139533996582,
                        0.04776623472571373,
                        0.2106240689754486,
                        -0.23321755230426788,
                        -0.21990197896957397,
                        0.9244967699050903,
                        -0.634539783000946,
                        -0.42498597502708435,
                        -0.8290634751319885,
                        -0.07683400809764862,
                        0.03959318995475769,
                        -0.23307640850543976,
                        -0.0557420589029789,
                        -0.0658438503742218,
                        -0.3074069023132324,
                        -0.04903058335185051,
                        -0.8966952562332153,
                        0.17799405753612518,
                        -0.7696956396102905,
                        -0.19170694053173065,
                        0.014287840574979782,
                        -1.1110939979553223,
                        0.004736783914268017,
                        -0.06450542062520981,
                        -0.7492559552192688,
                        0.1421082466840744,
                        -0.014749699272215366,
                        -0.005026099272072315,
                        0.10893167555332184,
                        0.007863261736929417,
                        -0.053379859775304794,
                        -0.11342630535364151,
                        -0.4720083177089691,
                        0.043397314846515656,
                        -0.43232983350753784,
                        -0.043704573065042496,
                        -0.08506708592176437,
                        -1.6915905475616455,
                        -0.18295204639434814,
                        -0.5641888976097107,
                        -0.2765808403491974,
                        -0.34202831983566284,
                        -0.4178958237171173,
                        -0.4638979434967041,
                        -0.04745166748762131,
                        -0.01644725911319256,
                        0.39729630947113037,
                        -0.23605799674987793,
                        -0.7857692241668701,
                        0.3189375698566437,
                        0.03389064222574234,
                        0.20127762854099274
                    ],
                    [
                        0.2726985216140747,
                        -0.1382366269826889,
                        0.6110403537750244,
                        0.5859113931655884,
                        0.027246909216046333,
                        -0.17924274504184723,
                        -0.19310714304447174,
                        -0.2254994660615921,
                        -0.23240168392658234,
                        -0.10785973817110062,
                        -0.18106164038181305,
                        -0.24911080300807953,
                        -0.2574349641799927,
                        -0.04746861383318901,
                        0.3465355336666107,
                        -0.1620369851589203,
                        -0.5607653260231018,
                        0.2324175089597702,
                        -0.39372870326042175,
                        -0.0466587170958519,
                        0.06747039407491684,
                        0.2712489366531372,
                        -0.016431603580713272,
                        0.03992784395813942,
                        -0.2593252956867218,
                        -0.008812123909592628,
                        -0.1744924932718277,
                        -0.4928395450115204,
                        -0.7403733730316162,
                        -0.011949766427278519,
                        -0.06216434761881828,
                        -0.07761643826961517,
                        -0.13560350239276886,
                        -0.35472986102104187,
                        -0.3146114647388458,
                        -0.1668805032968521,
                        -0.44783133268356323,
                        0.7665143609046936,
                        0.5652762651443481,
                        -0.9891567230224609,
                        0.5057143568992615,
                        0.22773200273513794,
                        0.24540358781814575,
                        -0.31081637740135193,
                        -0.036131732165813446,
                        -0.18043145537376404,
                        -0.18442559242248535,
                        0.1428661346435547,
                        -0.19961607456207275,
                        0.12648282945156097,
                        -0.050437912344932556,
                        0.014130051247775555,
                        -0.023288825526833534,
                        -0.042094431817531586,
                        -0.03127993270754814,
                        -0.0851166695356369,
                        -0.24683986604213715,
                        -0.3136119544506073,
                        -0.32349804043769836,
                        -0.16745461523532867,
                        -0.05087939277291298,
                        -0.006857284344732761,
                        -0.21929848194122314,
                        -0.4664597809314728
                    ],
                    [
                        -0.240895077586174,
                        0.029479453340172768,
                        -0.3719523251056671,
                        0.19197574257850647,
                        0.15487225353717804,
                        -0.19317395985126495,
                        0.13505689799785614,
                        0.23336166143417358,
                        0.01946120709180832,
                        0.23774601519107819,
                        0.3814367651939392,
                        0.20108778774738312,
                        0.07139556109905243,
                        -0.009009914472699165,
                        -0.12380553036928177,
                        0.30871036648750305,
                        0.3346072733402252,
                        -0.07754644751548767,
                        0.24367587268352509,
                        0.40536847710609436,
                        -0.04598941281437874,
                        -0.06060851737856865,
                        0.13887663185596466,
                        0.22936317324638367,
                        0.1289994716644287,
                        0.4824146628379822,
                        0.43828561902046204,
                        0.20928896963596344,
                        0.031769417226314545,
                        0.09094750136137009,
                        0.36280351877212524,
                        0.07177294045686722,
                        0.06517596542835236,
                        -0.430806040763855,
                        -0.027434447780251503,
                        -0.2255290001630783,
                        0.4145418107509613,
                        0.23720011115074158,
                        0.3573159873485565,
                        0.3160207271575928,
                        -0.14139151573181152,
                        0.2755007743835449,
                        0.016046416014432907,
                        -0.0890972912311554,
                        -0.062299441546201706,
                        0.1917765587568283,
                        0.2172706127166748,
                        -0.057903967797756195,
                        -0.10461758822202682,
                        0.02945229597389698,
                        -0.09838809072971344,
                        0.1740226149559021,
                        0.0949777215719223,
                        -0.06377214938402176,
                        0.07605887204408646,
                        0.07411601394414902,
                        0.20089419186115265,
                        0.14766964316368103,
                        0.19446614384651184,
                        0.3746016323566437,
                        0.5934633016586304,
                        -0.005590992979705334,
                        0.09541162103414536,
                        0.23722942173480988
                    ],
                    [
                        0.32528573274612427,
                        0.22750896215438843,
                        0.09812469035387039,
                        -0.20422691106796265,
                        0.036317139863967896,
                        0.6416893601417542,
                        -0.43118712306022644,
                        0.43511441349983215,
                        0.05715886130928993,
                        -0.3404514193534851,
                        0.11464932560920715,
                        -0.08778223395347595,
                        0.29756075143814087,
                        0.025521721690893173,
                        -0.17175941169261932,
                        -0.2529720366001129,
                        0.08315704017877579,
                        0.09589791297912598,
                        0.3275689482688904,
                        0.7313433885574341,
                        0.14096352458000183,
                        0.3314334750175476,
                        -0.009990550577640533,
                        -0.34197935461997986,
                        0.004860016983002424,
                        -0.156794011592865,
                        0.3479450047016144,
                        0.01878953166306019,
                        0.16743449866771698,
                        -0.1275082230567932,
                        -0.0332360602915287,
                        0.5570452809333801,
                        -0.30516156554222107,
                        -0.22966744005680084,
                        0.24486571550369263,
                        -0.12354789674282074,
                        -0.7437011003494263,
                        -0.9365429878234863,
                        0.2527619004249573,
                        -0.20809306204319,
                        -0.019316812977194786,
                        0.18834340572357178,
                        -1.0021412372589111,
                        -0.06902754306793213,
                        0.09563754498958588,
                        -1.1253275871276855,
                        -0.11559323221445084,
                        1.056372046470642,
                        0.17929284274578094,
                        0.3528757691383362,
                        0.2269841581583023,
                        0.2973818778991699,
                        0.2741055190563202,
                        0.10599172860383987,
                        -0.34606555104255676,
                        -0.12501943111419678,
                        0.40353089570999146,
                        -0.21104246377944946,
                        0.4803028106689453,
                        0.3083145320415497,
                        -0.061863742768764496,
                        -0.31998002529144287,
                        0.17242196202278137,
                        0.9860600233078003
                    ]
                ],
                [
                    -2.205193042755127,
                    1.261434555053711,
                    -1.9903795719146729,
                    -1.6012592315673828,
                    0.7210642099380493,
                    0.30465686321258545,
                    0.16094443202018738,
                    0.5474085807800293,
                    -0.5199229717254639,
                    0.9796638488769531,
                    -0.7678034901618958,
                    -0.4802451729774475,
                    1.172682762145996,
                    1.1073567867279053,
                    -3.024923324584961,
                    0.16187164187431335,
                    3.209207534790039,
                    0.3279925584793091,
                    2.313436985015869,
                    2.4098916053771973,
                    -0.3372359573841095,
                    0.8693922758102417,
                    0.13574159145355225,
                    0.1536889374256134,
                    1.066974401473999,
                    0.3463484048843384,
                    0.7861663103103638,
                    0.557935893535614,
                    0.062123313546180725,
                    -0.3206617832183838,
                    3.035673141479492,
                    -0.32011139392852783,
                    -0.2616836726665497,
                    -0.5645906925201416,
                    -0.1312718689441681,
                    -0.10897396504878998,
                    -0.8668078780174255,
                    1.007713794708252,
                    -0.5234777927398682,
                    -0.3229944705963135,
                    -0.31357622146606445,
                    -0.3268764317035675,
                    -0.05922248214483261,
                    -0.08749205619096756,
                    -0.34521645307540894,
                    0.29233336448669434,
                    0.055591993033885956,
                    0.4004184305667877,
                    1.043771743774414,
                    -0.49513745307922363,
                    0.20977628231048584,
                    0.7711354494094849,
                    1.16483736038208,
                    1.542862892150879,
                    0.6092517375946045,
                    1.0975077152252197,
                    0.748910129070282,
                    0.9933187961578369,
                    -0.09306773543357849,
                    0.12830999493598938,
                    0.4308489263057709,
                    1.176497459411621,
                    -0.011466117575764656,
                    0.3533501625061035
                ]
            ]
        },
        {
            "type": "dense",
            "activation": "",
            "shape": [
                null,
                null,
                1
            ],
            "weights": [
                [
                    [
                        -0.1006702408194542
                    ],
                    [
                        -1.0109890699386597
                    ],
                    [
                        0.02742171846330166
                    ],
                    [
                        -0.09838980436325073
                    ],
                    [
                        0.23315638303756714
                    ],
                    [
                        0.2678735852241516
                    ],
                    [
                        0.03254706412553787
                    ],
                    [
                        -0.05869412049651146
                    ],
                    [
                        0.10925783216953278
                    ],
                    [
                        0.04341218248009682
                    ],
                    [
                        -0.2525670826435089
                    ],
                    [
                        0.057343028485774994
                    ],
                    [
                        0.6817007064819336
                    ],
                    [
                        0.0685095265507698
                    ],
                    [
                        0.00775482039898634
                    ],
                    [
                        0.05959892272949219
                    ]
                ],
                [
                    0.027139272540807724
                ]
            ]
        }
    ],
    "samplerate": 48000.0,
    "author": "AIDA DSP",
    "esr": 0.024881646037101746
}
