{
    "in_shape": [
        null,
        null,
        1
    ],
    "out_gain": -5,
    "layers": [
        {
            "type": "lstm",
            "activation": "",
            "shape": [
                null,
                null,
                12
            ],
            "weights": [
                [
                    [
                        0.1901722252368927,
                        -0.35551708936691284,
                        0.07784540206193924,
                        0.08459161221981049,
                        0.07131656259298325,
                        -0.08691219240427017,
                        0.06232065707445145,
                        0.1398414522409439,
                        -0.12527336180210114,
                        0.15457308292388916,
                        -0.023790467530488968,
                        -0.07495519518852234,
                        -0.25910788774490356,
                        0.008849804289638996,
                        0.09029675275087357,
                        0.08628100901842117,
                        0.056526731699705124,
                        0.30477240681648254,
                        0.01608870178461075,
                        0.006507675629109144,
                        -0.06184464320540428,
                        -0.06089701130986214,
                        0.08569469302892685,
                        -0.09050261229276657,
                        0.06795650720596313,
                        1.005876898765564,
                        -1.2491226196289062,
                        -0.40258538722991943,
                        0.5127456188201904,
                        -0.0039968485943973064,
                        -0.5073448419570923,
                        -0.4821803569793701,
                        0.192432701587677,
                        -1.254514455795288,
                        0.41376593708992004,
                        0.07573695480823517,
                        0.3676339387893677,
                        0.12716466188430786,
                        0.04901310056447983,
                        -0.025803422555327415,
                        0.255119264125824,
                        0.22603526711463928,
                        -0.002525169402360916,
                        0.17496012151241302,
                        -0.006678332574665546,
                        -0.1369713395833969,
                        -0.09271875023841858,
                        -0.12595579028129578
                    ]
                ],
                [
                    [
                        -0.19847707450389862,
                        -0.1049656793475151,
                        -0.19075298309326172,
                        0.32303082942962646,
                        -0.37391942739486694,
                        0.04428626224398613,
                        -0.13076850771903992,
                        0.04635295644402504,
                        -0.7230736017227173,
                        -0.06517910212278366,
                        -0.02615281566977501,
                        0.1968129575252533,
                        -0.043304309248924255,
                        -0.3574697971343994,
                        -0.027352169156074524,
                        0.20755814015865326,
                        -0.4842604994773865,
                        -0.22080057859420776,
                        -0.8154333829879761,
                        0.09127388894557953,
                        -1.0051831007003784,
                        0.11977832764387131,
                        0.2963878810405731,
                        0.21121475100517273,
                        0.6707186102867126,
                        0.22809910774230957,
                        0.09361395984888077,
                        -0.1969861537218094,
                        0.01365209836512804,
                        -0.4208158850669861,
                        0.6097618341445923,
                        -0.4921547472476959,
                        0.5475234985351562,
                        0.022333111613988876,
                        -0.023210087791085243,
                        -0.33139315247535706,
                        -0.11553920805454254,
                        0.1915774792432785,
                        -0.15329699218273163,
                        0.1229974552989006,
                        -0.5823482275009155,
                        -0.008332507684826851,
                        -0.14791402220726013,
                        0.020944278687238693,
                        -0.3959636092185974,
                        0.05252958834171295,
                        -0.07559655606746674,
                        0.13446460664272308
                    ],
                    [
                        0.6927351951599121,
                        -0.10486804693937302,
                        -0.0457051657140255,
                        0.031498514115810394,
                        -0.2441561371088028,
                        0.04853928089141846,
                        -0.07204408943653107,
                        0.12362580001354218,
                        -0.05917667970061302,
                        0.2581982910633087,
                        -0.13483218848705292,
                        0.287156879901886,
                        -0.14729411900043488,
                        0.10671248286962509,
                        -0.07871171087026596,
                        -0.0035738761071115732,
                        0.20999707281589508,
                        0.06851805001497269,
                        0.10739899426698685,
                        -0.1026391088962555,
                        -0.08541707694530487,
                        0.20318603515625,
                        -0.17223820090293884,
                        -0.2713332772254944,
                        0.02377449721097946,
                        0.07025091350078583,
                        0.7976498603820801,
                        -0.18960584700107574,
                        -0.460298091173172,
                        -0.18027497828006744,
                        -0.17862266302108765,
                        0.08464457839727402,
                        0.4128550589084625,
                        1.2738230228424072,
                        -0.0754462480545044,
                        0.07433411478996277,
                        0.28204792737960815,
                        -0.08107759058475494,
                        -0.04227669909596443,
                        -0.01504739560186863,
                        -0.02631295472383499,
                        -0.1256638616323471,
                        -0.0646347776055336,
                        0.06268090754747391,
                        -0.06536580622196198,
                        0.02424735017120838,
                        -0.2553092837333679,
                        -0.22043727338314056
                    ],
                    [
                        -0.02523762173950672,
                        0.09802260249853134,
                        0.01604801043868065,
                        0.19182752072811127,
                        0.13372664153575897,
                        0.10968438535928726,
                        -0.14371171593666077,
                        0.04779374971985817,
                        0.045980215072631836,
                        0.2514624297618866,
                        0.014895607717335224,
                        0.07231631129980087,
                        -0.08641979098320007,
                        0.23452694714069366,
                        -0.0815453827381134,
                        0.10917966067790985,
                        -0.5584742426872253,
                        0.23395414650440216,
                        -0.21497395634651184,
                        0.19299378991127014,
                        -0.16014619171619415,
                        -0.423346608877182,
                        0.12714771926403046,
                        0.12826713919639587,
                        -0.070738285779953,
                        -0.5255348682403564,
                        -0.20493026077747345,
                        -0.9684891104698181,
                        0.333847314119339,
                        -0.022848986089229584,
                        -0.944555401802063,
                        -0.5531127452850342,
                        -0.24101996421813965,
                        0.4927581250667572,
                        -0.15272758901119232,
                        0.5165937542915344,
                        -0.02433801256120205,
                        0.11424576491117477,
                        0.12702064216136932,
                        0.2688291370868683,
                        0.4273284375667572,
                        0.6877068877220154,
                        -0.0937269777059555,
                        0.11255411803722382,
                        0.05560607090592384,
                        -0.4514201879501343,
                        -0.11341884732246399,
                        -0.23566633462905884
                    ],
                    [
                        0.5687024593353271,
                        0.9984169006347656,
                        -0.021718481555581093,
                        -0.25233036279678345,
                        0.451365202665329,
                        0.3896310031414032,
                        -0.11677654087543488,
                        -0.1167810931801796,
                        0.3089836537837982,
                        -0.1245802640914917,
                        -0.2206641137599945,
                        0.9035926461219788,
                        -0.7898331880569458,
                        -0.8983215689659119,
                        0.2919400632381439,
                        0.13137806951999664,
                        0.021916376426815987,
                        -0.2218799591064453,
                        0.182451993227005,
                        -0.04639831930398941,
                        0.3218710124492645,
                        0.14064672589302063,
                        0.4296835958957672,
                        -0.5517418384552002,
                        0.013273443095386028,
                        0.10594002902507782,
                        0.5768022537231445,
                        0.2133963257074356,
                        0.17521463334560394,
                        -0.18027262389659882,
                        -0.9429765343666077,
                        -0.8529576063156128,
                        0.13878679275512695,
                        -0.4857482314109802,
                        0.9656381011009216,
                        -0.27810055017471313,
                        -0.334904283285141,
                        -0.08518172055482864,
                        -0.009264118038117886,
                        -0.40825775265693665,
                        0.053774867206811905,
                        0.2004140168428421,
                        -0.17465034127235413,
                        -0.11826696991920471,
                        -0.13188615441322327,
                        -0.10326322913169861,
                        -0.09086447954177856,
                        -0.04544723406434059
                    ],
                    [
                        0.6948261857032776,
                        1.0454645156860352,
                        -0.25681430101394653,
                        -0.2017449587583542,
                        -0.11598333716392517,
                        -0.09202335774898529,
                        -0.4007609188556671,
                        -0.11859307438135147,
                        -0.13457222282886505,
                        -0.19283483922481537,
                        -0.577770471572876,
                        0.22213755548000336,
                        -1.0649609565734863,
                        -0.7545331120491028,
                        -0.1355830878019333,
                        -0.30031445622444153,
                        -0.2560039758682251,
                        -0.4849225580692291,
                        0.10005877912044525,
                        -0.15238416194915771,
                        -0.3606010377407074,
                        -0.30916985869407654,
                        -0.3869866132736206,
                        -0.6888969540596008,
                        -0.027315769344568253,
                        0.25712883472442627,
                        0.3230867087841034,
                        0.11564284563064575,
                        0.33322179317474365,
                        -0.39319679141044617,
                        0.6178075075149536,
                        -0.8296032547950745,
                        -0.3598843812942505,
                        0.05603032559156418,
                        0.11850658059120178,
                        -0.1616102159023285,
                        0.02158816158771515,
                        -0.4461153447628021,
                        -0.31332501769065857,
                        -0.30917370319366455,
                        -0.49561694264411926,
                        -0.36139845848083496,
                        -0.40995875000953674,
                        -0.19484169781208038,
                        -0.1609518975019455,
                        -0.6318020820617676,
                        0.28212589025497437,
                        -0.47319546341896057
                    ],
                    [
                        -1.139221429824829,
                        -1.1141587495803833,
                        0.5352914333343506,
                        -0.038004569709300995,
                        -0.09888860583305359,
                        0.1568470597267151,
                        0.6745083928108215,
                        -0.1728343963623047,
                        -0.481269896030426,
                        0.5459980368614197,
                        0.8159520030021667,
                        -0.9853261113166809,
                        0.7233757376670837,
                        1.421077013015747,
                        -0.04274845868349075,
                        0.36823156476020813,
                        0.6121208667755127,
                        0.27781394124031067,
                        -0.09122718125581741,
                        0.023338641971349716,
                        0.13668401539325714,
                        0.7325068712234497,
                        0.982995867729187,
                        0.06043599918484688,
                        -0.002247337717562914,
                        0.2359302043914795,
                        -0.20197990536689758,
                        -0.10470119118690491,
                        0.258800208568573,
                        0.2784700393676758,
                        0.21419572830200195,
                        -0.3430876135826111,
                        -0.2634638547897339,
                        0.09528452903032303,
                        0.8013355135917664,
                        -0.10092300921678543,
                        -0.05238863825798035,
                        0.45183026790618896,
                        0.5300295352935791,
                        0.2155803143978119,
                        -0.3252907991409302,
                        0.8795827627182007,
                        0.6577669382095337,
                        0.12346278131008148,
                        0.4395734965801239,
                        0.46506795287132263,
                        0.3318265974521637,
                        0.39540907740592957
                    ],
                    [
                        -0.0356714092195034,
                        0.054626066237688065,
                        0.09743623435497284,
                        0.031303804367780685,
                        -0.043068598955869675,
                        -0.21362504363059998,
                        0.030347097665071487,
                        -0.15417376160621643,
                        -0.17667719721794128,
                        0.049543000757694244,
                        -0.0347464457154274,
                        0.06305444985628128,
                        0.49558982253074646,
                        -0.05734729766845703,
                        0.08916129916906357,
                        0.08059495687484741,
                        0.42524123191833496,
                        -0.14333336055278778,
                        -0.2193477749824524,
                        0.15509048104286194,
                        -0.39260390400886536,
                        0.0390116423368454,
                        -0.2040637731552124,
                        0.30029410123825073,
                        -0.31775593757629395,
                        0.03457137942314148,
                        0.03364580497145653,
                        0.09760597348213196,
                        -0.06580673903226852,
                        0.21644215285778046,
                        0.28583794832229614,
                        -0.07475000619888306,
                        -0.30365273356437683,
                        0.06112316623330116,
                        -3.103468418121338,
                        0.07950475066900253,
                        0.2907244563102722,
                        -0.025592058897018433,
                        0.16212855279445648,
                        0.1315673291683197,
                        0.7520791888237,
                        -0.5089067816734314,
                        0.10694973915815353,
                        -0.10873246937990189,
                        -0.07437801361083984,
                        0.29068461060523987,
                        -0.19533389806747437,
                        0.07681018114089966
                    ],
                    [
                        0.42830806970596313,
                        0.37446844577789307,
                        0.09737993031740189,
                        -0.04567592218518257,
                        0.13302546739578247,
                        -0.43698015809059143,
                        -0.05767853930592537,
                        -0.04360077902674675,
                        -0.0455150380730629,
                        0.323081374168396,
                        0.00972397904843092,
                        -0.17324693500995636,
                        -0.08345001935958862,
                        0.04090975224971771,
                        0.17515338957309723,
                        -0.3361086845397949,
                        -0.525789737701416,
                        0.14852535724639893,
                        -0.16649426519870758,
                        -0.15628407895565033,
                        -0.13700152933597565,
                        0.20252513885498047,
                        0.2605465352535248,
                        -0.0012752608163282275,
                        0.13976150751113892,
                        -0.5965070128440857,
                        0.4300090968608856,
                        0.9272426962852478,
                        0.7906777262687683,
                        1.3063479661941528,
                        -0.8383637070655823,
                        0.472345769405365,
                        -0.6660810708999634,
                        0.2796850800514221,
                        0.01901969313621521,
                        0.6928588151931763,
                        0.20620684325695038,
                        -0.014531780034303665,
                        0.12668466567993164,
                        -0.09685064852237701,
                        0.33883893489837646,
                        0.18401281535625458,
                        -0.007715761195868254,
                        0.025109438225626945,
                        0.18875105679035187,
                        -0.13596680760383606,
                        0.03436219319701195,
                        0.01754271797835827
                    ],
                    [
                        -0.5311704277992249,
                        -0.0771210715174675,
                        0.07913844287395477,
                        0.10638625919818878,
                        -0.24598315358161926,
                        0.03211171180009842,
                        0.11096698045730591,
                        0.31607475876808167,
                        -0.025832975283265114,
                        -0.09074953943490982,
                        0.1943548023700714,
                        0.10678453743457794,
                        -0.36826983094215393,
                        0.11090867221355438,
                        -0.1869754195213318,
                        0.013514259830117226,
                        -0.17140142619609833,
                        0.45559340715408325,
                        -0.13053946197032928,
                        0.30555129051208496,
                        -0.08281255513429642,
                        0.026105446740984917,
                        0.17218929529190063,
                        0.3213939964771271,
                        -0.17659638822078705,
                        -0.09850221127271652,
                        0.36252984404563904,
                        0.4426724910736084,
                        0.061817288398742676,
                        0.3457299768924713,
                        -0.15460841357707977,
                        0.5233005285263062,
                        0.3248530328273773,
                        -0.20892733335494995,
                        0.6202391386032104,
                        -0.4699220359325409,
                        -0.8789640069007874,
                        0.5992690920829773,
                        0.0894302949309349,
                        0.06169331818819046,
                        0.08247508853673935,
                        0.15273085236549377,
                        0.11292684823274612,
                        0.2058725357055664,
                        -0.11358395963907242,
                        0.018703512847423553,
                        0.9950383305549622,
                        -0.30672672390937805
                    ],
                    [
                        0.048107314854860306,
                        -0.6541885733604431,
                        -0.2245490700006485,
                        -0.13959594070911407,
                        -0.01917320489883423,
                        0.2874247133731842,
                        0.03696354106068611,
                        0.027089525014162064,
                        -0.0525871105492115,
                        -0.05257442966103554,
                        0.03855285793542862,
                        0.2466827630996704,
                        0.2697399854660034,
                        -0.16244733333587646,
                        -0.1264067441225052,
                        -0.1511572301387787,
                        0.41497746109962463,
                        0.31218278408050537,
                        -0.036194901913404465,
                        0.10458420217037201,
                        0.12729057669639587,
                        0.04805326089262962,
                        -0.016313444823026657,
                        -0.023625705391168594,
                        -0.19067257642745972,
                        -0.16265521943569183,
                        -1.275881052017212,
                        0.10654868930578232,
                        0.3889796733856201,
                        0.04917001351714134,
                        -0.2347467839717865,
                        -0.3288455009460449,
                        0.21827983856201172,
                        1.152305245399475,
                        -0.114520363509655,
                        -0.27085644006729126,
                        0.22662141919136047,
                        -0.0619133897125721,
                        -0.17809638381004333,
                        -0.03886871412396431,
                        -0.1453489512205124,
                        -0.10278093069791794,
                        -0.013873165473341942,
                        0.021111009642481804,
                        -0.1526983231306076,
                        0.34618332982063293,
                        -0.022975023835897446,
                        -0.006194543093442917
                    ],
                    [
                        -0.08237015455961227,
                        -0.15156064927577972,
                        0.001805389067158103,
                        0.05458954721689224,
                        -0.21353603899478912,
                        -0.16528171300888062,
                        -0.11123374849557877,
                        0.001663318369537592,
                        0.051470302045345306,
                        0.12367995828390121,
                        0.0019730597268790007,
                        -0.17516130208969116,
                        -0.12510231137275696,
                        -0.021360203623771667,
                        0.10841070115566254,
                        0.00026043280377052724,
                        -0.2439875453710556,
                        -0.09912069141864777,
                        -0.2822391092777252,
                        0.13336847722530365,
                        0.19200733304023743,
                        -0.009453197941184044,
                        -0.4124773144721985,
                        0.31177040934562683,
                        0.675091564655304,
                        0.09652158617973328,
                        0.0004263373266439885,
                        0.022891540080308914,
                        -0.11097420006990433,
                        0.11929931491613388,
                        0.1988077014684677,
                        0.005630864761769772,
                        0.055194344371557236,
                        0.013095534406602383,
                        -0.3417792022228241,
                        -0.07028166949748993,
                        -0.03884334862232208,
                        0.07090521603822708,
                        -0.052332863211631775,
                        0.07444464415311813,
                        0.13820050656795502,
                        -0.5627939701080322,
                        -0.06587191671133041,
                        -0.10405994206666946,
                        -0.08184513449668884,
                        -0.08703996241092682,
                        -0.34921666979789734,
                        0.14233408868312836
                    ],
                    [
                        -0.6477060914039612,
                        -0.40766167640686035,
                        -0.00587295601144433,
                        0.09956837445497513,
                        -0.42203953862190247,
                        0.12387707829475403,
                        0.02444789744913578,
                        0.08803314715623856,
                        -0.2423984706401825,
                        -0.15307259559631348,
                        -0.05637484788894653,
                        0.24677979946136475,
                        -0.22404427826404572,
                        -0.23169203102588654,
                        -0.004671954549849033,
                        0.030387919396162033,
                        0.5756982564926147,
                        0.6988890767097473,
                        0.47209981083869934,
                        0.07754393666982651,
                        -0.03981896489858627,
                        0.26737749576568604,
                        0.19496062397956848,
                        -0.3723562955856323,
                        -0.09951246529817581,
                        0.24482980370521545,
                        0.22365446388721466,
                        0.10658816248178482,
                        0.8976659774780273,
                        -0.12134264409542084,
                        0.5743111968040466,
                        0.21720029413700104,
                        0.117818184196949,
                        -0.10622530430555344,
                        0.023836098611354828,
                        0.14879946410655975,
                        0.07323399186134338,
                        -0.6992749571800232,
                        -0.010443276725709438,
                        0.052569154649972916,
                        -0.3548040986061096,
                        0.3917109966278076,
                        0.05133536830544472,
                        0.033450134098529816,
                        -0.036781638860702515,
                        0.0021147571969777346,
                        0.19821465015411377,
                        0.11409558355808258
                    ]
                ],
                [
                    -2.6652843952178955,
                    -3.0256383419036865,
                    1.2398535013198853,
                    0.8108445405960083,
                    -0.7858819365501404,
                    -0.3386419415473938,
                    1.549342393875122,
                    0.9208261966705322,
                    -1.3127639293670654,
                    -0.6114415526390076,
                    2.394774913787842,
                    -2.264080762863159,
                    3.916083812713623,
                    3.4643845558166504,
                    -0.12132824957370758,
                    0.11630488932132721,
                    1.759577751159668,
                    1.2959119081497192,
                    0.2881350517272949,
                    0.32152265310287476,
                    1.458484172821045,
                    -0.33420661091804504,
                    0.03689440339803696,
                    2.985973358154297,
                    0.040304362773895264,
                    -0.06980562955141068,
                    0.500999391078949,
                    -0.04645966738462448,
                    -0.27853021025657654,
                    -0.09648954123258591,
                    0.037717223167419434,
                    -0.3967565894126892,
                    0.21628816425800323,
                    0.01497393473982811,
                    -0.2565593719482422,
                    -0.03555094823241234,
                    0.1444653570652008,
                    0.028182167559862137,
                    1.4219963550567627,
                    1.3932682275772095,
                    0.774699330329895,
                    0.7645090818405151,
                    1.7820231914520264,
                    1.4054131507873535,
                    0.703409731388092,
                    0.670412003993988,
                    -0.791075587272644,
                    0.3468274176120758
                ]
            ]
        },
        {
            "type": "dense",
            "activation": "",
            "shape": [
                null,
                null,
                1
            ],
            "weights": [
                [
                    [
                        0.14294449985027313
                    ],
                    [
                        0.16749919950962067
                    ],
                    [
                        -0.01497972384095192
                    ],
                    [
                        0.10319050401449203
                    ],
                    [
                        -0.2736354470252991
                    ],
                    [
                        -0.025225065648555756
                    ],
                    [
                        -0.04419277608394623
                    ],
                    [
                        -0.030692297965288162
                    ],
                    [
                        -0.6326418519020081
                    ],
                    [
                        -0.018942825496196747
                    ],
                    [
                        1.5405339002609253
                    ],
                    [
                        0.15402832627296448
                    ]
                ],
                [
                    0.020307769998908043
                ]
            ]
        }
    ],
    "samplerate": 48000.0,
    "author": "AIDA DSP",
    "esr": 0.038572702556848526
}
