{
    "in_shape": [
        null,
        null,
        1
    ],
    "out_gain": -6.6,
    "layers": [
        {
            "type": "lstm",
            "activation": "",
            "shape": [
                null,
                null,
                16
            ],
            "weights": [
                [
                    [
                        0.35319048166275024,
                        0.433284193277359,
                        0.9697642922401428,
                        0.2402191460132599,
                        0.20650756359100342,
                        0.6600420475006104,
                        0.2675456404685974,
                        0.06428837031126022,
                        0.09271504729986191,
                        0.2744670808315277,
                        0.17787709832191467,
                        -0.000827280746307224,
                        0.13904635608196259,
                        -0.20366577804088593,
                        0.4770049750804901,
                        0.017339307814836502,
                        0.03388821333646774,
                        0.42037588357925415,
                        -0.36549755930900574,
                        0.05028317868709564,
                        -0.028091534972190857,
                        -0.2102750539779663,
                        0.24398061633110046,
                        -0.03671283647418022,
                        -0.03846241161227226,
                        0.178580179810524,
                        -0.4139973521232605,
                        -0.1059132069349289,
                        -0.16100020706653595,
                        0.10429710149765015,
                        -0.09941213577985764,
                        -0.15926262736320496,
                        -0.1500781923532486,
                        -0.03819212689995766,
                        0.19653049111366272,
                        -0.13177333772182465,
                        0.47267329692840576,
                        2.2446227073669434,
                        -0.18394771218299866,
                        -0.7722571492195129,
                        0.2180025577545166,
                        -0.4547969400882721,
                        0.08366216719150543,
                        -0.12034774571657181,
                        -0.18255913257598877,
                        0.010614067316055298,
                        -0.10663951188325882,
                        -0.02510896883904934,
                        0.16582061350345612,
                        0.26478374004364014,
                        0.9458195567131042,
                        0.14658480882644653,
                        0.3317357301712036,
                        -0.0045560444705188274,
                        -0.276261568069458,
                        -0.0511220321059227,
                        -0.532031774520874,
                        -0.19614872336387634,
                        0.10945601761341095,
                        -2.1604628562927246,
                        -0.0019994236063212156,
                        0.11312880367040634,
                        -0.21535487473011017,
                        -0.05368039011955261
                    ]
                ],
                [
                    [
                        -0.24986261129379272,
                        0.05980338528752327,
                        -0.05964043736457825,
                        -0.14908568561077118,
                        -0.8860260844230652,
                        0.1827079951763153,
                        0.09039188921451569,
                        0.18035805225372314,
                        -0.6166015267372131,
                        -0.5664695501327515,
                        -0.3178299367427826,
                        -0.3091985881328583,
                        -0.09431731700897217,
                        0.05397958308458328,
                        -0.4255506098270416,
                        -0.06275441497564316,
                        -0.3091188967227936,
                        0.21942734718322754,
                        0.20040351152420044,
                        0.05419347807765007,
                        0.8336805701255798,
                        0.25037920475006104,
                        0.4897402226924896,
                        0.033465199172496796,
                        -0.3180695176124573,
                        0.8708597421646118,
                        0.37950772047042847,
                        0.5985278487205505,
                        0.10144270211458206,
                        0.14490628242492676,
                        0.9970195889472961,
                        0.3851839601993561,
                        0.06947215646505356,
                        0.12406224757432938,
                        -0.06733045727014542,
                        -0.14064647257328033,
                        -0.05527125298976898,
                        0.14517250657081604,
                        -0.8699736595153809,
                        0.1791909784078598,
                        0.597000002861023,
                        -0.006067585200071335,
                        -0.12448292970657349,
                        0.19021640717983246,
                        -0.16250771284103394,
                        0.08510489761829376,
                        0.4924238920211792,
                        -0.17584143579006195,
                        0.8882248401641846,
                        0.38281455636024475,
                        -0.07378055155277252,
                        -0.4007832407951355,
                        0.3247082531452179,
                        0.2988985478878021,
                        0.8207114338874817,
                        0.23098060488700867,
                        -0.621724009513855,
                        0.07828325778245926,
                        0.15533718466758728,
                        0.18138112127780914,
                        0.02912980504333973,
                        0.4856126606464386,
                        0.012022172100841999,
                        0.3498762249946594
                    ],
                    [
                        0.5147887468338013,
                        0.24221913516521454,
                        0.3334304988384247,
                        0.3655378520488739,
                        -0.10310748964548111,
                        0.23509441316127777,
                        0.005281479563564062,
                        -0.6738221049308777,
                        -0.06556399166584015,
                        -0.12893274426460266,
                        -0.15428824722766876,
                        0.3993028700351715,
                        0.08221205323934555,
                        -0.736000120639801,
                        -0.2782054543495178,
                        -0.8967311978340149,
                        0.09907679259777069,
                        -0.7582738995552063,
                        -0.23265329003334045,
                        0.14389924705028534,
                        -0.7095085978507996,
                        -0.27677294611930847,
                        0.31187060475349426,
                        -0.35275647044181824,
                        -0.3321731984615326,
                        -1.1548839807510376,
                        0.43422821164131165,
                        -1.5021960735321045,
                        0.25963371992111206,
                        -0.7389218211174011,
                        -0.23438666760921478,
                        -0.15385179221630096,
                        -0.3063640296459198,
                        0.7180869579315186,
                        -0.13384847342967987,
                        0.3618459105491638,
                        0.5715418457984924,
                        0.5450595021247864,
                        0.3532772958278656,
                        0.8047592043876648,
                        0.3237244188785553,
                        -0.018462596461176872,
                        -0.10494454205036163,
                        0.3147832453250885,
                        -0.676285982131958,
                        -1.3910040855407715,
                        0.02839622087776661,
                        -1.0216463804244995,
                        -0.07750998437404633,
                        -0.28598666191101074,
                        -0.3776020407676697,
                        -0.06295900791883469,
                        -0.5742810368537903,
                        0.2854509949684143,
                        -0.13276629149913788,
                        -0.21879079937934875,
                        -0.7059794068336487,
                        0.12550035119056702,
                        -0.3055502474308014,
                        0.6125326156616211,
                        -0.03774179890751839,
                        -0.6866642832756042,
                        0.13724806904792786,
                        -0.2945956885814667
                    ],
                    [
                        0.013910815119743347,
                        -0.35098081827163696,
                        0.4577188491821289,
                        -0.11491177976131439,
                        0.5046712160110474,
                        -0.23469538986682892,
                        -0.04682828485965729,
                        -0.448180228471756,
                        -0.023579522967338562,
                        0.40286239981651306,
                        0.2796332538127899,
                        0.7934287190437317,
                        -0.03981572389602661,
                        -0.273101270198822,
                        -0.013753718696534634,
                        0.23479992151260376,
                        0.11261513084173203,
                        -0.2595736086368561,
                        -0.2815536856651306,
                        0.10894224047660828,
                        -0.3751431405544281,
                        -0.6618034839630127,
                        0.09621501713991165,
                        -0.577593982219696,
                        -0.317040354013443,
                        -0.5631904602050781,
                        0.011684076860547066,
                        -0.5611581206321716,
                        -0.1074814647436142,
                        -0.3198902904987335,
                        -0.07749207317829132,
                        0.03368315100669861,
                        0.07775156944990158,
                        0.6432408094406128,
                        -0.2963099777698517,
                        0.13896197080612183,
                        -0.1999329775571823,
                        -1.7205761671066284,
                        0.0422087088227272,
                        0.5657876133918762,
                        0.20965465903282166,
                        0.40791481733322144,
                        -0.11261514574289322,
                        -0.052003778517246246,
                        -0.094639852643013,
                        -0.23325736820697784,
                        0.16960054636001587,
                        0.29412567615509033,
                        0.16426196694374084,
                        -0.05377727746963501,
                        0.2531556785106659,
                        -0.1785532832145691,
                        0.38276398181915283,
                        -0.06940154731273651,
                        -0.26409733295440674,
                        -0.2564389109611511,
                        -0.040247559547424316,
                        -0.0822063684463501,
                        -0.19493620097637177,
                        -0.17715571820735931,
                        -0.09037185460329056,
                        -0.23637501895427704,
                        -0.06751200556755066,
                        0.23461702466011047
                    ],
                    [
                        0.5521358847618103,
                        -0.2688193917274475,
                        -0.05394608899950981,
                        0.3560602068901062,
                        0.5675501823425293,
                        0.04563829302787781,
                        -0.52975994348526,
                        -0.19303908944129944,
                        -0.05120129510760307,
                        0.3318285048007965,
                        -0.16308856010437012,
                        0.2700742185115814,
                        0.6367619633674622,
                        0.2355586588382721,
                        -0.1937004178762436,
                        -0.10965889692306519,
                        -0.13189907371997833,
                        -0.5169135332107544,
                        -0.02577666938304901,
                        0.26248449087142944,
                        -0.6086373329162598,
                        -0.07421837002038956,
                        -0.8720279932022095,
                        -0.1786457598209381,
                        -0.3994080424308777,
                        -0.8359104990959167,
                        0.2615889012813568,
                        -0.21816307306289673,
                        0.3346724808216095,
                        -0.55827796459198,
                        -0.2894275486469269,
                        -0.26846012473106384,
                        -0.01041860319674015,
                        0.031072238460183144,
                        0.018217802047729492,
                        0.009037173353135586,
                        0.13797259330749512,
                        -0.12333320081233978,
                        1.0531247854232788,
                        -0.22132831811904907,
                        0.17270219326019287,
                        0.04401586204767227,
                        0.034060150384902954,
                        0.04296187311410904,
                        0.9474868178367615,
                        0.3445957899093628,
                        0.29583489894866943,
                        0.0857052132487297,
                        0.01976105384528637,
                        -0.14936092495918274,
                        -0.01554025523364544,
                        0.25310754776000977,
                        -0.08543796092271805,
                        0.05486663803458214,
                        0.8401105403900146,
                        -0.0860881507396698,
                        -0.6099722385406494,
                        -0.1168031319975853,
                        -0.3203302323818207,
                        -0.14250703155994415,
                        0.40826383233070374,
                        -0.2875642776489258,
                        0.09009458124637604,
                        -0.47050032019615173
                    ],
                    [
                        -0.1289394646883011,
                        0.22308585047721863,
                        0.9164342880249023,
                        0.22421838343143463,
                        -0.04930822551250458,
                        0.08846252411603928,
                        0.009533345699310303,
                        0.09426850080490112,
                        -0.25657039880752563,
                        -0.16365283727645874,
                        0.5555660724639893,
                        -0.24328067898750305,
                        0.18009375035762787,
                        0.4325335919857025,
                        0.4451379179954529,
                        0.3359633684158325,
                        -0.3562832176685333,
                        0.265542209148407,
                        -0.8851079344749451,
                        -0.13276103138923645,
                        0.022983333095908165,
                        0.1982872486114502,
                        -0.05759827792644501,
                        0.12135007232427597,
                        -0.12365246564149857,
                        -0.01159172598272562,
                        -0.33905884623527527,
                        -0.35788822174072266,
                        -0.4633278548717499,
                        -0.3071823716163635,
                        -0.47533077001571655,
                        -0.14151722192764282,
                        -0.14426757395267487,
                        -0.90570467710495,
                        -0.6798099279403687,
                        -0.06122279912233353,
                        0.3478303849697113,
                        0.5550762414932251,
                        0.4288589060306549,
                        0.035986073315143585,
                        -0.18990549445152283,
                        -0.426522433757782,
                        -0.3195062279701233,
                        -0.32606929540634155,
                        -0.13949035108089447,
                        0.5175564885139465,
                        -0.05972128361463547,
                        0.006024837028235197,
                        0.25677093863487244,
                        -0.11945914477109909,
                        -0.6159348487854004,
                        0.07233291864395142,
                        -0.349325031042099,
                        -0.5057981014251709,
                        0.03580019995570183,
                        -0.0926518365740776,
                        -0.319034218788147,
                        -0.6810274720191956,
                        -0.09491948038339615,
                        0.14293375611305237,
                        -0.1862471103668213,
                        -0.0871952548623085,
                        -0.24939292669296265,
                        0.01136968843638897
                    ],
                    [
                        0.05207502469420433,
                        -0.45511192083358765,
                        0.342475950717926,
                        -0.09407712519168854,
                        0.36328694224357605,
                        -0.5927576422691345,
                        -0.0979803130030632,
                        0.39494216442108154,
                        -0.007119809743016958,
                        0.7809717655181885,
                        -0.029603879898786545,
                        0.037380401045084,
                        -0.8684331774711609,
                        0.34236419200897217,
                        -0.4107745289802551,
                        0.3833630681037903,
                        -0.0357167012989521,
                        -0.46886011958122253,
                        -0.23052413761615753,
                        -0.15990303456783295,
                        0.21525393426418304,
                        -0.22933033108711243,
                        -0.32281166315078735,
                        0.7390487790107727,
                        0.3095259964466095,
                        -0.2600151300430298,
                        -0.14491070806980133,
                        0.8539535999298096,
                        -0.6543985605239868,
                        -0.30953583121299744,
                        -0.16427984833717346,
                        0.0221125315874815,
                        0.1918374001979828,
                        -1.8483705520629883,
                        0.9941622614860535,
                        0.06474623829126358,
                        -0.3420115113258362,
                        -0.03736314922571182,
                        0.2836618423461914,
                        0.39461907744407654,
                        -0.5786950588226318,
                        0.019364990293979645,
                        -0.5859547257423401,
                        -0.4982399642467499,
                        0.16320368647575378,
                        0.7274371981620789,
                        0.09018336236476898,
                        -1.3073256015777588,
                        0.18319369852542877,
                        -0.3093799650669098,
                        -0.09850320965051651,
                        -0.0332353338599205,
                        0.22102682292461395,
                        0.026882532984018326,
                        0.46515771746635437,
                        0.3964616060256958,
                        0.02721034735441208,
                        0.6517345309257507,
                        0.09744088351726532,
                        0.5473394393920898,
                        0.01530893612653017,
                        0.29046621918678284,
                        -0.07566190510988235,
                        -0.22673361003398895
                    ],
                    [
                        0.570578396320343,
                        -0.44301050901412964,
                        0.16764672100543976,
                        0.2577804923057556,
                        0.40177610516548157,
                        0.10332132875919342,
                        -0.8678817749023438,
                        0.05936814844608307,
                        -0.636816143989563,
                        0.06759335100650787,
                        0.4801064431667328,
                        0.4966014325618744,
                        -0.3983360528945923,
                        0.014242187142372131,
                        0.17519012093544006,
                        -0.14591145515441895,
                        0.24973537027835846,
                        0.06467052549123764,
                        -0.02569310925900936,
                        -0.238860622048378,
                        -0.1323380321264267,
                        -0.038658175617456436,
                        -0.33276402950286865,
                        0.10977223515510559,
                        -0.7515335083007812,
                        -0.3852909207344055,
                        -0.4258435368537903,
                        -0.015880417078733444,
                        0.21615789830684662,
                        0.0008923984714783728,
                        -0.017384499311447144,
                        0.24050459265708923,
                        -0.012670997530221939,
                        0.01767524890601635,
                        -0.10224993526935577,
                        -0.03612825274467468,
                        0.07775885611772537,
                        0.06697624921798706,
                        1.6453053951263428,
                        0.23915165662765503,
                        -1.2735536098480225,
                        0.023336069658398628,
                        -0.5168374180793762,
                        -0.20119111239910126,
                        -0.9476044178009033,
                        -0.0071533070877194405,
                        -0.14493754506111145,
                        0.37437325716018677,
                        -0.8569501042366028,
                        0.33715200424194336,
                        -0.06924144923686981,
                        -0.12451356649398804,
                        0.012314709834754467,
                        -0.07574383169412613,
                        0.575113832950592,
                        0.016331925988197327,
                        3.397595167160034,
                        0.03707954287528992,
                        0.07607172429561615,
                        0.030721452087163925,
                        -0.9467747211456299,
                        -0.41935330629348755,
                        -0.11353305727243423,
                        -0.025469111278653145
                    ],
                    [
                        0.35259875655174255,
                        0.7159258723258972,
                        -0.5832456350326538,
                        0.02749229222536087,
                        -0.546940267086029,
                        -0.15184150636196136,
                        -0.1078183501958847,
                        0.16456463932991028,
                        -0.1974133849143982,
                        -0.46459925174713135,
                        -0.2059408277273178,
                        -0.3893059492111206,
                        -0.25563040375709534,
                        0.15366289019584656,
                        0.31793850660324097,
                        0.11304063349962234,
                        0.08303587138652802,
                        0.8003378510475159,
                        0.08321467787027359,
                        0.1266491711139679,
                        -0.42043912410736084,
                        0.2998957633972168,
                        -0.026214543730020523,
                        -0.1614713966846466,
                        -0.09367678314447403,
                        -0.5858096480369568,
                        -0.07243139296770096,
                        -0.21104124188423157,
                        -0.037084951996803284,
                        0.16957998275756836,
                        0.07979082316160202,
                        -0.5308849811553955,
                        -0.2451680600643158,
                        0.29268530011177063,
                        -0.25280892848968506,
                        0.010298316366970539,
                        0.33554163575172424,
                        -0.14198176562786102,
                        -0.7973105907440186,
                        -0.208383247256279,
                        -0.41984832286834717,
                        0.233822301030159,
                        0.30787283182144165,
                        0.333246111869812,
                        -0.846784770488739,
                        -0.28901490569114685,
                        0.26183372735977173,
                        -0.8571102619171143,
                        0.5430588126182556,
                        0.44993939995765686,
                        -0.030088337138295174,
                        0.04462756961584091,
                        0.1356939822435379,
                        -0.0356779582798481,
                        0.1287650167942047,
                        -0.006632042583078146,
                        1.04131281375885,
                        -0.3459215462207794,
                        -0.24683605134487152,
                        -0.4808233976364136,
                        -0.3881169855594635,
                        0.043623652309179306,
                        0.14658531546592712,
                        -0.01838826574385166
                    ],
                    [
                        0.05909878760576248,
                        -0.19810789823532104,
                        0.33116692304611206,
                        0.5598918795585632,
                        0.2989695966243744,
                        -0.38222163915634155,
                        0.1626400202512741,
                        -0.3361732065677643,
                        0.34330394864082336,
                        0.49197351932525635,
                        0.8248641490936279,
                        0.8240315914154053,
                        -0.1723453849554062,
                        -0.1427251696586609,
                        0.35036998987197876,
                        -0.20480546355247498,
                        -0.40531983971595764,
                        -0.13087643682956696,
                        -0.25718313455581665,
                        -0.06831648200750351,
                        -1.0026583671569824,
                        -0.22299616038799286,
                        -0.06957681477069855,
                        0.11185287684202194,
                        0.5622181296348572,
                        -0.8983784914016724,
                        -0.3923164904117584,
                        -0.5137045979499817,
                        -0.08547750860452652,
                        -0.2659619152545929,
                        -0.7797827124595642,
                        0.006138594355434179,
                        -0.41218677163124084,
                        -0.05312371253967285,
                        0.02985071763396263,
                        -0.17221808433532715,
                        -0.11218823492527008,
                        0.00941346026957035,
                        0.8514412045478821,
                        0.2049322873353958,
                        -0.45326554775238037,
                        0.03481287509202957,
                        0.27475184202194214,
                        -0.21065659821033478,
                        -0.7246805429458618,
                        -0.12118333578109741,
                        0.7651050686836243,
                        0.2106492817401886,
                        -0.09676693379878998,
                        -0.020222898572683334,
                        -0.12124564498662949,
                        -0.13209079205989838,
                        -0.18903931975364685,
                        -0.2350160926580429,
                        0.07845249027013779,
                        -0.318647563457489,
                        -0.6442748308181763,
                        0.04412296414375305,
                        -0.16383765637874603,
                        -0.026403453201055527,
                        -0.4552098214626312,
                        -0.06060686707496643,
                        -0.2043789029121399,
                        -0.22004437446594238
                    ],
                    [
                        0.3604249060153961,
                        -0.8093727231025696,
                        0.6759219765663147,
                        -0.45284438133239746,
                        0.7960073351860046,
                        -0.609488308429718,
                        -0.4327888786792755,
                        -0.5040726065635681,
                        -0.013138117268681526,
                        0.21924367547035217,
                        0.7714338302612305,
                        0.7399792075157166,
                        -0.3754633665084839,
                        -0.24110902845859528,
                        0.39790675044059753,
                        0.10659483075141907,
                        0.2565995454788208,
                        -0.299267053604126,
                        -1.2528599500656128,
                        -0.1768031120300293,
                        -0.7440992593765259,
                        -0.4842703938484192,
                        0.3100244998931885,
                        -0.06587383896112442,
                        0.028757242485880852,
                        -0.737311065196991,
                        -0.054651763290166855,
                        -0.9811009168624878,
                        -0.03569091856479645,
                        -0.4478202760219574,
                        -0.8931847214698792,
                        0.5467807054519653,
                        0.24796076118946075,
                        0.4171398878097534,
                        -0.4280436933040619,
                        0.20242436230182648,
                        0.3794816732406616,
                        0.4505093991756439,
                        -0.5863040685653687,
                        -0.31330782175064087,
                        0.014579014852643013,
                        0.1586381494998932,
                        0.3361448645591736,
                        0.4474898874759674,
                        -0.2663418650627136,
                        0.5493925213813782,
                        0.002968831919133663,
                        -0.2138342559337616,
                        -0.2975928485393524,
                        -1.001774787902832,
                        -0.4873092770576477,
                        -0.7752313017845154,
                        -0.3808257579803467,
                        -0.6203485727310181,
                        -0.07614113390445709,
                        -0.5288196802139282,
                        -0.12624265253543854,
                        -0.8694632053375244,
                        -0.273460328578949,
                        -0.011051123961806297,
                        -0.6707732081413269,
                        -0.7464839816093445,
                        -0.3083306849002838,
                        0.15643717348575592
                    ],
                    [
                        0.8329838514328003,
                        -0.019485916942358017,
                        0.08739866316318512,
                        0.06381459534168243,
                        -0.3784596920013428,
                        0.44785287976264954,
                        0.18829265236854553,
                        0.2900286018848419,
                        -0.7240798473358154,
                        -0.3956661522388458,
                        -0.28789055347442627,
                        -0.04165370762348175,
                        -0.1984628140926361,
                        0.31832611560821533,
                        -0.2656155228614807,
                        -0.4863305389881134,
                        0.6301968693733215,
                        0.3274269700050354,
                        0.3722713589668274,
                        -0.1892600804567337,
                        0.5041850805282593,
                        0.22476139664649963,
                        0.33742839097976685,
                        0.27635034918785095,
                        -0.5974195599555969,
                        0.4312985837459564,
                        -0.41496196389198303,
                        0.6215706467628479,
                        0.5319239497184753,
                        0.1932787448167801,
                        0.3284183442592621,
                        0.0004495860484894365,
                        0.7324435710906982,
                        0.06871437281370163,
                        -0.17204907536506653,
                        0.532102644443512,
                        -0.059865739196538925,
                        0.1875157654285431,
                        0.5669383406639099,
                        0.0862567201256752,
                        0.7711965441703796,
                        0.021133452653884888,
                        0.475409597158432,
                        -0.17037266492843628,
                        0.21245071291923523,
                        0.5207316279411316,
                        0.20208819210529327,
                        -0.23849691450595856,
                        0.07700878381729126,
                        0.38235336542129517,
                        0.2167380005121231,
                        0.06368772685527802,
                        0.13234589993953705,
                        0.10272452235221863,
                        -0.14171382784843445,
                        0.17084310948848724,
                        0.029338717460632324,
                        -0.0818190649151802,
                        0.1617448478937149,
                        0.04784027859568596,
                        -0.13168147206306458,
                        0.19960656762123108,
                        -0.18939566612243652,
                        -0.3680337369441986
                    ],
                    [
                        0.25249001383781433,
                        -0.907472550868988,
                        1.0983384847640991,
                        0.009952769614756107,
                        0.966862678527832,
                        -0.36831358075141907,
                        -0.3795378804206848,
                        -0.06897401064634323,
                        -0.20282098650932312,
                        0.8811025619506836,
                        0.46095001697540283,
                        0.6121230125427246,
                        -0.10957179218530655,
                        0.0963871031999588,
                        0.43531227111816406,
                        -0.05395758897066116,
                        -0.01671636290848255,
                        -0.41054922342300415,
                        -0.37361058592796326,
                        0.020995499566197395,
                        -0.6184664964675903,
                        -0.7426785230636597,
                        -0.15431490540504456,
                        -0.03467939794063568,
                        -0.21755096316337585,
                        -0.49437379837036133,
                        -0.32570305466651917,
                        -0.18943709135055542,
                        -0.09489414840936661,
                        0.0010530207073315978,
                        -0.5207582712173462,
                        0.29520314931869507,
                        -0.044397275894880295,
                        -0.3063371181488037,
                        -0.11125075072050095,
                        0.05974167585372925,
                        -0.1611909568309784,
                        1.2235528230667114,
                        -0.0640377476811409,
                        -0.9843657612800598,
                        -0.09711713343858719,
                        -0.13516004383563995,
                        0.08923958986997604,
                        -0.027197297662496567,
                        0.2633931338787079,
                        0.07157623022794724,
                        -0.09899899363517761,
                        0.13569316267967224,
                        -0.011111289262771606,
                        -0.4951047897338867,
                        0.5069434642791748,
                        -0.2832672894001007,
                        0.2363431304693222,
                        -0.2813648581504822,
                        -0.6391253471374512,
                        -0.15941748023033142,
                        0.010208135470747948,
                        0.37938112020492554,
                        -0.2653906047344208,
                        -0.28789982199668884,
                        -0.27175241708755493,
                        0.019666552543640137,
                        -0.19214466214179993,
                        0.2396896481513977
                    ],
                    [
                        -0.20908613502979279,
                        -0.21028177440166473,
                        -0.6387833952903748,
                        -0.10848040878772736,
                        -0.7348355054855347,
                        0.6564022898674011,
                        0.17188411951065063,
                        0.28349727392196655,
                        0.12181053310632706,
                        -0.7937023639678955,
                        -0.46858999133110046,
                        -0.8733041286468506,
                        -0.14387744665145874,
                        0.1427355706691742,
                        -0.12492597103118896,
                        -0.08693569898605347,
                        0.10611247271299362,
                        0.7906588315963745,
                        0.42671722173690796,
                        -0.11288516968488693,
                        1.3583847284317017,
                        0.5026859641075134,
                        0.3277123272418976,
                        0.2452390342950821,
                        0.5542310476303101,
                        1.146677851676941,
                        0.49418899416923523,
                        1.0205813646316528,
                        0.2687378227710724,
                        0.43093574047088623,
                        0.6522981524467468,
                        0.12589499354362488,
                        0.20406289398670197,
                        0.1727050542831421,
                        -0.18255749344825745,
                        -0.46026238799095154,
                        0.07952851802110672,
                        0.20630936324596405,
                        1.6097276210784912,
                        0.3549853265285492,
                        -0.48531195521354675,
                        -0.10921647399663925,
                        0.3732321262359619,
                        0.388203889131546,
                        -0.6950124502182007,
                        0.035901594907045364,
                        0.3609948456287384,
                        0.9682015180587769,
                        -0.2351391762495041,
                        0.0699717178940773,
                        -0.11566725373268127,
                        0.14392957091331482,
                        0.4772092401981354,
                        0.41199225187301636,
                        -0.4610700309276581,
                        0.3249852657318115,
                        -1.2999587059020996,
                        0.029441509395837784,
                        0.3935207426548004,
                        0.09001778066158295,
                        0.13441938161849976,
                        0.4450567960739136,
                        0.33619168400764465,
                        0.211886927485466
                    ],
                    [
                        -0.2654789388179779,
                        -0.5258250832557678,
                        0.2271050214767456,
                        -0.20733825862407684,
                        1.2932153940200806,
                        -0.13580329716205597,
                        0.26091641187667847,
                        -0.1404242366552353,
                        -0.35319480299949646,
                        0.2847414016723633,
                        0.2363394945859909,
                        0.0937536209821701,
                        -0.07791134715080261,
                        -0.538616418838501,
                        -0.19683347642421722,
                        0.02547077089548111,
                        -0.15200236439704895,
                        -0.9331560134887695,
                        -0.2027154415845871,
                        0.3608272075653076,
                        0.4525770843029022,
                        -0.28089654445648193,
                        -0.8205052614212036,
                        -0.11414329707622528,
                        -0.2424580305814743,
                        0.22160059213638306,
                        -0.0020072725601494312,
                        0.01850501075387001,
                        -0.4679655134677887,
                        -0.12080884724855423,
                        0.028449231758713722,
                        -0.3377198278903961,
                        0.7807409167289734,
                        -0.14846287667751312,
                        0.18846642971038818,
                        -0.6755246520042419,
                        -0.32494786381721497,
                        0.00015217086183838546,
                        -0.09367586672306061,
                        0.28273895382881165,
                        0.1956881731748581,
                        -0.17351186275482178,
                        0.3333410918712616,
                        -0.07602478563785553,
                        -0.1796751767396927,
                        -0.1271316409111023,
                        0.5924851894378662,
                        1.1331347227096558,
                        0.4889744818210602,
                        0.15240944921970367,
                        0.017272356897592545,
                        0.03679512441158295,
                        -0.23507124185562134,
                        -0.14597491919994354,
                        0.17758329212665558,
                        0.035434968769550323,
                        -0.19720636308193207,
                        -0.03239734098315239,
                        0.07409728318452835,
                        0.1556922197341919,
                        -0.13775554299354553,
                        -0.23093757033348083,
                        -0.17821523547172546,
                        0.3580225110054016
                    ],
                    [
                        -0.2665562033653259,
                        -0.0879267081618309,
                        0.2685357630252838,
                        0.11666779965162277,
                        0.20827552676200867,
                        0.06601976603269577,
                        0.047332514077425,
                        -0.011304688639938831,
                        -0.20083318650722504,
                        -0.09385830909013748,
                        0.015909872949123383,
                        -0.38314467668533325,
                        -0.03355306759476662,
                        0.0650787353515625,
                        -0.1296212077140808,
                        -0.11335006356239319,
                        -0.5697541236877441,
                        -0.04193861037492752,
                        0.026846792548894882,
                        0.19358547031879425,
                        0.472859263420105,
                        -0.19723598659038544,
                        0.12491565197706223,
                        0.16892655193805695,
                        -0.24985022842884064,
                        0.12179920077323914,
                        -0.2761388123035431,
                        -0.557468056678772,
                        -0.05861256644129753,
                        -0.030567804351449013,
                        0.18559053540229797,
                        0.12634526193141937,
                        -0.1103084534406662,
                        0.0734831690788269,
                        -0.41253870725631714,
                        -0.13243825733661652,
                        0.2014930248260498,
                        -0.5083098411560059,
                        0.2927563786506653,
                        0.1416839361190796,
                        -0.2352772355079651,
                        -0.2139774113893509,
                        -0.650066614151001,
                        0.14557620882987976,
                        -0.11176275461912155,
                        -0.1881234049797058,
                        0.3218384385108948,
                        -0.17809367179870605,
                        0.12080947309732437,
                        0.17693541944026947,
                        -0.2345133274793625,
                        0.08609931170940399,
                        0.1938982903957367,
                        0.1286284327507019,
                        -0.45485344529151917,
                        0.04203994199633598,
                        -0.1937735378742218,
                        0.3076922595500946,
                        0.08408656716346741,
                        -0.06229592114686966,
                        0.02033977583050728,
                        0.13167370855808258,
                        0.17057795822620392,
                        0.021291790530085564
                    ],
                    [
                        0.15310804545879364,
                        -0.3312404155731201,
                        0.26890331506729126,
                        -0.020366869866847992,
                        0.6461328864097595,
                        -0.38291868567466736,
                        0.8596004843711853,
                        0.11873030662536621,
                        -0.1440671980381012,
                        0.3460962474346161,
                        -0.10301858186721802,
                        -0.04803956672549248,
                        0.16559626162052155,
                        -0.4374672770500183,
                        -0.10388249158859253,
                        -0.8026608228683472,
                        0.2927139699459076,
                        -0.287973016500473,
                        -0.35038691759109497,
                        0.2161960005760193,
                        -0.6360855102539062,
                        -0.07649554312229156,
                        0.33991608023643494,
                        -0.15962374210357666,
                        0.2510976493358612,
                        -0.6406267881393433,
                        -0.010532466694712639,
                        -0.04763447120785713,
                        -0.04162837564945221,
                        0.02886860817670822,
                        -0.00924780871719122,
                        -0.6140764951705933,
                        0.5586823225021362,
                        0.1672123670578003,
                        -0.12314296513795853,
                        -0.9874756336212158,
                        0.028458068147301674,
                        0.104852594435215,
                        0.44387000799179077,
                        0.2230128049850464,
                        -0.0879809558391571,
                        0.009640217758715153,
                        -0.29828158020973206,
                        0.07602590322494507,
                        -0.13349521160125732,
                        0.42127835750579834,
                        -0.1894787847995758,
                        0.9132022857666016,
                        0.4499374330043793,
                        0.5091711282730103,
                        -0.13898350298404694,
                        0.05081901326775551,
                        -0.16776807606220245,
                        -0.08635808527469635,
                        -0.35333263874053955,
                        0.10119590163230896,
                        -0.060152627527713776,
                        0.34901973605155945,
                        0.0689719170331955,
                        0.055580075830221176,
                        0.25554147362709045,
                        -0.09835223853588104,
                        0.07481317222118378,
                        -0.33949387073516846
                    ]
                ],
                [
                    -0.41785797476768494,
                    0.3210705518722534,
                    -1.2840863466262817,
                    -0.8160406351089478,
                    -2.0070762634277344,
                    0.6695793867111206,
                    1.0373343229293823,
                    0.23186363279819489,
                    0.8444504737854004,
                    -1.884575605392456,
                    -1.913287878036499,
                    -1.5967730283737183,
                    0.19961164891719818,
                    -0.700228214263916,
                    -3.587912082672119,
                    0.09533563256263733,
                    1.2467999458312988,
                    -0.6724860072135925,
                    1.5660570859909058,
                    1.2571660280227661,
                    3.062328338623047,
                    -0.2159128338098526,
                    -0.35789018869400024,
                    0.1470620036125183,
                    0.7745887637138367,
                    2.5924177169799805,
                    2.727492332458496,
                    2.9629764556884766,
                    0.49334681034088135,
                    -0.14734452962875366,
                    3.736647605895996,
                    0.3705507516860962,
                    0.5064985156059265,
                    -0.3566795289516449,
                    -0.6556261777877808,
                    -0.054952315986156464,
                    0.21037611365318298,
                    1.0324485301971436,
                    -0.04019806161522865,
                    -0.595963180065155,
                    -1.0043212175369263,
                    -0.3857531249523163,
                    0.1462235003709793,
                    -0.38982489705085754,
                    0.2701972424983978,
                    0.2987750470638275,
                    -0.09926404058933258,
                    -0.3194734454154968,
                    0.7619482278823853,
                    0.8812524080276489,
                    0.9499225616455078,
                    0.5477059483528137,
                    0.23642495274543762,
                    1.8383052349090576,
                    0.5423533916473389,
                    0.9705609083175659,
                    0.6172723770141602,
                    0.11219470202922821,
                    0.3955174386501312,
                    -0.4499667286872864,
                    1.1183593273162842,
                    0.052711792290210724,
                    -0.03591756895184517,
                    0.33507275581359863
                ]
            ]
        },
        {
            "type": "dense",
            "activation": "",
            "shape": [
                null,
                null,
                1
            ],
            "weights": [
                [
                    [
                        -1.304060459136963
                    ],
                    [
                        0.05852671340107918
                    ],
                    [
                        -0.02783096395432949
                    ],
                    [
                        -0.5294539928436279
                    ],
                    [
                        0.25724470615386963
                    ],
                    [
                        -0.006340710446238518
                    ],
                    [
                        -0.14662492275238037
                    ],
                    [
                        -0.6126962900161743
                    ],
                    [
                        -1.860107421875
                    ],
                    [
                        0.015904799103736877
                    ],
                    [
                        0.17691855132579803
                    ],
                    [
                        0.09505803138017654
                    ],
                    [
                        -0.49776026606559753
                    ],
                    [
                        -0.4005914330482483
                    ],
                    [
                        0.5387020707130432
                    ],
                    [
                        0.22280684113502502
                    ]
                ],
                [
                    0.1205902025103569
                ]
            ]
        }
    ],
    "samplerate": 48000.0,
    "author": "AIDA DSP",
    "esr": 0.04781506583094597
}
