{
    "in_shape": [
        null,
        null,
        1
    ],
    "out_gain": -2,
    "layers": [
        {
            "type": "lstm",
            "activation": "",
            "shape": [
                null,
                null,
                12
            ],
            "weights": [
                [
                    [
                        -0.08446116000413895,
                        0.24027493596076965,
                        0.4176948666572571,
                        0.018063653260469437,
                        -0.2348940074443817,
                        0.0051226066425442696,
                        -0.13570748269557953,
                        0.007852059789001942,
                        -0.10447965562343597,
                        -0.10453815013170242,
                        -0.08504900336265564,
                        -0.00996240135282278,
                        0.1147368848323822,
                        0.19739046692848206,
                        0.18340964615345,
                        -0.12098293006420135,
                        -0.0703396201133728,
                        0.19304561614990234,
                        -0.02404949627816677,
                        0.044198740273714066,
                        -0.2527441084384918,
                        -0.17631220817565918,
                        0.034688740968704224,
                        -0.04523705691099167,
                        0.02945442870259285,
                        -0.6471201181411743,
                        -0.17383655905723572,
                        0.20381975173950195,
                        -0.06527354568243027,
                        0.5568243265151978,
                        0.1948208212852478,
                        -0.2796868681907654,
                        -0.0063193608075380325,
                        -0.029841367155313492,
                        -0.306089848279953,
                        -0.1428903341293335,
                        0.03772952780127525,
                        -0.04259595274925232,
                        0.06680280715227127,
                        -0.09307030588388443,
                        -0.09723275899887085,
                        -0.18579629063606262,
                        -0.08861059695482254,
                        -0.4308675229549408,
                        0.2943809926509857,
                        -0.31953248381614685,
                        0.8988112807273865,
                        0.09270718693733215
                    ]
                ],
                [
                    [
                        -0.21188543736934662,
                        -0.09000903367996216,
                        -0.03692299872636795,
                        -0.1280851513147354,
                        -0.011339761316776276,
                        -0.09050604701042175,
                        0.005682953167706728,
                        0.006652441807091236,
                        -0.16486841440200806,
                        0.0033070247154682875,
                        -0.12150375545024872,
                        0.03530467674136162,
                        0.06301715224981308,
                        -0.05637775734066963,
                        0.032200947403907776,
                        0.41659700870513916,
                        0.03651588410139084,
                        0.07344623655080795,
                        0.022177133709192276,
                        -0.16302594542503357,
                        -0.14746679365634918,
                        0.039264220744371414,
                        -0.0679435282945633,
                        0.050696805119514465,
                        0.687995970249176,
                        0.15517565608024597,
                        -0.12394721806049347,
                        0.12311016768217087,
                        -0.2742317020893097,
                        -0.2822932302951813,
                        -0.2543496787548065,
                        0.21536186337471008,
                        -0.4527425169944763,
                        0.03214501962065697,
                        0.26631444692611694,
                        0.4812605082988739,
                        -0.19658596813678741,
                        -0.15687081217765808,
                        0.0058104051277041435,
                        0.03013109229505062,
                        -0.008382918313145638,
                        -0.06090379133820534,
                        0.009043252095580101,
                        0.19475187361240387,
                        -0.01560988463461399,
                        0.05461416020989418,
                        -0.026709802448749542,
                        0.03306036442518234
                    ],
                    [
                        0.24424847960472107,
                        0.022479478269815445,
                        0.414757639169693,
                        0.36145681142807007,
                        -0.17920979857444763,
                        0.37977874279022217,
                        -0.10152237117290497,
                        -0.3350735008716583,
                        0.27940869331359863,
                        -0.0453127920627594,
                        0.2826617956161499,
                        -0.3061975836753845,
                        -0.21934860944747925,
                        -0.03378959372639656,
                        -0.1509743481874466,
                        -0.2794692814350128,
                        -0.062218524515628815,
                        -0.32329949736595154,
                        -0.06497649848461151,
                        -0.3585432767868042,
                        -0.34144747257232666,
                        -0.005390079692006111,
                        -0.17053115367889404,
                        -0.17507508397102356,
                        0.14501024782657623,
                        0.14708715677261353,
                        -0.5439471006393433,
                        0.18009281158447266,
                        0.03764304891228676,
                        0.44363933801651,
                        0.24387918412685394,
                        0.037477049976587296,
                        -0.2965044379234314,
                        -0.26176032423973083,
                        0.4468238353729248,
                        -0.2820465862751007,
                        0.018036946654319763,
                        -0.3040855824947357,
                        0.13752946257591248,
                        -0.10479385405778885,
                        -0.19255498051643372,
                        -0.19172051548957825,
                        -0.10490014404058456,
                        -0.6599680185317993,
                        -0.17751875519752502,
                        -0.14913490414619446,
                        0.9079403281211853,
                        -0.7829350829124451
                    ],
                    [
                        0.044389646500349045,
                        -0.13233515620231628,
                        0.024629920721054077,
                        0.11872357875108719,
                        -0.050259772688150406,
                        -0.05169472470879555,
                        -0.09759058058261871,
                        -0.03681061789393425,
                        0.06179172173142433,
                        0.03394370526075363,
                        -0.05539656803011894,
                        -0.017258545383810997,
                        -0.07032310217618942,
                        -0.043202925473451614,
                        -0.0024839448742568493,
                        -0.06951084733009338,
                        0.1720440536737442,
                        0.21703901886940002,
                        0.0909469798207283,
                        0.2207634001970291,
                        0.08531702309846878,
                        0.12935775518417358,
                        -0.18242987990379333,
                        0.09182137995958328,
                        0.23507118225097656,
                        -0.017490467056632042,
                        0.6444408297538757,
                        -0.06499698758125305,
                        0.0431976355612278,
                        -0.24877050518989563,
                        -0.03231196850538254,
                        0.19405503571033478,
                        -0.12666724622249603,
                        0.10865350812673569,
                        0.04521498456597328,
                        -0.2557261884212494,
                        0.10629455745220184,
                        -0.10124564170837402,
                        0.04488140717148781,
                        -0.5133646726608276,
                        -0.051950108259916306,
                        -0.08627704530954361,
                        -0.08364222198724747,
                        0.03696694225072861,
                        0.03915669023990631,
                        0.07876890897750854,
                        -0.04143156856298447,
                        0.08778794854879379
                    ],
                    [
                        0.0022026430815458298,
                        -0.20460247993469238,
                        0.05709713697433472,
                        -0.0832049772143364,
                        -0.0784715786576271,
                        -0.17148908972740173,
                        -0.02446901611983776,
                        -0.012109900824725628,
                        -0.22733594477176666,
                        -0.014717957936227322,
                        0.024104466661810875,
                        -0.004711681976914406,
                        0.11271955817937851,
                        -0.3232421875,
                        0.2298358976840973,
                        0.4342109262943268,
                        -0.23010525107383728,
                        -0.11030679941177368,
                        -0.07205130159854889,
                        -0.27765530347824097,
                        -0.13794268667697906,
                        0.04626782611012459,
                        0.28472307324409485,
                        -0.15319669246673584,
                        0.032437656074762344,
                        0.3330654203891754,
                        -0.06693501770496368,
                        0.4999338984489441,
                        -0.07846218347549438,
                        -0.991400957107544,
                        -0.00872346106916666,
                        0.04088616371154785,
                        -0.3413741886615753,
                        -0.026622768491506577,
                        0.36467570066452026,
                        0.210122212767601,
                        0.18486742675304413,
                        -0.18863461911678314,
                        0.0803692489862442,
                        0.10248560458421707,
                        -0.068185955286026,
                        -0.08812885731458664,
                        -0.01071535237133503,
                        0.0672394186258316,
                        -0.051878202706575394,
                        -0.04888364300131798,
                        -0.20547860860824585,
                        -0.19014067947864532
                    ],
                    [
                        0.012740306556224823,
                        -0.051262546330690384,
                        -0.026081567630171776,
                        0.2773171067237854,
                        0.01759234443306923,
                        -0.057849202305078506,
                        0.05992608144879341,
                        0.07580944895744324,
                        -0.21240082383155823,
                        -0.17151445150375366,
                        -0.04293719306588173,
                        0.06898130476474762,
                        -0.04347548261284828,
                        0.1444416046142578,
                        -0.06453035771846771,
                        0.09411405771970749,
                        0.13175784051418304,
                        -0.08644740283489227,
                        0.003129765158519149,
                        0.2119709551334381,
                        -0.03244650363922119,
                        -0.7150679230690002,
                        0.4239596426486969,
                        0.38406267762184143,
                        -0.3327254354953766,
                        0.07328738272190094,
                        0.29731592535972595,
                        -0.027883067727088928,
                        0.026989050209522247,
                        -0.0782802477478981,
                        -0.8296691179275513,
                        0.19002999365329742,
                        0.48006850481033325,
                        -0.6569128632545471,
                        0.5277160406112671,
                        0.8300889134407043,
                        0.11183077841997147,
                        0.3405470550060272,
                        0.004662394057959318,
                        -0.008984353393316269,
                        0.011235740035772324,
                        0.10521107912063599,
                        -0.024170277640223503,
                        0.021520797163248062,
                        -0.167079895734787,
                        -0.9482139348983765,
                        1.275094747543335,
                        0.19456209242343903
                    ],
                    [
                        0.04584387689828873,
                        -0.2275773584842682,
                        0.004329785704612732,
                        0.09524666517972946,
                        0.005536440759897232,
                        0.16238462924957275,
                        0.05966740846633911,
                        0.07891252636909485,
                        0.15719105303287506,
                        0.13313868641853333,
                        0.17574374377727509,
                        0.0032362535130232573,
                        0.034119103103876114,
                        -0.43832919001579285,
                        -0.06988248974084854,
                        -0.06541040539741516,
                        0.04548255354166031,
                        0.11735335737466812,
                        0.05481505021452904,
                        0.10581084340810776,
                        -0.07619515061378479,
                        0.2203105390071869,
                        0.21067728102207184,
                        -0.18871545791625977,
                        0.10990989208221436,
                        0.1717127114534378,
                        0.08073209971189499,
                        -0.011438336223363876,
                        0.3521451950073242,
                        0.26396632194519043,
                        -0.7347992658615112,
                        0.0755186602473259,
                        0.4606410264968872,
                        0.23002612590789795,
                        -0.18548700213432312,
                        -0.12043531984090805,
                        -0.06536471843719482,
                        -0.06987960636615753,
                        -0.13046622276306152,
                        0.13743120431900024,
                        0.021183717995882034,
                        0.2920485734939575,
                        0.05225807800889015,
                        -0.13796599209308624,
                        0.0636339858174324,
                        -0.08131328970193863,
                        -0.6710672974586487,
                        -0.07639176398515701
                    ],
                    [
                        0.02593163028359413,
                        -0.1371404081583023,
                        -0.19937960803508759,
                        0.30995863676071167,
                        0.03197305649518967,
                        0.06814544647932053,
                        -0.10388980060815811,
                        -0.1092655286192894,
                        -0.5871052145957947,
                        -0.11681733280420303,
                        0.065222829580307,
                        -0.035020291805267334,
                        -0.20951010286808014,
                        -0.2622344493865967,
                        -0.1356520801782608,
                        -0.7855986952781677,
                        -0.15037432312965393,
                        -0.11879104375839233,
                        -0.14312179386615753,
                        0.318790465593338,
                        -0.22614794969558716,
                        -0.20667050778865814,
                        -0.16132120788097382,
                        -9.899355791276321e-05,
                        -0.5008885860443115,
                        0.5271158814430237,
                        0.1538299024105072,
                        0.002574912505224347,
                        -0.06782838702201843,
                        0.6206678152084351,
                        -0.017588604241609573,
                        1.5493664741516113,
                        -0.749356746673584,
                        -1.0517578125,
                        -0.20059435069561005,
                        0.7599804401397705,
                        -0.0014666815986856818,
                        0.13221852481365204,
                        -0.1358700394630432,
                        -0.09417770802974701,
                        -0.043608784675598145,
                        0.2708697021007538,
                        -0.19621525704860687,
                        0.1063327044248581,
                        0.05695798620581627,
                        -0.6886821389198303,
                        -0.3556098937988281,
                        0.3779522180557251
                    ],
                    [
                        -0.9362028241157532,
                        0.02347540855407715,
                        -0.1567191183567047,
                        -0.5380607843399048,
                        0.09184041619300842,
                        -0.12592674791812897,
                        0.04380098730325699,
                        0.18836843967437744,
                        -0.3720265328884125,
                        0.3884226977825165,
                        0.17742443084716797,
                        0.3658889830112457,
                        1.308219313621521,
                        0.15442495048046112,
                        0.8374696373939514,
                        0.6816972494125366,
                        0.16826534271240234,
                        0.2662864327430725,
                        0.1908137947320938,
                        0.5429787039756775,
                        0.41434139013290405,
                        0.6901023983955383,
                        0.39665958285331726,
                        -0.05825066938996315,
                        0.12142777442932129,
                        -0.17382383346557617,
                        -0.24218320846557617,
                        0.09753292798995972,
                        -0.23223094642162323,
                        -0.11125434935092926,
                        -0.39401867985725403,
                        0.11749198287725449,
                        -0.27753719687461853,
                        -0.3450274169445038,
                        -0.04342823848128319,
                        -1.419844388961792,
                        0.16580909490585327,
                        0.03981494531035423,
                        -0.27182310819625854,
                        0.02930063009262085,
                        0.15450222790241241,
                        0.32031118869781494,
                        0.21009130775928497,
                        0.20273201167583466,
                        0.211682990193367,
                        0.9613264799118042,
                        -0.16825400292873383,
                        1.6146739721298218
                    ],
                    [
                        0.06593816727399826,
                        -0.022425901144742966,
                        0.14737080037593842,
                        0.1571086198091507,
                        0.1372765749692917,
                        -0.19095443189144135,
                        -0.07019028067588806,
                        0.18356600403785706,
                        0.5623741745948792,
                        -0.06299275904893875,
                        -0.08071251213550568,
                        -0.0643334612250328,
                        -0.06947415322065353,
                        -0.18828114867210388,
                        -0.01666994020342827,
                        0.018115689978003502,
                        -0.16034942865371704,
                        -0.05829881876707077,
                        0.058343518525362015,
                        0.49063223600387573,
                        0.07219704985618591,
                        -0.2248717099428177,
                        -0.11701508611440659,
                        -0.674843966960907,
                        -0.16418413817882538,
                        0.6330462694168091,
                        0.19960926473140717,
                        0.15556155145168304,
                        0.12770181894302368,
                        -0.13841432332992554,
                        0.9796481728553772,
                        1.0653146505355835,
                        0.5521990060806274,
                        -1.0943135023117065,
                        0.12721781432628632,
                        -0.30537769198417664,
                        -0.021019363775849342,
                        -0.03544992953538895,
                        0.0352405309677124,
                        0.2147781252861023,
                        0.10718949884176254,
                        0.0364505760371685,
                        -0.07550230622291565,
                        -0.5129705667495728,
                        0.2813304662704468,
                        -0.2420288324356079,
                        -0.2510163187980652,
                        0.02800431102514267
                    ],
                    [
                        -0.5871216654777527,
                        0.03773113712668419,
                        -0.330982506275177,
                        -0.6735877990722656,
                        0.2840271592140198,
                        0.03966310992836952,
                        0.040107663720846176,
                        0.20599398016929626,
                        -0.5748980641365051,
                        0.21213415265083313,
                        0.2224140167236328,
                        0.6443491578102112,
                        0.9459975361824036,
                        0.15458154678344727,
                        0.8168543577194214,
                        0.5033263564109802,
                        0.29307490587234497,
                        0.3489395081996918,
                        -0.11301106959581375,
                        -0.26964256167411804,
                        0.5361330509185791,
                        0.07238601893186569,
                        0.48764774203300476,
                        0.9550043344497681,
                        -0.17209067940711975,
                        -0.01682230643928051,
                        0.12032152712345123,
                        0.11675745993852615,
                        0.5817660093307495,
                        0.2310952991247177,
                        0.9640653133392334,
                        -0.6144594550132751,
                        0.23274607956409454,
                        -0.20470793545246124,
                        -0.01690576784312725,
                        -0.10654992610216141,
                        0.1673090010881424,
                        0.14554648101329803,
                        -0.17610085010528564,
                        -0.023778429254889488,
                        0.3552461564540863,
                        0.3688029944896698,
                        0.13809102773666382,
                        1.508776307106018,
                        0.15490062534809113,
                        0.16680867969989777,
                        0.44498732686042786,
                        -0.1410033255815506
                    ],
                    [
                        -0.725353479385376,
                        0.20059426128864288,
                        -0.4121951460838318,
                        -0.595442533493042,
                        0.39816024899482727,
                        -0.14245916903018951,
                        0.3636953830718994,
                        0.3634335994720459,
                        -0.09713862091302872,
                        0.19726772606372833,
                        0.10927630960941315,
                        0.4100630283355713,
                        0.7044264078140259,
                        0.2321159541606903,
                        0.5502915382385254,
                        0.6120402812957764,
                        0.027182087302207947,
                        0.264739453792572,
                        0.06588373333215714,
                        -0.055297911167144775,
                        0.22498725354671478,
                        0.054777469485998154,
                        0.23898161947727203,
                        -0.05896817147731781,
                        -0.2172926813364029,
                        -0.05001905933022499,
                        -0.23591163754463196,
                        -0.12214375287294388,
                        -1.867290735244751,
                        0.04211968556046486,
                        -0.16366009414196014,
                        0.037970878183841705,
                        0.03395749628543854,
                        0.24853134155273438,
                        -0.08209336549043655,
                        0.06308182328939438,
                        -0.07936958968639374,
                        0.5704794526100159,
                        -0.13492774963378906,
                        -0.02824077196419239,
                        0.4116927981376648,
                        0.0750022679567337,
                        0.3863697946071625,
                        0.2998145520687103,
                        0.2778119742870331,
                        -0.37163811922073364,
                        0.5875284671783447,
                        -0.22216244041919708
                    ],
                    [
                        -0.44759106636047363,
                        -0.13095669448375702,
                        -0.105489082634449,
                        -0.17667452991008759,
                        0.04942730814218521,
                        -0.039061225950717926,
                        -0.016380056738853455,
                        0.05856749042868614,
                        -0.1513514518737793,
                        0.0713546872138977,
                        -0.03631749004125595,
                        0.3583768904209137,
                        0.03840554505586624,
                        0.3452456593513489,
                        0.09586603939533234,
                        0.04913327097892761,
                        -0.03849588334560394,
                        0.13966023921966553,
                        0.1623900979757309,
                        0.7007555961608887,
                        0.28989046812057495,
                        -0.33516374230384827,
                        0.2530215084552765,
                        0.3385661542415619,
                        -0.7333022952079773,
                        0.16067536175251007,
                        -0.10220210254192352,
                        0.13545697927474976,
                        -0.13619975745677948,
                        0.04977528750896454,
                        -0.2065475583076477,
                        0.31583523750305176,
                        -0.007556715048849583,
                        -0.08952751010656357,
                        -0.08434101194143295,
                        -0.197066530585289,
                        0.21307101845741272,
                        -0.7441020607948303,
                        0.1535864919424057,
                        0.1879856139421463,
                        0.11630605906248093,
                        0.042616166174411774,
                        0.05871051177382469,
                        0.6680612564086914,
                        0.137769877910614,
                        0.7932443618774414,
                        -0.2093651443719864,
                        -0.7850574254989624
                    ]
                ],
                [
                    -2.4154582023620605,
                    0.22778558731079102,
                    -0.7891144752502441,
                    -1.3099005222320557,
                    1.4747817516326904,
                    -0.45924675464630127,
                    1.5686306953430176,
                    1.7184746265411377,
                    0.2605109214782715,
                    0.9625830054283142,
                    0.34573525190353394,
                    1.7225971221923828,
                    3.3187971115112305,
                    0.34652483463287354,
                    1.3467299938201904,
                    2.1734795570373535,
                    -0.17153117060661316,
                    1.0458256006240845,
                    -0.3765369653701782,
                    0.7678663730621338,
                    1.0109264850616455,
                    0.3021273612976074,
                    0.8302522897720337,
                    -0.5076333284378052,
                    0.10627397894859314,
                    -0.09865853190422058,
                    0.015424855053424835,
                    0.02249842882156372,
                    0.7088333368301392,
                    0.15778854489326477,
                    -0.19759206473827362,
                    0.6719571948051453,
                    -0.179325133562088,
                    0.3251725733280182,
                    0.614697277545929,
                    0.632588267326355,
                    -0.03825347125530243,
                    0.313015341758728,
                    0.019080180674791336,
                    0.1863648146390915,
                    1.5048191547393799,
                    0.21450656652450562,
                    1.7119724750518799,
                    0.7074918746948242,
                    1.2528958320617676,
                    0.5020568370819092,
                    0.16625966131687164,
                    0.32006701827049255
                ]
            ]
        },
        {
            "type": "dense",
            "activation": "",
            "shape": [
                null,
                null,
                1
            ],
            "weights": [
                [
                    [
                        -0.008032886311411858
                    ],
                    [
                        -0.11128965020179749
                    ],
                    [
                        -0.28011706471443176
                    ],
                    [
                        -0.10709727555513382
                    ],
                    [
                        0.14537516236305237
                    ],
                    [
                        -0.20492103695869446
                    ],
                    [
                        0.27069225907325745
                    ],
                    [
                        -0.0365230068564415
                    ],
                    [
                        0.15240228176116943
                    ],
                    [
                        0.15969392657279968
                    ],
                    [
                        0.13901574909687042
                    ],
                    [
                        1.0454456806182861
                    ]
                ],
                [
                    -0.10726698487997055
                ]
            ]
        }
    ],
    "samplerate": 48000.0,
    "author": "AIDA DSP",
    "esr": 0.007357796188443899
}
