{
    "in_shape": [
        null,
        null,
        1
    ],
    "out_gain": -1.2,
    "layers": [
        {
            "type": "lstm",
            "activation": "",
            "shape": [
                null,
                null,
                12
            ],
            "weights": [
                [
                    [
                        -0.03379059582948685,
                        0.1517903357744217,
                        -0.22793281078338623,
                        -0.2845882177352905,
                        -0.00529493996873498,
                        -0.07171400636434555,
                        -0.010808004066348076,
                        0.0321914479136467,
                        -0.23217584192752838,
                        -0.15621910989284515,
                        -0.0020152064971625805,
                        -0.007865901105105877,
                        -0.12759225070476532,
                        -0.11650947481393814,
                        0.07352150976657867,
                        0.0931563675403595,
                        0.03449833765625954,
                        0.11607162654399872,
                        -0.222963348031044,
                        -0.1889687329530716,
                        0.31672927737236023,
                        0.23996727168560028,
                        0.2828085422515869,
                        -0.10056172311306,
                        0.06235715001821518,
                        -0.029402250424027443,
                        -0.0884149968624115,
                        -0.34757375717163086,
                        0.22938907146453857,
                        0.5434792637825012,
                        -0.41100916266441345,
                        -0.38674139976501465,
                        -0.08604148775339127,
                        0.15786820650100708,
                        -0.8271702527999878,
                        -1.25142502784729,
                        -0.08328460901975632,
                        0.5459492802619934,
                        0.18635781109333038,
                        0.3971714675426483,
                        0.013023647479712963,
                        0.37149250507354736,
                        0.012126833200454712,
                        0.07540474086999893,
                        0.41290831565856934,
                        -0.11311174929141998,
                        0.45585206151008606,
                        0.06440367549657822
                    ]
                ],
                [
                    [
                        0.018531344830989838,
                        -0.11932270228862762,
                        -0.09222238510847092,
                        0.16080795228481293,
                        0.21291950345039368,
                        0.019928637892007828,
                        -0.10737626999616623,
                        0.13288146257400513,
                        -0.3910694122314453,
                        0.12650436162948608,
                        0.11609150469303131,
                        -0.09365790337324142,
                        0.694370448589325,
                        0.04560575261712074,
                        0.1534232646226883,
                        0.42329156398773193,
                        0.10343876481056213,
                        -0.10631176084280014,
                        -0.3116329312324524,
                        -0.0652068480849266,
                        0.29714351892471313,
                        0.9460004568099976,
                        0.0017671545501798391,
                        -0.4619987905025482,
                        0.09895000606775284,
                        -0.09330794960260391,
                        -0.6042416095733643,
                        0.17657119035720825,
                        -0.1514955461025238,
                        0.43069514632225037,
                        -0.21957455575466156,
                        0.354013592004776,
                        -0.13548369705677032,
                        0.4235067069530487,
                        0.1614600569009781,
                        -0.565528929233551,
                        0.6016443371772766,
                        -0.16682827472686768,
                        -0.03500889614224434,
                        0.35724642872810364,
                        0.08162809163331985,
                        -0.05282687768340111,
                        -0.0026522555854171515,
                        -0.3019348382949829,
                        0.3870480954647064,
                        0.6231688857078552,
                        0.09923715144395828,
                        -0.04856811836361885
                    ],
                    [
                        -0.3016347289085388,
                        0.1727447211742401,
                        0.047549642622470856,
                        -0.7622654438018799,
                        -0.08992922306060791,
                        -0.08149437606334686,
                        0.16773457825183868,
                        0.20767055451869965,
                        -0.3120831549167633,
                        -0.586637020111084,
                        0.0039156037382781506,
                        0.2744048535823822,
                        0.49027565121650696,
                        0.001442419714294374,
                        0.2811885178089142,
                        0.48714977502822876,
                        0.25040778517723083,
                        0.3474142849445343,
                        -0.11483099311590195,
                        0.8037967085838318,
                        0.757001519203186,
                        0.20734535157680511,
                        -0.362657368183136,
                        0.03148028254508972,
                        0.21581441164016724,
                        0.33976173400878906,
                        0.1982603371143341,
                        -0.3291791081428528,
                        0.05861944332718849,
                        0.1252601593732834,
                        -0.6095514297485352,
                        0.8591337203979492,
                        0.2550951838493347,
                        0.11187311261892319,
                        0.17393392324447632,
                        -0.08413137495517731,
                        0.24692751467227936,
                        0.319079726934433,
                        0.2625996768474579,
                        -0.002499238820746541,
                        0.13612869381904602,
                        -0.25030919909477234,
                        0.20278359949588776,
                        -1.5128926038742065,
                        0.08928659558296204,
                        -0.13005134463310242,
                        0.28533998131752014,
                        0.21381820738315582
                    ],
                    [
                        -0.5193446278572083,
                        -0.09901189804077148,
                        -0.2139420360326767,
                        -0.6666198968887329,
                        0.001690446399152279,
                        -0.20675641298294067,
                        0.4022900462150574,
                        0.30995243787765503,
                        -0.3918653428554535,
                        -0.29960423707962036,
                        0.016609197482466698,
                        0.2843629717826843,
                        0.09370611608028412,
                        0.8027464151382446,
                        -0.21967042982578278,
                        0.9887476563453674,
                        0.41704386472702026,
                        0.5820643901824951,
                        -0.10322254151105881,
                        0.7350372672080994,
                        0.7217510342597961,
                        0.6669796705245972,
                        -0.04547290503978729,
                        -0.16406311094760895,
                        -0.02849368192255497,
                        0.49222779273986816,
                        0.2485933005809784,
                        0.2935691773891449,
                        -0.3257637619972229,
                        -0.2715073823928833,
                        -0.5176800489425659,
                        0.3267684876918793,
                        -0.07484748959541321,
                        -0.08300293982028961,
                        0.009808683767914772,
                        0.1664300113916397,
                        -0.12316334992647171,
                        0.3409505784511566,
                        0.1974562108516693,
                        0.2731155455112457,
                        0.18720608949661255,
                        0.2108384072780609,
                        0.4425280690193176,
                        -0.46461132168769836,
                        0.17645946145057678,
                        -0.08507824689149857,
                        0.3944380283355713,
                        0.3122917115688324
                    ],
                    [
                        -0.5366998910903931,
                        0.1794285923242569,
                        0.07298526167869568,
                        -0.012780595570802689,
                        -0.04087257757782936,
                        -0.30685141682624817,
                        0.15627653896808624,
                        0.30851998925209045,
                        -0.5192347764968872,
                        -0.5007174611091614,
                        0.20592661201953888,
                        0.1860247105360031,
                        0.17078213393688202,
                        0.087272509932518,
                        0.17974212765693665,
                        0.48851844668388367,
                        -0.017776988446712494,
                        -0.0774434357881546,
                        0.2824387848377228,
                        0.10124501585960388,
                        0.38613957166671753,
                        0.15848557651042938,
                        0.021731842309236526,
                        0.2798679769039154,
                        -0.25535815954208374,
                        -0.01844291388988495,
                        0.23210597038269043,
                        0.13217076659202576,
                        0.0126083604991436,
                        0.3010237216949463,
                        -0.7265805602073669,
                        -0.006332861725240946,
                        -0.09018940478563309,
                        -0.03526199981570244,
                        -0.2264499068260193,
                        -1.4662413597106934,
                        0.07510454952716827,
                        0.18159838020801544,
                        0.12876228988170624,
                        0.4241100549697876,
                        0.03681739792227745,
                        0.18431442975997925,
                        0.20390893518924713,
                        -0.0207108985632658,
                        -0.027845963835716248,
                        -0.0014046921860426664,
                        0.029271049425005913,
                        0.18399062752723694
                    ],
                    [
                        0.12175111472606659,
                        -0.13292178511619568,
                        -0.030344050377607346,
                        -0.5250797867774963,
                        -0.3449433445930481,
                        -0.6501891613006592,
                        -0.23805668950080872,
                        -0.1273857206106186,
                        -0.46067750453948975,
                        0.0522826723754406,
                        -0.011675333604216576,
                        0.06644422560930252,
                        -0.3504103124141693,
                        -0.1149669662117958,
                        -0.0458754226565361,
                        0.4904598295688629,
                        -0.08118026703596115,
                        -0.4283103048801422,
                        0.7365255951881409,
                        0.1588975042104721,
                        -0.18976731598377228,
                        0.30187028646469116,
                        0.004058984573930502,
                        0.09812185168266296,
                        0.01340883132070303,
                        -0.7073789834976196,
                        -0.06024030223488808,
                        0.034937504678964615,
                        0.4224887192249298,
                        0.20301686227321625,
                        0.8445575833320618,
                        0.05133674293756485,
                        0.3409023582935333,
                        -0.18613684177398682,
                        -0.25681278109550476,
                        -0.03831641003489494,
                        0.06415197998285294,
                        0.022613773122429848,
                        -0.011249457485973835,
                        -0.0561780110001564,
                        -0.2591204047203064,
                        -0.20076905190944672,
                        -0.1293017864227295,
                        -1.1248855590820312,
                        -0.17170554399490356,
                        0.2141287475824356,
                        -0.00862093549221754,
                        0.06445200741291046
                    ],
                    [
                        0.27452552318573,
                        -0.1207428127527237,
                        0.24494668841362,
                        0.8615537285804749,
                        0.09950882941484451,
                        -0.30810919404029846,
                        -0.00422705477103591,
                        -0.42892327904701233,
                        0.680989146232605,
                        0.6902939081192017,
                        -0.08974765986204147,
                        -0.40121176838874817,
                        -0.8823745250701904,
                        -0.04819723218679428,
                        -0.14837519824504852,
                        -0.5974328517913818,
                        -0.5674625039100647,
                        -0.46684882044792175,
                        0.5170313119888306,
                        -1.0942087173461914,
                        -0.8457885980606079,
                        -0.3380892276763916,
                        -0.07227262109518051,
                        -0.13360407948493958,
                        -0.09217174351215363,
                        -0.16252204775810242,
                        0.296212762594223,
                        0.20139408111572266,
                        -0.41487815976142883,
                        0.14483942091464996,
                        0.5559232831001282,
                        -0.3631899654865265,
                        0.16347736120224,
                        -0.21502821147441864,
                        0.26978424191474915,
                        -0.0006097760051488876,
                        -0.4591524302959442,
                        -0.3168959617614746,
                        0.04993954673409462,
                        -0.6756299138069153,
                        -0.2511492967605591,
                        -0.812832772731781,
                        -0.2046246975660324,
                        -0.6299126148223877,
                        0.18271313607692719,
                        -0.13421911001205444,
                        0.07342833280563354,
                        -0.34853020310401917
                    ],
                    [
                        -0.539097011089325,
                        -0.5116356611251831,
                        0.046201832592487335,
                        -0.6271152496337891,
                        0.685482919216156,
                        -0.2849886417388916,
                        0.1904296576976776,
                        -0.1569078415632248,
                        -0.5744141936302185,
                        -0.6490281224250793,
                        -0.3444053828716278,
                        0.05383620783686638,
                        0.277840256690979,
                        0.5995417237281799,
                        0.7806249856948853,
                        0.8150742053985596,
                        1.0973135232925415,
                        0.280159056186676,
                        0.5895910859107971,
                        -1.3934167623519897,
                        0.43566349148750305,
                        0.25821614265441895,
                        0.2712450623512268,
                        0.08311335742473602,
                        -0.06556635349988937,
                        0.15594236552715302,
                        0.24249283969402313,
                        -0.1991758495569229,
                        -0.6604694128036499,
                        -0.24868839979171753,
                        0.21283750236034393,
                        -2.041501760482788,
                        -0.30913248658180237,
                        -0.046979840844869614,
                        0.18935222923755646,
                        0.09509488940238953,
                        0.11009643226861954,
                        -0.31557831168174744,
                        0.4447050392627716,
                        0.2800031304359436,
                        0.2207949012517929,
                        0.4428786635398865,
                        0.3910999596118927,
                        -0.7952106595039368,
                        0.2791941165924072,
                        0.27575552463531494,
                        -0.02849975787103176,
                        0.22919417917728424
                    ],
                    [
                        -0.29282087087631226,
                        0.5103850364685059,
                        -0.040272217243909836,
                        -0.13063351809978485,
                        -0.328182190656662,
                        -0.060731127858161926,
                        -0.2652146518230438,
                        0.34780770540237427,
                        -0.015627296641469002,
                        -0.31552499532699585,
                        0.05295754224061966,
                        0.1815226674079895,
                        -0.3005349040031433,
                        0.7702363133430481,
                        0.5773760676383972,
                        0.298475056886673,
                        0.02657294273376465,
                        0.16991975903511047,
                        0.18597248196601868,
                        0.7728223204612732,
                        0.6550098061561584,
                        0.4213860332965851,
                        -0.005862680729478598,
                        0.04869937151670456,
                        -0.04834878817200661,
                        -0.32077717781066895,
                        -0.3749426305294037,
                        -0.11491773277521133,
                        -0.11157765239477158,
                        0.06293075531721115,
                        0.31765276193618774,
                        -0.5654579401016235,
                        0.2505075931549072,
                        -0.15196582674980164,
                        0.1380993127822876,
                        0.0796486884355545,
                        0.24995119869709015,
                        0.831775963306427,
                        0.41707852482795715,
                        0.17420905828475952,
                        -0.6896547079086304,
                        0.10915342718362808,
                        -0.13923300802707672,
                        -0.1602001041173935,
                        -0.31009235978126526,
                        0.14095160365104675,
                        0.21746516227722168,
                        -0.10988766700029373
                    ],
                    [
                        -0.0029951827600598335,
                        0.3894827663898468,
                        0.3390531837940216,
                        -0.7332792282104492,
                        0.07453731447458267,
                        0.1275927722454071,
                        0.10562162101268768,
                        0.16329512000083923,
                        -0.23710514605045319,
                        -0.23574340343475342,
                        -0.03857283294200897,
                        0.019191840663552284,
                        0.18227189779281616,
                        0.02208053320646286,
                        -0.05494567006826401,
                        0.1252528727054596,
                        -0.2145203799009323,
                        0.103644959628582,
                        0.4498489797115326,
                        -0.5258083343505859,
                        0.2828989028930664,
                        0.6548988223075867,
                        -0.5644192695617676,
                        0.2016427367925644,
                        -0.1143731027841568,
                        0.8335504531860352,
                        -0.1400429606437683,
                        -0.4096788465976715,
                        -0.06514152884483337,
                        -0.2010456621646881,
                        -0.7726066708564758,
                        0.10262171179056168,
                        0.4527500867843628,
                        -0.003994225524365902,
                        0.030258463695645332,
                        -0.2645016014575958,
                        0.15655280649662018,
                        0.11653746664524078,
                        0.25350016355514526,
                        0.03953496366739273,
                        0.025782277807593346,
                        -0.09206005930900574,
                        0.15138503909111023,
                        -0.006148993503302336,
                        0.7679210305213928,
                        0.32624703645706177,
                        -0.14163576066493988,
                        0.05654792860150337
                    ],
                    [
                        0.14554253220558167,
                        -0.25647205114364624,
                        -0.5496407747268677,
                        -0.9385173916816711,
                        -0.32458534836769104,
                        0.29558131098747253,
                        0.2517852187156677,
                        0.5776215195655823,
                        -0.4022024869918823,
                        -0.14566543698310852,
                        0.35714399814605713,
                        0.3013826906681061,
                        1.102164626121521,
                        -0.0014341531787067652,
                        0.24436739087104797,
                        0.5835304260253906,
                        0.14204086363315582,
                        0.7222602963447571,
                        0.11833049356937408,
                        -0.28293168544769287,
                        1.0427175760269165,
                        0.6563130617141724,
                        0.23038913309574127,
                        0.3232536315917969,
                        0.5186576843261719,
                        -0.18722547590732574,
                        -0.3494057059288025,
                        0.49577003717422485,
                        -0.0631139799952507,
                        -0.5770106911659241,
                        0.5232185125350952,
                        -0.2445518523454666,
                        0.3660983145236969,
                        0.4534214735031128,
                        0.5656009316444397,
                        -0.4044426679611206,
                        0.6013632416725159,
                        0.11916615813970566,
                        -0.0464533269405365,
                        0.18583722412586212,
                        0.13734836876392365,
                        0.38711732625961304,
                        0.42169567942619324,
                        0.05450143665075302,
                        0.36421045660972595,
                        0.3816358149051666,
                        0.284060537815094,
                        0.4019441604614258
                    ],
                    [
                        -0.08528321236371994,
                        -0.08811355382204056,
                        -0.05039414018392563,
                        -0.11267752200365067,
                        -0.14525280892848969,
                        -0.19273081421852112,
                        -0.36880388855934143,
                        -0.08369433879852295,
                        -0.01218181848526001,
                        -0.15092989802360535,
                        0.6348027586936951,
                        -0.12877658009529114,
                        0.07968233525753021,
                        -0.8390727043151855,
                        -0.8992153406143188,
                        0.22057585418224335,
                        -0.16540972888469696,
                        -0.6000936031341553,
                        0.23634745180606842,
                        -0.5777789354324341,
                        -0.12620745599269867,
                        -0.38326749205589294,
                        0.16314305365085602,
                        -0.09879012405872345,
                        0.09283474087715149,
                        0.03696803003549576,
                        -0.3972765803337097,
                        -0.055213555693626404,
                        0.47089335322380066,
                        -0.06489861756563187,
                        -0.5721900463104248,
                        -0.3844599425792694,
                        0.14080311357975006,
                        0.04347651079297066,
                        1.1288297176361084,
                        0.2888762950897217,
                        0.10546107590198517,
                        -0.13953959941864014,
                        0.07244385033845901,
                        0.2167574167251587,
                        0.02495274692773819,
                        0.8928808569908142,
                        -0.13092470169067383,
                        -0.23339465260505676,
                        0.41716206073760986,
                        -0.2724732756614685,
                        -0.14181005954742432,
                        -0.17567555606365204
                    ],
                    [
                        0.1976822316646576,
                        0.19982792437076569,
                        -0.17347176373004913,
                        -0.07597990334033966,
                        -0.028973085805773735,
                        0.3389871418476105,
                        0.09333576261997223,
                        -0.025028865784406662,
                        0.30073827505111694,
                        0.1182926669716835,
                        -0.055763475596904755,
                        -0.033410198986530304,
                        0.27423185110092163,
                        -0.10603433847427368,
                        -0.14849255979061127,
                        -0.10011766105890274,
                        0.1982068419456482,
                        -0.15155774354934692,
                        0.07385969161987305,
                        -0.5015238523483276,
                        -0.10976093262434006,
                        0.2787622809410095,
                        -0.052927903831005096,
                        -0.019895827397704124,
                        0.4094908535480499,
                        0.2287900596857071,
                        -0.28863081336021423,
                        0.4492253363132477,
                        0.259274423122406,
                        0.57955002784729,
                        -0.3100442886352539,
                        -0.5272034406661987,
                        0.05361716449260712,
                        0.4150305986404419,
                        -1.688658356666565,
                        0.3617747128009796,
                        0.5128082633018494,
                        0.14904721081256866,
                        0.06682508438825607,
                        1.4248168468475342,
                        -0.04494409263134003,
                        0.5879586935043335,
                        0.12302987277507782,
                        0.004101986065506935,
                        0.8316686153411865,
                        0.09633951634168625,
                        0.07165386527776718,
                        -0.07259315997362137
                    ]
                ],
                [
                    -1.3593153953552246,
                    -0.2977979779243469,
                    -0.2841704487800598,
                    -2.494692325592041,
                    -0.42994746565818787,
                    -0.2608434855937958,
                    1.3060097694396973,
                    2.0768463611602783,
                    -1.6012067794799805,
                    -0.9980995655059814,
                    1.199941873550415,
                    1.0252678394317627,
                    0.7596831321716309,
                    0.5334608554840088,
                    0.6308877468109131,
                    3.0670342445373535,
                    0.19740380346775055,
                    0.8991743326187134,
                    0.424608051776886,
                    0.022558201104402542,
                    1.8310601711273193,
                    1.8639034032821655,
                    -0.32484766840934753,
                    -0.4806222915649414,
                    -0.12206527590751648,
                    -0.005346383899450302,
                    0.6521017551422119,
                    0.1504533588886261,
                    0.28577718138694763,
                    0.16891777515411377,
                    0.5288535356521606,
                    0.039009515196084976,
                    -0.014184355735778809,
                    0.15187746286392212,
                    -0.29645028710365295,
                    0.7807604074478149,
                    -0.04820505157113075,
                    0.2741534113883972,
                    0.8512298464775085,
                    -0.06106579676270485,
                    0.7596282958984375,
                    0.41241195797920227,
                    1.64384126663208,
                    0.18861722946166992,
                    -0.6384809613227844,
                    0.4136090576648712,
                    1.2026327848434448,
                    1.2981019020080566
                ]
            ]
        },
        {
            "type": "dense",
            "activation": "",
            "shape": [
                null,
                null,
                1
            ],
            "weights": [
                [
                    [
                        -0.10817882418632507
                    ],
                    [
                        0.18169063329696655
                    ],
                    [
                        0.13037146627902985
                    ],
                    [
                        0.20766036212444305
                    ],
                    [
                        -0.011741972528398037
                    ],
                    [
                        -0.00041616009548306465
                    ],
                    [
                        0.12259373813867569
                    ],
                    [
                        1.0182234048843384
                    ],
                    [
                        0.2835140824317932
                    ],
                    [
                        -0.13648055493831635
                    ],
                    [
                        0.07556132972240448
                    ],
                    [
                        0.012911356054246426
                    ]
                ],
                [
                    -0.18757528066635132
                ]
            ]
        }
    ],
    "samplerate": 48000.0,
    "author": "AIDA DSP",
    "esr": 0.02862556092441082
}
