{
    "in_shape": [
        null,
        null,
        1
    ],
    "in_gain": 7.5,
    "out_gain": -3,
    "layers": [
        {
            "type": "lstm",
            "activation": "",
            "shape": [
                null,
                null,
                16
            ],
            "weights": [
                [
                    [
                        0.6974197626113892,
                        -0.14214688539505005,
                        -0.08849173039197922,
                        0.10961876064538956,
                        0.012348231859505177,
                        -0.04037736728787422,
                        0.02987547032535076,
                        -1.0527454614639282,
                        0.002228745026513934,
                        -0.09876061230897903,
                        0.3945806920528412,
                        0.22928334772586823,
                        0.09167040884494781,
                        0.1711476743221283,
                        0.22828181087970734,
                        -0.04452041536569595,
                        1.102729082107544,
                        -0.10468081384897232,
                        -0.027753988280892372,
                        -0.10498934984207153,
                        -0.11621931195259094,
                        0.05118203163146973,
                        -0.150686115026474,
                        -0.7017695903778076,
                        0.0030157016590237617,
                        0.0055165416561067104,
                        -0.30788448452949524,
                        0.06557571142911911,
                        0.20050287246704102,
                        -0.144168421626091,
                        0.21502569317817688,
                        0.14036862552165985,
                        0.3952119052410126,
                        0.2228105366230011,
                        0.08361431956291199,
                        -0.07798943668603897,
                        0.055125895887613297,
                        -0.06503800302743912,
                        -0.10437764972448349,
                        -1.0504870414733887,
                        0.0638904720544815,
                        0.037743378430604935,
                        0.028381291776895523,
                        0.3845524489879608,
                        0.23083360493183136,
                        0.561259388923645,
                        0.5565608739852905,
                        -0.07566726207733154,
                        0.210186168551445,
                        -0.05130547657608986,
                        -0.04787670075893402,
                        -0.12781406939029694,
                        -0.031121455132961273,
                        -0.06146315485239029,
                        -0.047785431146621704,
                        -0.925178587436676,
                        -0.033111363649368286,
                        -0.1043740063905716,
                        -0.07650889456272125,
                        0.19302958250045776,
                        0.055995482951402664,
                        -0.018410736694931984,
                        0.04035447537899017,
                        -0.03849975764751434
                    ]
                ],
                [
                    [
                        0.32134565711021423,
                        0.1578051596879959,
                        -0.09932968020439148,
                        -0.021256864070892334,
                        0.560463011264801,
                        -0.06311401724815369,
                        -0.008385964669287205,
                        -0.14755405485630035,
                        -0.12510454654693604,
                        -0.19487214088439941,
                        0.30055534839630127,
                        -0.07744031399488449,
                        0.11435388773679733,
                        0.04932809993624687,
                        0.5341126322746277,
                        -0.005213527474552393,
                        0.4278110861778259,
                        -0.11140218377113342,
                        0.10166239738464355,
                        0.11968686431646347,
                        0.11638456583023071,
                        0.1420147866010666,
                        0.031597647815942764,
                        -0.12585288286209106,
                        0.044362664222717285,
                        0.26085516810417175,
                        0.34409719705581665,
                        0.1054249182343483,
                        0.19491682946681976,
                        0.07871410995721817,
                        0.5208056569099426,
                        -0.005327437072992325,
                        0.32253703474998474,
                        -0.72886061668396,
                        0.138545423746109,
                        0.2336897999048233,
                        -0.6396982669830322,
                        -0.00610246742144227,
                        0.011429060250520706,
                        0.28549596667289734,
                        -0.2637476325035095,
                        -0.2147270143032074,
                        0.6568924784660339,
                        -0.5737385153770447,
                        -0.025559447705745697,
                        0.013546179048717022,
                        -0.15139245986938477,
                        -0.012568410485982895,
                        0.26101529598236084,
                        0.030496476218104362,
                        -0.05596386268734932,
                        -0.0017084989231079817,
                        0.25678548216819763,
                        -0.0603228360414505,
                        0.009666411206126213,
                        -0.16258831322193146,
                        -0.0913315862417221,
                        -0.14295431971549988,
                        0.45342615246772766,
                        -0.041656095534563065,
                        0.11226639151573181,
                        0.057363636791706085,
                        0.6478124260902405,
                        0.006549786776304245
                    ],
                    [
                        0.5949035882949829,
                        -0.30078738927841187,
                        0.16145889461040497,
                        -0.04080716520547867,
                        -0.1461319476366043,
                        -0.04019360616803169,
                        0.04335847124457359,
                        0.030455127358436584,
                        0.12408996373414993,
                        -0.02753838151693344,
                        -0.08148831874132156,
                        -0.0191152673214674,
                        -0.011310050264000893,
                        -0.26974016427993774,
                        -0.22229629755020142,
                        0.04867613688111305,
                        -0.022490572184324265,
                        -0.21204866468906403,
                        0.010390636511147022,
                        -0.031304605305194855,
                        -0.47031721472740173,
                        -0.076356440782547,
                        0.07881564646959305,
                        0.06961320340633392,
                        -0.08037640154361725,
                        -0.10280799865722656,
                        0.19915729761123657,
                        0.06896847486495972,
                        -0.1966356486082077,
                        -0.08513595908880234,
                        0.25714027881622314,
                        -0.01646328717470169,
                        1.2628363370895386,
                        -0.05717067793011665,
                        0.31772974133491516,
                        -0.2669985890388489,
                        -1.1856956481933594,
                        0.0016859248280525208,
                        -0.3306567370891571,
                        -0.3046821057796478,
                        0.334211140871048,
                        0.23777033388614655,
                        0.3882802128791809,
                        -0.8036502599716187,
                        -0.0060286372900009155,
                        0.0024438512045890093,
                        0.8291618824005127,
                        0.493027925491333,
                        0.20811446011066437,
                        -0.16788797080516815,
                        0.05546438694000244,
                        -0.015048246830701828,
                        -0.13761992752552032,
                        -0.01213918998837471,
                        0.08773338049650192,
                        0.017449595034122467,
                        0.11530918627977371,
                        -0.02782333269715309,
                        -0.3335042893886566,
                        -0.0910937488079071,
                        -0.021311340853571892,
                        -0.1611468344926834,
                        -0.16346342861652374,
                        0.03965587913990021
                    ],
                    [
                        0.1553402543067932,
                        -0.0008212451939471066,
                        0.20053881406784058,
                        0.1850747913122177,
                        0.07788725197315216,
                        -0.13227993249893188,
                        -0.08725393563508987,
                        -0.07560352236032486,
                        -0.22780252993106842,
                        -0.08581545948982239,
                        -0.037978850305080414,
                        -0.11410129070281982,
                        -0.4510490596294403,
                        -0.11384624987840652,
                        0.07830952107906342,
                        -0.16350629925727844,
                        -0.13181687891483307,
                        -0.020791269838809967,
                        0.36786890029907227,
                        0.16669663786888123,
                        -0.06126045808196068,
                        -0.04056072607636452,
                        -0.3653516471385956,
                        -0.11397568136453629,
                        0.05925316736102104,
                        0.05473839119076729,
                        -0.3151474595069885,
                        -0.11733116209506989,
                        -0.02927677147090435,
                        -0.1110350713133812,
                        -0.32206302881240845,
                        0.16090628504753113,
                        0.12226403504610062,
                        -0.6446475386619568,
                        -1.0708650350570679,
                        -1.127753496170044,
                        -0.7526804208755493,
                        0.7230029702186584,
                        -0.24480582773685455,
                        -0.07206722348928452,
                        0.9726790189743042,
                        0.1701456606388092,
                        -0.0014685008209198713,
                        0.02299916185438633,
                        -0.600155234336853,
                        0.21718545258045197,
                        -0.03516462445259094,
                        0.5752828121185303,
                        0.1951623558998108,
                        -0.1241658478975296,
                        0.19636322557926178,
                        0.4593360424041748,
                        -0.1572633683681488,
                        -0.12294313311576843,
                        -0.13888655602931976,
                        -0.0359569676220417,
                        -0.19641952216625214,
                        -0.12259699404239655,
                        0.11924970895051956,
                        -0.1668919175863266,
                        -0.4370060861110687,
                        -0.07901372760534286,
                        0.5002346038818359,
                        -0.15803489089012146
                    ],
                    [
                        0.011383160017430782,
                        -0.03495599329471588,
                        -0.3296217620372772,
                        -0.0901435986161232,
                        0.3445756733417511,
                        -0.08028419315814972,
                        -0.10575943440198898,
                        -0.057028282433748245,
                        -0.15282250940799713,
                        -0.15353108942508698,
                        -0.11879780888557434,
                        -0.07976048439741135,
                        -0.5268968939781189,
                        -0.07260870188474655,
                        0.3815540373325348,
                        -0.2634531855583191,
                        -0.4063149392604828,
                        -0.021027620881795883,
                        0.176489919424057,
                        0.002984460210427642,
                        0.0011199719738215208,
                        -0.010220116935670376,
                        -0.398218035697937,
                        -0.14153875410556793,
                        0.07696668058633804,
                        0.21604883670806885,
                        -0.3773511052131653,
                        -0.036875952035188675,
                        -0.07878275960683823,
                        -0.03703109547495842,
                        -0.17844688892364502,
                        0.19820185005664825,
                        0.14587482810020447,
                        -0.043021310120821,
                        0.5215156674385071,
                        -0.07195182889699936,
                        -0.29323941469192505,
                        1.2191860675811768,
                        -0.06724099069833755,
                        -0.11269866675138474,
                        0.5365045666694641,
                        -1.2916932106018066,
                        -0.8283447027206421,
                        0.2575322687625885,
                        -1.0080082416534424,
                        -0.08299599587917328,
                        0.37347835302352905,
                        0.47834306955337524,
                        -0.1265943944454193,
                        -0.11049222201108932,
                        -0.2309342622756958,
                        -0.22093282639980316,
                        0.09765280783176422,
                        -0.07701318711042404,
                        -0.1530076414346695,
                        0.007760555949062109,
                        -0.14163659512996674,
                        -0.16308967769145966,
                        -0.02099599502980709,
                        -0.08909924328327179,
                        -0.5077623128890991,
                        -0.014619321562349796,
                        0.31178632378578186,
                        -0.2301645576953888
                    ],
                    [
                        0.4707621932029724,
                        -0.023088723421096802,
                        -0.13992810249328613,
                        -0.006462777964770794,
                        0.2704559862613678,
                        0.00840009655803442,
                        -0.0830392986536026,
                        0.10740411281585693,
                        0.03208279237151146,
                        0.06531351804733276,
                        0.26504790782928467,
                        0.06566978245973587,
                        -0.06652431190013885,
                        -0.14144060015678406,
                        0.04157228767871857,
                        -0.02237635850906372,
                        0.2195679098367691,
                        -0.05709819495677948,
                        -0.1284470558166504,
                        -0.011707141995429993,
                        -0.27024513483047485,
                        0.09287295490503311,
                        -0.034488268196582794,
                        0.10215608775615692,
                        0.06022128090262413,
                        0.09585990011692047,
                        0.19606958329677582,
                        -0.1896001398563385,
                        -0.1292172521352768,
                        0.035258449614048004,
                        0.3586380183696747,
                        -0.02294572815299034,
                        0.25313034653663635,
                        1.324816107749939,
                        -0.30448484420776367,
                        -0.24052128195762634,
                        0.5451663732528687,
                        0.5982276201248169,
                        -0.295423686504364,
                        -0.017321746796369553,
                        0.5283948183059692,
                        0.621462345123291,
                        -0.5353220105171204,
                        0.21233104169368744,
                        -0.466727614402771,
                        0.38708698749542236,
                        0.8637508153915405,
                        -0.20570862293243408,
                        0.4902087450027466,
                        -0.1259644627571106,
                        -0.15027067065238953,
                        0.046141937375068665,
                        0.4040660560131073,
                        0.03590105101466179,
                        0.04042520746588707,
                        0.018805742263793945,
                        0.03186136484146118,
                        0.04576566815376282,
                        0.061191488057374954,
                        0.021605035290122032,
                        -0.06534134596586227,
                        -0.07110264897346497,
                        0.1980253905057907,
                        -0.02062690071761608
                    ],
                    [
                        0.30243661999702454,
                        -0.06991137564182281,
                        -0.10765662044286728,
                        0.10670958459377289,
                        0.016278881579637527,
                        -0.07164856046438217,
                        -0.08391448110342026,
                        0.020802637562155724,
                        -0.03249308839440346,
                        0.055286381393671036,
                        0.29559582471847534,
                        -0.06823883205652237,
                        -0.03610770404338837,
                        -0.059883296489715576,
                        -0.0144111393019557,
                        0.09062172472476959,
                        0.3356497883796692,
                        -0.12198452651500702,
                        -0.004984286148101091,
                        0.009055481292307377,
                        -0.24763762950897217,
                        -0.07445502281188965,
                        -0.07512196898460388,
                        -0.01332265604287386,
                        -0.10551763325929642,
                        0.07624473422765732,
                        0.41355568170547485,
                        -0.0662902295589447,
                        -0.14828845858573914,
                        -0.1918129026889801,
                        0.09778234362602234,
                        -0.07369747757911682,
                        0.49950939416885376,
                        0.4000220000743866,
                        0.04578539356589317,
                        -0.7903754115104675,
                        -0.12988276779651642,
                        -0.3715173304080963,
                        -0.2167600691318512,
                        -0.006023257505148649,
                        -1.372868537902832,
                        -0.7597751617431641,
                        0.3390514850616455,
                        0.4134293496608734,
                        -0.09928295016288757,
                        0.14985807240009308,
                        0.39969682693481445,
                        0.3878014087677002,
                        0.31220006942749023,
                        -0.04164528474211693,
                        -0.037933919578790665,
                        0.2075895369052887,
                        -0.08966990560293198,
                        -0.08129988610744476,
                        -0.04717332869768143,
                        -0.025508463382720947,
                        -0.06061261519789696,
                        0.06032763794064522,
                        0.11130309849977493,
                        -0.02790123224258423,
                        -0.0732123851776123,
                        -0.12178003042936325,
                        0.1303168386220932,
                        0.07849402725696564
                    ],
                    [
                        -0.10236714035272598,
                        -0.12818479537963867,
                        0.0005973061197437346,
                        0.039712272584438324,
                        0.0714157372713089,
                        -0.04271635413169861,
                        -0.009686257690191269,
                        -0.21913768351078033,
                        0.015404526144266129,
                        0.02426900342106819,
                        -0.21242235600948334,
                        -0.0735984668135643,
                        0.08752472698688507,
                        0.11784800887107849,
                        0.09963418543338776,
                        -0.13291412591934204,
                        -0.1034131869673729,
                        -0.10852884501218796,
                        -0.010994642972946167,
                        0.031356699764728546,
                        0.31207531690597534,
                        0.0011136356042698026,
                        -0.061061836779117584,
                        -0.1283562034368515,
                        0.08928781002759933,
                        0.16564005613327026,
                        -0.49328556656837463,
                        -0.09291024506092072,
                        0.038647644221782684,
                        0.07628253847360611,
                        -0.0387316569685936,
                        0.1511719822883606,
                        -0.20084305107593536,
                        -0.17997778952121735,
                        0.04651789367198944,
                        -0.03224516659975052,
                        0.16672107577323914,
                        -0.17233745753765106,
                        0.6022934913635254,
                        -0.07323405891656876,
                        -0.2709553837776184,
                        0.2617824673652649,
                        -0.30620521306991577,
                        -0.3637693226337433,
                        0.04149603098630905,
                        -0.14986509084701538,
                        0.1874978393316269,
                        0.404108464717865,
                        -0.11538399755954742,
                        -0.10612208396196365,
                        -0.021808460354804993,
                        0.051147330552339554,
                        0.1067335456609726,
                        -0.020426008850336075,
                        -0.08529774099588394,
                        -0.11882227659225464,
                        0.0054543474689126015,
                        0.010699737817049026,
                        0.44593295454978943,
                        -0.063410185277462,
                        0.08453016728162766,
                        0.15544404089450836,
                        0.2509940564632416,
                        -0.14979077875614166
                    ],
                    [
                        0.06574749201536179,
                        0.01710077002644539,
                        -0.0011262333719059825,
                        -0.03282129392027855,
                        0.3476158678531647,
                        0.08371025323867798,
                        0.07569810003042221,
                        0.07611177116632462,
                        -0.1246483325958252,
                        -0.15918269753456116,
                        0.1225297823548317,
                        -0.3387676775455475,
                        0.16248446702957153,
                        0.3282310366630554,
                        0.6901743412017822,
                        -0.13754424452781677,
                        -0.06203858554363251,
                        0.07721322029829025,
                        0.12299320101737976,
                        0.07980011403560638,
                        0.11167454719543457,
                        0.2792467474937439,
                        0.03975258767604828,
                        0.020554756745696068,
                        0.08910975605249405,
                        0.16764138638973236,
                        -0.02538243867456913,
                        -0.25739091634750366,
                        0.24486015737056732,
                        0.35040315985679626,
                        0.3706173896789551,
                        0.009706850163638592,
                        0.1066313311457634,
                        0.0704374685883522,
                        -0.17686906456947327,
                        -0.11164210736751556,
                        0.18840456008911133,
                        0.057594820857048035,
                        0.08405324816703796,
                        0.06962545961141586,
                        -0.11048827320337296,
                        0.15343724191188812,
                        -0.012700553983449936,
                        0.16321472823619843,
                        0.18457914888858795,
                        0.11672823131084442,
                        -0.21291469037532806,
                        0.07793977111577988,
                        0.019067218527197838,
                        0.03801194950938225,
                        0.007978302426636219,
                        -0.0033501640427857637,
                        0.30047500133514404,
                        0.0862748846411705,
                        0.0720347911119461,
                        -0.058001477271318436,
                        -0.10663607716560364,
                        -0.13627608120441437,
                        0.10470712184906006,
                        -0.25765371322631836,
                        0.1493045687675476,
                        0.32037386298179626,
                        0.5254725813865662,
                        -0.12268141657114029
                    ],
                    [
                        0.05891570821404457,
                        -0.0788387581706047,
                        0.17258213460445404,
                        -0.14139918982982635,
                        -0.031922731548547745,
                        0.03938496857881546,
                        -0.050653327256441116,
                        0.006975776050239801,
                        0.04024400934576988,
                        0.06381350755691528,
                        -0.14213909208774567,
                        0.07403767853975296,
                        0.004147122148424387,
                        -0.06467278301715851,
                        -0.2113848626613617,
                        0.05196424946188927,
                        0.07076182216405869,
                        -0.039772532880306244,
                        -0.03532135859131813,
                        0.040110595524311066,
                        -0.05792311951518059,
                        -0.04379957169294357,
                        -0.05804668739438057,
                        0.015815051272511482,
                        -0.030535675585269928,
                        -0.1008298471570015,
                        0.028347063809633255,
                        0.08714649826288223,
                        -0.0776585265994072,
                        -0.019812190905213356,
                        -0.0766322985291481,
                        -0.008533277548849583,
                        -0.05732729285955429,
                        -0.004202015697956085,
                        -0.6914659142494202,
                        0.3105933964252472,
                        -0.052428193390369415,
                        1.3774135112762451,
                        0.045176561921834946,
                        -0.10794290900230408,
                        -0.7937251925468445,
                        0.6017606854438782,
                        0.00784856453537941,
                        -0.2689938247203827,
                        0.5455697774887085,
                        -0.04470151662826538,
                        -0.2399722933769226,
                        -0.904066264629364,
                        0.0020774321164935827,
                        -0.011566382832825184,
                        0.12631642818450928,
                        -0.0678091049194336,
                        -0.030847739428281784,
                        0.03910595551133156,
                        -0.04512958228588104,
                        0.014996703714132309,
                        0.05318094417452812,
                        0.03381066769361496,
                        -0.15270301699638367,
                        0.0705968588590622,
                        -0.00325163290835917,
                        -0.04355388879776001,
                        -0.10672666132450104,
                        0.04701819643378258
                    ],
                    [
                        0.2280312329530716,
                        -0.03400220349431038,
                        -0.08547116070985794,
                        -0.10634160786867142,
                        0.10830976068973541,
                        -0.016646845266222954,
                        -0.08019711077213287,
                        -0.2516210079193115,
                        -0.08877026289701462,
                        0.020844778046011925,
                        0.1621888279914856,
                        0.04506263509392738,
                        -0.1345680207014084,
                        -0.07581094652414322,
                        0.20448409020900726,
                        0.029711900278925896,
                        0.3117077350616455,
                        -0.08918391913175583,
                        0.062175970524549484,
                        -0.15919944643974304,
                        -0.20661096274852753,
                        0.016240576282143593,
                        -0.2651999890804291,
                        -0.13759641349315643,
                        -0.05940035730600357,
                        0.13991986215114594,
                        0.3305344879627228,
                        0.0031856168061494827,
                        0.03373153135180473,
                        -0.019444221630692482,
                        0.44441652297973633,
                        0.021251872181892395,
                        1.0654793977737427,
                        -0.04376153647899628,
                        0.1623205542564392,
                        0.6002482175827026,
                        -0.6292264461517334,
                        0.31054261326789856,
                        -0.5572150945663452,
                        -0.43304404616355896,
                        -0.2847689092159271,
                        0.05023206025362015,
                        0.014253879897296429,
                        0.907437801361084,
                        -0.05510660633444786,
                        0.13506250083446503,
                        1.6080045700073242,
                        0.9857876896858215,
                        0.40718376636505127,
                        -0.13401105999946594,
                        -0.05019660294055939,
                        -0.1045440286397934,
                        0.10740197449922562,
                        0.08903412520885468,
                        0.07993211597204208,
                        -0.16862726211547852,
                        -0.07595840841531754,
                        0.0016047719400376081,
                        0.2921060621738434,
                        0.025193002074956894,
                        -0.10910531878471375,
                        0.03781016543507576,
                        0.38854125142097473,
                        0.027699312195181847
                    ],
                    [
                        0.11954399943351746,
                        -0.08914961665868759,
                        0.04028679430484772,
                        -0.0056159705854952335,
                        -0.25105270743370056,
                        0.06531286984682083,
                        -0.05461949110031128,
                        -0.04544660076498985,
                        0.0455705001950264,
                        0.0966087132692337,
                        0.11847271770238876,
                        0.16236719489097595,
                        0.07805732637643814,
                        -0.12371592968702316,
                        0.0020483462139964104,
                        0.1162533238530159,
                        0.47082921862602234,
                        0.11957698315382004,
                        0.01004503108561039,
                        0.02064811810851097,
                        -0.17320102453231812,
                        0.05836538225412369,
                        0.07942500710487366,
                        -0.038929667323827744,
                        0.007390942890197039,
                        -0.05548926815390587,
                        0.362572580575943,
                        0.05463282763957977,
                        0.06017066538333893,
                        0.0611712709069252,
                        0.3732840120792389,
                        -0.1471610963344574,
                        -0.2795190215110779,
                        -0.795285701751709,
                        -0.20857679843902588,
                        0.08163072168827057,
                        0.583698034286499,
                        0.18937881290912628,
                        -0.01823475956916809,
                        -0.1773965060710907,
                        -0.013881550170481205,
                        0.3942040801048279,
                        0.5898948311805725,
                        -0.860518753528595,
                        -0.7724517583847046,
                        -1.1852165460586548,
                        0.3691107928752899,
                        0.3751356899738312,
                        0.10284598916769028,
                        0.007986276410520077,
                        0.07801679521799088,
                        -0.0215060506016016,
                        -0.0401461087167263,
                        0.06694308668375015,
                        0.01579980179667473,
                        -0.13067419826984406,
                        0.050266120582818985,
                        0.10698363184928894,
                        0.1889122873544693,
                        0.15385591983795166,
                        0.09188015013933182,
                        -0.06400533020496368,
                        0.02787495218217373,
                        0.13457182049751282
                    ],
                    [
                        -0.11350276321172714,
                        -0.02697755955159664,
                        0.41265180706977844,
                        -0.25523295998573303,
                        -0.10089490562677383,
                        -0.04327888786792755,
                        0.040942925959825516,
                        -0.0010820338502526283,
                        0.05445897579193115,
                        -0.01629624143242836,
                        0.21968570351600647,
                        -0.12799587845802307,
                        -0.07355490326881409,
                        -0.036878399550914764,
                        -0.34221071004867554,
                        -0.039921995252370834,
                        0.019166206941008568,
                        0.012541031464934349,
                        -0.02467401884496212,
                        -0.09953654557466507,
                        -0.19262228906154633,
                        -0.04174829646945,
                        -0.03639863058924675,
                        -0.026547186076641083,
                        0.05760691314935684,
                        -0.08642134070396423,
                        0.055501747876405716,
                        -0.2358349859714508,
                        -0.05103485658764839,
                        -0.07868631184101105,
                        -0.03418608382344246,
                        0.029409902170300484,
                        -0.20028571784496307,
                        -0.4433607757091522,
                        -1.4860851764678955,
                        0.3686695098876953,
                        -0.11345396935939789,
                        -0.21828089654445648,
                        0.01978638768196106,
                        -0.016761837527155876,
                        0.13040272891521454,
                        -0.9741106033325195,
                        0.17733819782733917,
                        -0.02399015612900257,
                        -0.4866810739040375,
                        0.18237663805484772,
                        -0.2400442361831665,
                        -0.4599592983722687,
                        0.0701024979352951,
                        0.07087045162916183,
                        0.23875097930431366,
                        -0.17029623687267303,
                        -0.1063716933131218,
                        -0.08333181589841843,
                        0.05980829522013664,
                        -0.014081841334700584,
                        0.039871037006378174,
                        -0.03363478556275368,
                        0.0004297575505916029,
                        -0.18077963590621948,
                        -0.04940229281783104,
                        -0.08669167011976242,
                        0.20092061161994934,
                        -0.031208276748657227
                    ],
                    [
                        -0.29722416400909424,
                        0.07437064498662949,
                        -0.41230306029319763,
                        -0.1447259783744812,
                        0.020690297707915306,
                        -0.054736558347940445,
                        0.21778331696987152,
                        -0.009315959177911282,
                        -0.09132107347249985,
                        -0.06659018993377686,
                        -0.5394807457923889,
                        -0.11420169472694397,
                        0.12922963500022888,
                        0.02835189923644066,
                        -0.11991750448942184,
                        -0.0320453904569149,
                        -0.3232628405094147,
                        0.1398121565580368,
                        -0.26227498054504395,
                        -0.008174508810043335,
                        0.14544673264026642,
                        0.029163679108023643,
                        0.22142481803894043,
                        0.03574332594871521,
                        -0.00579450000077486,
                        -0.05253220349550247,
                        -0.3777834177017212,
                        0.006701379548758268,
                        0.13159696757793427,
                        0.19057543575763702,
                        -0.09991130977869034,
                        0.08201969414949417,
                        -0.24943362176418304,
                        -0.43369635939598083,
                        0.26085320115089417,
                        -0.09992682933807373,
                        -0.5045976042747498,
                        -0.3766968846321106,
                        0.22334308922290802,
                        -0.058452971279621124,
                        -0.5545687675476074,
                        0.41762498021125793,
                        -0.4573048949241638,
                        -0.0678948163986206,
                        -1.828965187072754,
                        0.26760563254356384,
                        -0.07958843559026718,
                        -0.999722421169281,
                        -0.34616905450820923,
                        0.04862535372376442,
                        -0.6274381875991821,
                        -0.18983709812164307,
                        0.005050027277320623,
                        -0.020421726629137993,
                        0.18672208487987518,
                        0.07184527814388275,
                        -0.09105236083269119,
                        -0.04828384891152382,
                        0.4927763342857361,
                        -0.14515931904315948,
                        0.11754857748746872,
                        0.14595554769039154,
                        0.4615606367588043,
                        -0.031425733119249344
                    ],
                    [
                        -0.2438744157552719,
                        0.2791740596294403,
                        0.32517796754837036,
                        -0.1478850543498993,
                        -0.047156237065792084,
                        0.09620605409145355,
                        0.1842820942401886,
                        0.11519697308540344,
                        0.030837442725896835,
                        -0.12452660501003265,
                        -0.400709867477417,
                        0.06819751113653183,
                        0.15524570643901825,
                        0.12625546753406525,
                        -0.01886327750980854,
                        0.011437826789915562,
                        -0.2974391579627991,
                        0.13533715903759003,
                        0.09029609709978104,
                        -0.022973718121647835,
                        0.036082375794649124,
                        0.11913563311100006,
                        0.31654801964759827,
                        0.15765295922756195,
                        0.016854574903845787,
                        -0.10033134371042252,
                        -0.020297592505812645,
                        0.1517404466867447,
                        0.15951310098171234,
                        0.21739260852336884,
                        0.10234873741865158,
                        0.04720975086092949,
                        0.41327425837516785,
                        0.2696276307106018,
                        -0.9985966086387634,
                        0.7868449687957764,
                        -0.8721623420715332,
                        -0.6974443197250366,
                        -0.10407660156488419,
                        0.07438246160745621,
                        -0.5868856906890869,
                        -0.2042260318994522,
                        0.35005810856819153,
                        -1.1813182830810547,
                        0.7463669776916504,
                        -0.6029007434844971,
                        -0.46734729409217834,
                        0.4817775785923004,
                        -0.4993017315864563,
                        0.13269808888435364,
                        0.18777424097061157,
                        -0.08999287337064743,
                        0.07037151604890823,
                        0.12976644933223724,
                        0.24730387330055237,
                        0.20664837956428528,
                        0.03548272326588631,
                        -0.08464488387107849,
                        0.4154682457447052,
                        -0.016925809904932976,
                        0.16987493634223938,
                        0.15864786505699158,
                        -0.0957077145576477,
                        0.015483974479138851
                    ],
                    [
                        0.2502354383468628,
                        -0.05856955796480179,
                        0.016421664506196976,
                        0.04619033262133598,
                        0.20866888761520386,
                        0.12359576672315598,
                        -0.10824054479598999,
                        -0.4828924536705017,
                        0.015949757769703865,
                        0.31473007798194885,
                        -0.2110649198293686,
                        0.08019773662090302,
                        0.2134471982717514,
                        -0.2253311574459076,
                        -0.4661460518836975,
                        0.183067187666893,
                        0.9524490237236023,
                        -0.1992359310388565,
                        -0.10810429602861404,
                        0.06077524647116661,
                        0.13158808648586273,
                        0.027326799929142,
                        0.039843518286943436,
                        -0.28438979387283325,
                        -0.0027812987100332975,
                        0.07797490805387497,
                        0.10299819707870483,
                        0.04217342287302017,
                        0.1780325025320053,
                        -0.35922715067863464,
                        0.3914709687232971,
                        -0.19276440143585205,
                        0.16669043898582458,
                        0.04466671124100685,
                        -0.20260940492153168,
                        0.02293369732797146,
                        -0.12431414425373077,
                        0.08923858404159546,
                        0.20772099494934082,
                        -0.5554367899894714,
                        0.10476014018058777,
                        0.116985984146595,
                        -0.23057295382022858,
                        -0.5046883225440979,
                        -0.3189147710800171,
                        -0.6529912948608398,
                        0.21082022786140442,
                        0.009511691518127918,
                        0.7302111387252808,
                        -0.07692757248878479,
                        0.03816685453057289,
                        0.013403838500380516,
                        0.0027476707473397255,
                        0.09882000088691711,
                        -0.12054166942834854,
                        -0.5366058349609375,
                        0.04571954905986786,
                        0.2429865151643753,
                        -0.38078978657722473,
                        0.07775852084159851,
                        0.25805869698524475,
                        -0.10157889872789383,
                        0.10736347734928131,
                        0.1885424256324768
                    ],
                    [
                        0.037961121648550034,
                        -0.14770416915416718,
                        0.0052281031385064125,
                        0.1318703442811966,
                        -0.07478240877389908,
                        -0.08814128488302231,
                        0.18791954219341278,
                        -0.19595932960510254,
                        -0.036139730364084244,
                        -0.04727732390165329,
                        -0.3732350766658783,
                        0.043617960065603256,
                        0.12420567870140076,
                        0.21402089297771454,
                        0.09854619204998016,
                        -0.06689203530550003,
                        0.3522648513317108,
                        0.01709694415330887,
                        -0.07456187158823013,
                        0.02402443438768387,
                        0.12223630398511887,
                        -0.00580737367272377,
                        0.14608833193778992,
                        -0.09268729388713837,
                        -0.04237941652536392,
                        0.014062539674341679,
                        0.09903082996606827,
                        0.030376778915524483,
                        0.022518586367368698,
                        0.15830351412296295,
                        0.9469796419143677,
                        0.03401387110352516,
                        0.7561269402503967,
                        -0.726820707321167,
                        -0.0407094843685627,
                        -0.26538217067718506,
                        -0.8274345397949219,
                        -0.15932877361774445,
                        -0.432476282119751,
                        -0.4088132977485657,
                        0.2791869640350342,
                        -0.8234504461288452,
                        -0.19350963830947876,
                        -0.12181510031223297,
                        0.46619826555252075,
                        -0.8284003734588623,
                        1.6208971738815308,
                        -1.224210262298584,
                        0.2783946692943573,
                        -0.13421699404716492,
                        0.07677211612462997,
                        -0.02631527930498123,
                        0.14361701905727386,
                        0.021423647180199623,
                        0.273771196603775,
                        -0.07982159405946732,
                        -0.03984837979078293,
                        -0.05588032305240631,
                        0.5450185537338257,
                        0.052443280816078186,
                        0.07742714881896973,
                        0.0794338509440422,
                        0.836909294128418,
                        -0.06095942482352257
                    ]
                ],
                [
                    -1.755136251449585,
                    -0.1955070197582245,
                    0.4260033965110779,
                    0.45628246665000916,
                    -1.4456663131713867,
                    1.0431411266326904,
                    0.09373291581869125,
                    -0.8888255953788757,
                    0.7385836839675903,
                    1.375423550605774,
                    -2.178619861602783,
                    0.5929040908813477,
                    0.6786755323410034,
                    -0.09709091484546661,
                    -0.7023026943206787,
                    2.2596139907836914,
                    1.6081372499465942,
                    1.079906940460205,
                    -1.1197646856307983,
                    -0.10145923495292664,
                    2.084869861602783,
                    -0.5648348927497864,
                    1.1067395210266113,
                    0.3972196578979492,
                    -1.173793077468872,
                    0.0061365216970443726,
                    2.869490623474121,
                    0.24817243218421936,
                    -1.356773853302002,
                    -0.07480951398611069,
                    1.7066750526428223,
                    -1.8589041233062744,
                    -0.005190201103687286,
                    -0.020285379141569138,
                    -0.2070503532886505,
                    -0.3911375403404236,
                    -0.10872616618871689,
                    0.239490807056427,
                    -0.0593712255358696,
                    -0.0916719138622284,
                    0.2371835857629776,
                    -0.19746200740337372,
                    0.0021068938076496124,
                    0.20632880926132202,
                    -0.12872543931007385,
                    0.26139456033706665,
                    0.11265285313129425,
                    0.13688385486602783,
                    -1.1873847246170044,
                    1.5105277299880981,
                    1.065717339515686,
                    0.6314939260482788,
                    0.08264228701591492,
                    1.1954920291900635,
                    0.22994863986968994,
                    -1.0941821336746216,
                    1.0206823348999023,
                    1.903407096862793,
                    -1.1189719438552856,
                    1.1303493976593018,
                    0.8814305067062378,
                    0.7183866500854492,
                    0.007303686812520027,
                    2.575460433959961
                ]
            ]
        },
        {
            "type": "dense",
            "activation": "",
            "shape": [
                null,
                null,
                1
            ],
            "weights": [
                [
                    [
                        -0.12857577204704285
                    ],
                    [
                        0.7582544684410095
                    ],
                    [
                        0.07955683767795563
                    ],
                    [
                        0.09848145395517349
                    ],
                    [
                        0.1915191411972046
                    ],
                    [
                        0.1708214432001114
                    ],
                    [
                        0.0766935795545578
                    ],
                    [
                        -0.00383718591183424
                    ],
                    [
                        -0.016168249770998955
                    ],
                    [
                        0.7362162470817566
                    ],
                    [
                        -0.1527852714061737
                    ],
                    [
                        -0.14129675924777985
                    ],
                    [
                        0.2668848931789398
                    ],
                    [
                        0.29816335439682007
                    ],
                    [
                        -0.5121328830718994
                    ],
                    [
                        0.8971417546272278
                    ]
                ],
                [
                    0.08152413368225098
                ]
            ]
        }
    ],
    "samplerate": 48000.0,
    "author": "AIDA DSP",
    "esr": 0.028384162113070488
}
