{
    "in_shape": [
        null,
        null,
        1
    ],
    "in_gain": 7.5,
    "out_gain": -1.2,
    "layers": [
        {
            "type": "lstm",
            "activation": "",
            "shape": [
                null,
                null,
                12
            ],
            "weights": [
                [
                    [
                        -0.08675505965948105,
                        -0.1872207671403885,
                        -0.23703378438949585,
                        0.0576595813035965,
                        0.30364954471588135,
                        0.06899267435073853,
                        -0.04598774388432503,
                        -0.3109166920185089,
                        0.13647322356700897,
                        -0.02355760708451271,
                        0.33219727873802185,
                        0.18048648536205292,
                        -0.7164609432220459,
                        0.005544282961636782,
                        0.021417899057269096,
                        -0.0872306153178215,
                        0.3544232249259949,
                        -0.2885892987251282,
                        -0.1800350397825241,
                        -0.39095965027809143,
                        0.43898630142211914,
                        0.04810237139463425,
                        0.6018394231796265,
                        0.5745794177055359,
                        -0.07246604561805725,
                        0.4958544671535492,
                        0.26806730031967163,
                        -0.09141518175601959,
                        -0.7260013222694397,
                        -0.1364385336637497,
                        -0.4104958176612854,
                        -0.13007396459579468,
                        0.08932995051145554,
                        -0.5159476399421692,
                        -0.4088018536567688,
                        0.5315859913825989,
                        -0.3387558162212372,
                        -0.07951931655406952,
                        -0.12503665685653687,
                        0.11698698252439499,
                        0.6073443293571472,
                        -0.11412905901670456,
                        -0.08637140691280365,
                        -0.5149480104446411,
                        0.45233872532844543,
                        -0.06822055578231812,
                        0.3401162624359131,
                        0.16612936556339264
                    ]
                ],
                [
                    [
                        0.013500703498721123,
                        -0.05403197556734085,
                        -0.04066452383995056,
                        -0.12915940582752228,
                        -0.14077985286712646,
                        -0.1679505705833435,
                        -0.008267580531537533,
                        0.06679442524909973,
                        -0.23901979625225067,
                        -0.09805085510015488,
                        -0.19901593029499054,
                        0.049402691423892975,
                        0.56496262550354,
                        0.4837905764579773,
                        0.1542392373085022,
                        0.28330492973327637,
                        0.09060109406709671,
                        0.2257988303899765,
                        -0.03191513195633888,
                        0.1154995933175087,
                        0.07689554989337921,
                        0.15642096102237701,
                        -0.11375758051872253,
                        -0.17831812798976898,
                        -0.17357498407363892,
                        0.008934051729738712,
                        0.2583101987838745,
                        0.32945385575294495,
                        0.3478759527206421,
                        0.14261078834533691,
                        -0.07270872592926025,
                        -0.04907744750380516,
                        0.2018030881881714,
                        -0.1351962834596634,
                        -0.11957510560750961,
                        0.2495889663696289,
                        0.35822486877441406,
                        0.2665899693965912,
                        0.032524723559617996,
                        0.0441131517291069,
                        -0.477344810962677,
                        -0.21918641030788422,
                        0.06561965495347977,
                        -0.0881553664803505,
                        0.05037648603320122,
                        -0.06341581046581268,
                        -0.07742033153772354,
                        0.10595860332250595
                    ],
                    [
                        -0.35180309414863586,
                        0.00586424395442009,
                        -0.20405276119709015,
                        -0.2352159172296524,
                        0.2581625282764435,
                        0.18595854938030243,
                        -0.10740615427494049,
                        -0.3261188864707947,
                        0.10217372328042984,
                        0.18707872927188873,
                        0.09272913634777069,
                        -0.07032285630702972,
                        -0.5514668226242065,
                        -0.7042205929756165,
                        -0.26098254323005676,
                        -0.7673152685165405,
                        -0.10918986797332764,
                        -0.22673551738262177,
                        -0.04156241565942764,
                        -0.7155158519744873,
                        0.14055278897285461,
                        -0.27931052446365356,
                        0.1534000188112259,
                        0.16071395576000214,
                        -0.46241816878318787,
                        0.19975242018699646,
                        -0.08794765919446945,
                        -0.5004249215126038,
                        -1.1431392431259155,
                        -0.6061773300170898,
                        0.3434838056564331,
                        0.4468211233615875,
                        -0.10498306900262833,
                        0.10030659288167953,
                        0.1471431702375412,
                        0.03723480552434921,
                        -0.2244192361831665,
                        -0.5171428918838501,
                        -0.20301903784275055,
                        -0.46490541100502014,
                        0.5755051374435425,
                        -0.3409213423728943,
                        -0.19653111696243286,
                        -0.26917263865470886,
                        -0.1097259595990181,
                        0.01574665866792202,
                        -0.03529885783791542,
                        -0.10952576994895935
                    ],
                    [
                        0.21099336445331573,
                        0.3531566262245178,
                        -0.1277107298374176,
                        0.04590388014912605,
                        -0.01072686817497015,
                        -0.21797791123390198,
                        -0.03602965548634529,
                        -0.1128133162856102,
                        -0.11490104347467422,
                        0.042477622628211975,
                        0.02100750245153904,
                        0.00986756756901741,
                        0.21126146614551544,
                        0.333988219499588,
                        -0.11867191642522812,
                        0.1529359519481659,
                        0.17984405159950256,
                        -0.10558319091796875,
                        -0.38013043999671936,
                        -0.1922856867313385,
                        0.2896096408367157,
                        -0.2007163166999817,
                        0.11575379222631454,
                        0.083339624106884,
                        -0.021985933184623718,
                        0.3320080637931824,
                        0.3208824694156647,
                        -0.1682274043560028,
                        -0.09252399951219559,
                        -0.44390976428985596,
                        0.40595725178718567,
                        0.19579696655273438,
                        -0.7873361706733704,
                        -0.0537867397069931,
                        0.2813405692577362,
                        0.2388734221458435,
                        0.2873271703720093,
                        0.14864832162857056,
                        -0.06629477441310883,
                        0.591347873210907,
                        0.07648883014917374,
                        -0.1960606873035431,
                        -0.06822676956653595,
                        0.20670631527900696,
                        0.13124333322048187,
                        -0.14105276763439178,
                        0.004051777999848127,
                        0.08968239277601242
                    ],
                    [
                        -0.3186265230178833,
                        -0.49154120683670044,
                        0.18789905309677124,
                        0.07887913286685944,
                        -0.03851289302110672,
                        -0.4078039526939392,
                        0.1872972548007965,
                        0.03497627377510071,
                        -0.09225232899188995,
                        -0.05200938135385513,
                        -0.06010979413986206,
                        0.16074296832084656,
                        0.3362469971179962,
                        0.1872808337211609,
                        0.2956223785877228,
                        0.3097379207611084,
                        0.30080121755599976,
                        -0.05890742316842079,
                        0.12177714705467224,
                        0.1384943723678589,
                        0.05781381204724312,
                        0.15259982645511627,
                        -0.16071029007434845,
                        -0.2079617828130722,
                        -0.04228438809514046,
                        0.13918736577033997,
                        0.1739085465669632,
                        0.14634783565998077,
                        0.38193511962890625,
                        -0.009060393087565899,
                        -0.1816442459821701,
                        -0.30810093879699707,
                        -0.2772700786590576,
                        -0.3063044846057892,
                        0.08664767444133759,
                        0.09112811088562012,
                        0.07693615555763245,
                        0.2604481875896454,
                        0.24783052504062653,
                        0.35833847522735596,
                        -0.11470077186822891,
                        -0.17960143089294434,
                        0.24714921414852142,
                        0.27734026312828064,
                        0.11984484642744064,
                        -0.1995839923620224,
                        -0.04059481993317604,
                        0.16864994168281555
                    ],
                    [
                        -0.31950652599334717,
                        -1.3193461894989014,
                        -0.20483288168907166,
                        -0.4821700155735016,
                        0.30705997347831726,
                        -0.6343392729759216,
                        0.06844772398471832,
                        0.015197635628283024,
                        -0.2260165512561798,
                        -0.31174424290657043,
                        -0.23354479670524597,
                        0.18661217391490936,
                        -0.17013868689537048,
                        -0.35422155261039734,
                        0.38350242376327515,
                        -0.43941938877105713,
                        0.465283066034317,
                        -0.5600422620773315,
                        0.03616892918944359,
                        0.07797320187091827,
                        0.5035540461540222,
                        0.03199584037065506,
                        0.11638163775205612,
                        0.0027062806766480207,
                        0.04521623253822327,
                        -0.19384561479091644,
                        -0.24398478865623474,
                        0.08845222741365433,
                        -0.2223976105451584,
                        0.3629532754421234,
                        -0.07162176817655563,
                        -0.08491069823503494,
                        -0.17575451731681824,
                        -0.08126753568649292,
                        -0.06591648608446121,
                        0.1574794054031372,
                        -0.2532850205898285,
                        -0.44942668080329895,
                        -0.030367957428097725,
                        -0.1929577887058258,
                        0.4769831597805023,
                        -0.19608701765537262,
                        0.1687006652355194,
                        -0.034382693469524384,
                        0.05490006506443024,
                        -0.15679174661636353,
                        -0.03424382209777832,
                        0.20282258093357086
                    ],
                    [
                        -0.2703733742237091,
                        -0.3710998594760895,
                        -0.1791146993637085,
                        0.038974933326244354,
                        -0.15765206515789032,
                        -0.23133477568626404,
                        -0.0016460426850244403,
                        0.10249771922826767,
                        -0.32789236307144165,
                        -0.25723984837532043,
                        -0.2400149255990982,
                        0.050426457077264786,
                        0.2735123634338379,
                        0.20947755873203278,
                        0.17774221301078796,
                        0.30914297699928284,
                        0.06693267077207565,
                        -0.15441085398197174,
                        -0.006711194291710854,
                        0.3658126890659332,
                        0.13523711264133453,
                        0.04899316653609276,
                        -0.09663020074367523,
                        -0.27006223797798157,
                        0.3798179030418396,
                        -0.18809202313423157,
                        0.42332595586776733,
                        0.31877151131629944,
                        0.3529771566390991,
                        0.0516384057700634,
                        -0.22468237578868866,
                        -0.09917043894529343,
                        0.15105709433555603,
                        -0.38338857889175415,
                        -0.3897765576839447,
                        0.33286920189857483,
                        -0.06508807092905045,
                        0.2965177595615387,
                        -0.06727074831724167,
                        0.1303507387638092,
                        -0.10127680003643036,
                        -0.05416826158761978,
                        0.09903330355882645,
                        0.07507184147834778,
                        -0.013831797987222672,
                        -0.15974123775959015,
                        -0.09325465559959412,
                        0.09650138765573502
                    ],
                    [
                        -0.21733538806438446,
                        0.0009509134106338024,
                        0.18882229924201965,
                        -0.026206504553556442,
                        0.4107421636581421,
                        0.07281740009784698,
                        0.31484588980674744,
                        0.3557569980621338,
                        0.16263873875141144,
                        0.4412320852279663,
                        0.17671462893486023,
                        -0.16687992215156555,
                        -0.34990036487579346,
                        0.038897555321455,
                        0.1849818378686905,
                        -0.12505574524402618,
                        0.3311643600463867,
                        0.0008881684625521302,
                        0.35350552201271057,
                        0.29627931118011475,
                        0.4759937822818756,
                        0.0750095471739769,
                        0.13146501779556274,
                        -0.1383226215839386,
                        -0.06923562288284302,
                        0.33865323662757874,
                        0.1189803034067154,
                        0.10133229196071625,
                        -0.2438507378101349,
                        0.055070169270038605,
                        0.16759561002254486,
                        -0.36713293194770813,
                        0.158208429813385,
                        -0.06466307491064072,
                        0.8640915751457214,
                        0.7208076119422913,
                        -0.0465264655649662,
                        -0.04184303432703018,
                        0.17962847650051117,
                        -0.03695240616798401,
                        0.5841734409332275,
                        0.10420016199350357,
                        0.33570966124534607,
                        0.31233736872673035,
                        0.2983517348766327,
                        0.14857323467731476,
                        0.17332303524017334,
                        -0.053015533834695816
                    ],
                    [
                        0.3944551646709442,
                        0.3418387174606323,
                        -0.12404558062553406,
                        -0.03820044547319412,
                        0.019805803894996643,
                        0.45201385021209717,
                        -0.21793293952941895,
                        -0.08303243666887283,
                        0.00977538712322712,
                        0.027725398540496826,
                        -0.018907852470874786,
                        -0.1005038321018219,
                        0.04189074784517288,
                        -0.46920764446258545,
                        -0.2741349935531616,
                        -0.157334566116333,
                        -0.41822779178619385,
                        0.14250154793262482,
                        -0.13992585241794586,
                        -0.1134825348854065,
                        -0.2023734152317047,
                        -0.22070036828517914,
                        0.07305878400802612,
                        0.1660700887441635,
                        0.23886190354824066,
                        -0.1548011302947998,
                        0.15531286597251892,
                        0.019024813547730446,
                        -0.36511996388435364,
                        -0.009320058859884739,
                        -0.0048613157123327255,
                        0.01138684805482626,
                        0.32940390706062317,
                        0.595897912979126,
                        0.02956266887485981,
                        0.06561841815710068,
                        0.10105140507221222,
                        -0.09510529041290283,
                        -0.18339554965496063,
                        -0.10637259483337402,
                        0.21687796711921692,
                        0.11739975959062576,
                        -0.296630322933197,
                        0.015933290123939514,
                        -0.23964957892894745,
                        0.09779693931341171,
                        -0.06225560978055,
                        -0.13314054906368256
                    ],
                    [
                        -0.2297099083662033,
                        -0.32812556624412537,
                        -0.33808472752571106,
                        0.2599858045578003,
                        0.14866097271442413,
                        0.11493711918592453,
                        0.010972613468766212,
                        0.05327090993523598,
                        -0.23214076459407806,
                        -0.4303548336029053,
                        -0.21699360013008118,
                        -0.007395314052700996,
                        -0.2594512403011322,
                        -0.20744910836219788,
                        -0.12313199043273926,
                        0.31963473558425903,
                        -0.23277026414871216,
                        0.16351936757564545,
                        0.26317349076271057,
                        0.13549689948558807,
                        -0.3624754846096039,
                        -0.20926648378372192,
                        -0.04947308823466301,
                        -0.3606419563293457,
                        0.3699438273906708,
                        0.053016990423202515,
                        0.6697070598602295,
                        0.9076074361801147,
                        0.18799911439418793,
                        0.5567004084587097,
                        -0.04880513995885849,
                        -0.5442238450050354,
                        0.19489486515522003,
                        -0.4993593096733093,
                        -0.6126776337623596,
                        -0.20578424632549286,
                        -0.46754947304725647,
                        -0.14778003096580505,
                        -0.203667551279068,
                        -0.15601767599582672,
                        -0.17211724817752838,
                        0.07058779150247574,
                        0.023634379729628563,
                        -0.18589553236961365,
                        -0.5538055896759033,
                        -0.2968469262123108,
                        -0.19763071835041046,
                        -0.10614555329084396
                    ],
                    [
                        0.1092008724808693,
                        -0.526010274887085,
                        0.23788656294345856,
                        -0.04120003059506416,
                        -0.39031699299812317,
                        0.009888412430882454,
                        -0.3909222483634949,
                        -0.2356361746788025,
                        0.4724646508693695,
                        0.0754753053188324,
                        0.34772980213165283,
                        0.21044953167438507,
                        0.4898831844329834,
                        0.4684865176677704,
                        -0.0823359414935112,
                        0.0017882948741316795,
                        -0.5603556036949158,
                        -0.011162892915308475,
                        -0.6110242009162903,
                        -0.4228803515434265,
                        0.3878669738769531,
                        -0.011141237802803516,
                        -0.1499684453010559,
                        0.3132524788379669,
                        0.36497706174850464,
                        -0.11731544882059097,
                        0.17788735032081604,
                        -0.08485252410173416,
                        0.5019209980964661,
                        0.5564388036727905,
                        0.05211620777845383,
                        0.12993869185447693,
                        0.12007223814725876,
                        0.45315420627593994,
                        -0.3738178014755249,
                        0.17016419768333435,
                        0.26593127846717834,
                        0.25476348400115967,
                        0.17097996175289154,
                        -0.04111863300204277,
                        -0.6038953065872192,
                        0.21717125177383423,
                        -0.2531457841396332,
                        -0.33747929334640503,
                        0.09599563479423523,
                        0.732643187046051,
                        0.33975040912628174,
                        0.3261232078075409
                    ],
                    [
                        -0.16425523161888123,
                        0.0143906744197011,
                        -0.1782768815755844,
                        -0.07038671523332596,
                        0.2863827049732208,
                        0.10014107078313828,
                        0.1165890097618103,
                        -0.059418272227048874,
                        -0.2009260654449463,
                        0.3202388882637024,
                        -0.0598120354115963,
                        -0.265163391828537,
                        -0.08209183812141418,
                        0.3748188018798828,
                        0.16890829801559448,
                        -0.039362408220767975,
                        0.20733457803726196,
                        0.2110726684331894,
                        0.42107731103897095,
                        -0.04639625549316406,
                        -0.10269378870725632,
                        0.5685182809829712,
                        -0.07446946203708649,
                        -0.24916715919971466,
                        -0.44050759077072144,
                        0.34960028529167175,
                        -0.8656002283096313,
                        -0.41372570395469666,
                        -0.3870791792869568,
                        -0.21815478801727295,
                        -0.24679267406463623,
                        0.3442091643810272,
                        0.6388246417045593,
                        0.17710842192173004,
                        0.06012856587767601,
                        0.44032037258148193,
                        -0.02631727233529091,
                        -0.09556493163108826,
                        -0.1031922772526741,
                        -0.33679988980293274,
                        0.11398740112781525,
                        0.018297187983989716,
                        0.08618641644716263,
                        -0.17120924592018127,
                        -0.07863429188728333,
                        0.32709529995918274,
                        -0.20917685329914093,
                        -0.2456464022397995
                    ],
                    [
                        0.17602549493312836,
                        0.26542559266090393,
                        0.12256065756082535,
                        0.02368251606822014,
                        -0.1954593062400818,
                        0.0009084484190680087,
                        -0.3180147707462311,
                        -0.15249130129814148,
                        -0.2815682590007782,
                        0.2701133191585541,
                        0.1932162493467331,
                        0.06652618199586868,
                        0.21275073289871216,
                        0.23651796579360962,
                        0.09055846929550171,
                        -0.0684187188744545,
                        -0.15231283009052277,
                        -0.009071537293493748,
                        -0.1763925552368164,
                        -0.08478989452123642,
                        0.09471191465854645,
                        0.7147282958030701,
                        0.4004500210285187,
                        0.014706725254654884,
                        -0.046057071536779404,
                        -0.020642662420868874,
                        0.0017226203344762325,
                        -0.5746642351150513,
                        -0.19079048931598663,
                        -0.050449542701244354,
                        -1.0609804391860962,
                        0.31637251377105713,
                        0.7849293947219849,
                        0.1893077939748764,
                        -0.8013662695884705,
                        -0.0130149582400918,
                        0.3227502405643463,
                        0.50485759973526,
                        0.042736250907182693,
                        0.13709910213947296,
                        -0.060067690908908844,
                        0.14096055924892426,
                        -0.0834544226527214,
                        0.06946256756782532,
                        0.23268376290798187,
                        0.6678258776664734,
                        0.38147491216659546,
                        0.09263412654399872
                    ]
                ],
                [
                    -0.7517790794372559,
                    -0.958289384841919,
                    -0.2805396020412445,
                    -0.32595235109329224,
                    0.1736685186624527,
                    -0.16753968596458435,
                    0.5204639434814453,
                    -0.3106269836425781,
                    0.05981570482254028,
                    0.024941010400652885,
                    -0.16491295397281647,
                    1.1625304222106934,
                    0.2851375937461853,
                    1.8811748027801514,
                    1.0654006004333496,
                    0.5471248626708984,
                    0.20585209131240845,
                    0.8925913572311401,
                    0.4448094964027405,
                    -0.0008986033499240875,
                    0.8230515718460083,
                    1.1021136045455933,
                    0.44098222255706787,
                    0.3418828248977661,
                    0.09107863903045654,
                    -0.061253298074007034,
                    0.031202610582113266,
                    -0.020402371883392334,
                    0.24749508500099182,
                    0.11432487517595291,
                    0.14353477954864502,
                    -0.14495742321014404,
                    -0.06208758056163788,
                    0.13693782687187195,
                    0.1379099041223526,
                    -0.11301299184560776,
                    0.18118464946746826,
                    0.2073947936296463,
                    0.5952409505844116,
                    0.0482611209154129,
                    -0.5290111303329468,
                    -0.6479242444038391,
                    0.7711895704269409,
                    -0.43282172083854675,
                    1.1036851406097412,
                    0.25871092081069946,
                    0.5633649826049805,
                    1.1175339221954346
                ]
            ]
        },
        {
            "type": "dense",
            "activation": "",
            "shape": [
                null,
                null,
                1
            ],
            "weights": [
                [
                    [
                        0.21223488450050354
                    ],
                    [
                        -0.21915790438652039
                    ],
                    [
                        0.21664641797542572
                    ],
                    [
                        0.40681812167167664
                    ],
                    [
                        0.17117604613304138
                    ],
                    [
                        0.031419068574905396
                    ],
                    [
                        -0.011333362199366093
                    ],
                    [
                        -0.26722872257232666
                    ],
                    [
                        -0.3004458248615265
                    ],
                    [
                        -0.2730856239795685
                    ],
                    [
                        0.1879129409790039
                    ],
                    [
                        0.1392473727464676
                    ]
                ],
                [
                    -0.17985586822032928
                ]
            ]
        }
    ],
    "samplerate": 48000.0,
    "author": "AIDA DSP",
    "esr": 0.04510387033224106
}
