{
    "in_shape": [
        null,
        null,
        1
    ],
    "out_gain": -5.7,
    "layers": [
        {
            "type": "lstm",
            "activation": "",
            "shape": [
                null,
                null,
                12
            ],
            "weights": [
                [
                    [
                        -0.31470441818237305,
                        -0.21743492782115936,
                        -0.2528170645236969,
                        -0.13023556768894196,
                        -0.18245059251785278,
                        0.05185654014348984,
                        0.3591720163822174,
                        0.3564862906932831,
                        -0.1039324477314949,
                        -0.07679205387830734,
                        -0.01847265660762787,
                        0.01638106070458889,
                        0.07876575738191605,
                        -0.3938790559768677,
                        -0.06970183551311493,
                        0.2953886389732361,
                        -0.2377694547176361,
                        0.136159747838974,
                        0.12121719866991043,
                        -0.1558827906847,
                        0.18600834906101227,
                        -0.28326669335365295,
                        0.06845764070749283,
                        -0.3753212094306946,
                        0.8010843992233276,
                        0.08373527973890305,
                        0.06812997907400131,
                        0.3293890058994293,
                        0.17240802943706512,
                        0.1724245697259903,
                        -0.1645137220621109,
                        -0.35252103209495544,
                        0.3043191134929657,
                        -0.004520463291555643,
                        -0.06832148879766464,
                        -0.25187307596206665,
                        -0.04918966069817543,
                        -0.05326223000884056,
                        1.126625418663025,
                        1.0998426675796509,
                        -0.22959572076797485,
                        -1.7546520233154297,
                        -0.046774353832006454,
                        0.4343314468860626,
                        0.09721659123897552,
                        -0.06330994516611099,
                        0.28930461406707764,
                        -0.007279754150658846
                    ]
                ],
                [
                    [
                        -0.13458621501922607,
                        0.2941679358482361,
                        0.10567593574523926,
                        -0.23556531965732574,
                        0.03162775933742523,
                        0.47253987193107605,
                        -0.7115538120269775,
                        -0.2808142304420471,
                        -0.23963013291358948,
                        0.04093986749649048,
                        0.33140063285827637,
                        0.45701271295547485,
                        -0.1959303319454193,
                        0.23209890723228455,
                        -0.3053250014781952,
                        0.36988818645477295,
                        0.3147205412387848,
                        -0.06808434426784515,
                        -0.262116014957428,
                        -0.43159034848213196,
                        -0.3240157961845398,
                        0.08185335993766785,
                        -0.7496930360794067,
                        0.23168425261974335,
                        0.5857301950454712,
                        -0.262951135635376,
                        0.15737347304821014,
                        -0.13702888786792755,
                        -0.4424141049385071,
                        0.3360861539840698,
                        0.7362537980079651,
                        -0.015345044434070587,
                        0.3413800299167633,
                        0.3138183653354645,
                        -0.0951293557882309,
                        0.6878908276557922,
                        -0.31081077456474304,
                        -0.10639788955450058,
                        -0.9286434054374695,
                        -0.31777292490005493,
                        -0.2769641578197479,
                        1.8127851486206055,
                        -0.4515361189842224,
                        0.0575483962893486,
                        -0.12932170927524567,
                        -0.0055023119784891605,
                        -0.6621646285057068,
                        -0.08495087921619415
                    ],
                    [
                        -0.2078523486852646,
                        -0.4781395494937897,
                        0.4866786599159241,
                        -0.1271364986896515,
                        -0.14183254539966583,
                        0.2688026428222656,
                        0.0787394791841507,
                        0.40912389755249023,
                        -0.016095442697405815,
                        -0.20542587339878082,
                        0.2526630461215973,
                        0.27295246720314026,
                        -0.071470707654953,
                        0.21924500167369843,
                        -0.2103033810853958,
                        -0.6001384854316711,
                        0.11189292371273041,
                        -0.008690291084349155,
                        0.07786674052476883,
                        0.1796354204416275,
                        -0.10196886956691742,
                        0.2240809053182602,
                        -0.5467665791511536,
                        -0.14834988117218018,
                        0.2533450722694397,
                        0.5172703266143799,
                        0.07062152773141861,
                        0.6048879623413086,
                        0.06066051498055458,
                        0.038090843707323074,
                        -0.2584681212902069,
                        -0.17645680904388428,
                        0.18153534829616547,
                        -0.312706857919693,
                        0.5091279149055481,
                        0.00094482401618734,
                        -0.29210343956947327,
                        -0.6840029954910278,
                        -0.043028078973293304,
                        -0.28783202171325684,
                        0.10205277055501938,
                        0.7177711725234985,
                        -0.336946964263916,
                        -0.09987729787826538,
                        -0.029043283313512802,
                        -0.2861030399799347,
                        0.5697044730186462,
                        0.06545432657003403
                    ],
                    [
                        -0.31271791458129883,
                        -0.2034088522195816,
                        0.18916520476341248,
                        -0.37693899869918823,
                        -0.6307743787765503,
                        0.2905123233795166,
                        0.7032991051673889,
                        0.7231354117393494,
                        0.024304743856191635,
                        -0.4492325484752655,
                        0.42382892966270447,
                        0.782558262348175,
                        0.15824946761131287,
                        -0.17460401356220245,
                        -1.0453050136566162,
                        -0.07623124867677689,
                        -0.2216571718454361,
                        -0.8701321482658386,
                        0.7875023484230042,
                        -1.0784211158752441,
                        -0.012416360899806023,
                        -0.12105090171098709,
                        -1.5294078588485718,
                        0.5207284688949585,
                        -0.7700144648551941,
                        -0.6668283939361572,
                        -0.03707586228847504,
                        0.20866058766841888,
                        0.6924077272415161,
                        0.043375223875045776,
                        -0.21571117639541626,
                        0.06676121801137924,
                        -0.0111367953941226,
                        -0.8194981217384338,
                        0.1467992514371872,
                        0.4811376631259918,
                        -0.4711315333843231,
                        -0.40117841958999634,
                        -1.096529245376587,
                        -0.08615536987781525,
                        -0.6140534281730652,
                        0.04338039830327034,
                        0.3892269432544708,
                        0.041168663650751114,
                        -0.31578901410102844,
                        -0.47995561361312866,
                        -0.4695143699645996,
                        -0.19603034853935242
                    ],
                    [
                        0.07730327546596527,
                        -0.3262665867805481,
                        -0.5880184769630432,
                        0.11124769598245621,
                        -0.029050087556242943,
                        -0.5647317171096802,
                        -0.1456800103187561,
                        -1.0044755935668945,
                        -0.42421361804008484,
                        0.32024723291397095,
                        -0.6156077980995178,
                        -0.12198645621538162,
                        0.09953056275844574,
                        0.6672411561012268,
                        1.0817720890045166,
                        -0.496756374835968,
                        -0.037698838859796524,
                        0.7704790830612183,
                        0.16185994446277618,
                        1.2269905805587769,
                        0.07522129267454147,
                        0.565630316734314,
                        1.1534671783447266,
                        0.5743051767349243,
                        -0.10743065923452377,
                        -0.5932796001434326,
                        -0.2973405718803406,
                        -0.4688724875450134,
                        -0.08826247602701187,
                        -0.29287123680114746,
                        0.028385508805513382,
                        0.03622734546661377,
                        -0.48873960971832275,
                        0.4887748658657074,
                        0.24683427810668945,
                        -0.29124316573143005,
                        0.3406563401222229,
                        0.26422613859176636,
                        0.20937706530094147,
                        0.4033195674419403,
                        -0.291174978017807,
                        -0.4966616928577423,
                        0.3941012918949127,
                        0.34986600279808044,
                        -0.29783934354782104,
                        0.2736896574497223,
                        0.47255179286003113,
                        0.20009444653987885
                    ],
                    [
                        0.044028013944625854,
                        0.30207517743110657,
                        0.3252374827861786,
                        -0.1008785143494606,
                        0.25279611349105835,
                        0.535601794719696,
                        -0.3752039968967438,
                        0.4724925458431244,
                        -0.02713504061102867,
                        0.2805348038673401,
                        0.359508752822876,
                        -0.02342955954372883,
                        0.06937869638204575,
                        -0.11967048048973083,
                        -0.12212969362735748,
                        0.16188357770442963,
                        -0.3380774259567261,
                        -0.26096266508102417,
                        -0.6332221627235413,
                        -0.44753527641296387,
                        -0.020956402644515038,
                        -0.47794127464294434,
                        0.7759014964103699,
                        -0.6315227150917053,
                        0.0012518583098426461,
                        -0.37172773480415344,
                        -0.2523304224014282,
                        0.17826570570468903,
                        0.26784390211105347,
                        -0.3869141936302185,
                        -0.9520658850669861,
                        -0.19168449938297272,
                        -0.6790513396263123,
                        0.4782158136367798,
                        -0.03522712364792824,
                        -0.3565913736820221,
                        0.017604028806090355,
                        0.36201727390289307,
                        0.36602407693862915,
                        -0.7217344045639038,
                        0.33840233087539673,
                        -0.4150044023990631,
                        -0.8436317443847656,
                        -0.15244823694229126,
                        0.20299792289733887,
                        0.25767263770103455,
                        0.5848208665847778,
                        0.10562954097986221
                    ],
                    [
                        0.5573002099990845,
                        0.34821656346321106,
                        0.03715159744024277,
                        0.35201436281204224,
                        0.2570487856864929,
                        0.021893495693802834,
                        0.08458680659532547,
                        -0.805623471736908,
                        0.10643824189901352,
                        0.31721484661102295,
                        -0.93412184715271,
                        0.6249287128448486,
                        0.2252737581729889,
                        -0.13069449365139008,
                        0.536986231803894,
                        0.037656258791685104,
                        -0.22886747121810913,
                        0.6412219405174255,
                        -0.08854560554027557,
                        0.9155909419059753,
                        -0.028376542031764984,
                        0.2900102734565735,
                        0.004403238650411367,
                        -0.1293216049671173,
                        -0.935570478439331,
                        -0.38485440611839294,
                        -0.1098257452249527,
                        0.8921574950218201,
                        0.6188529133796692,
                        -0.2265881448984146,
                        0.1558847874403,
                        0.09257993847131729,
                        -0.182422935962677,
                        -0.0058447495102882385,
                        0.36110153794288635,
                        0.29199519753456116,
                        0.366374135017395,
                        0.1241685152053833,
                        -0.4554046392440796,
                        0.9439767003059387,
                        0.19247566163539886,
                        1.5118385553359985,
                        0.15475523471832275,
                        0.3686474859714508,
                        0.22767198085784912,
                        0.3572086989879608,
                        0.12805816531181335,
                        0.5336825847625732
                    ],
                    [
                        -0.017832597717642784,
                        -0.1922054886817932,
                        0.08569002151489258,
                        0.03307805210351944,
                        -0.29060232639312744,
                        0.27430322766304016,
                        -0.8397498726844788,
                        -0.16320976614952087,
                        0.0461941622197628,
                        -0.32896724343299866,
                        0.27671101689338684,
                        -0.004996147006750107,
                        0.16553238034248352,
                        0.13246788084506989,
                        -0.0624404102563858,
                        -0.2812150716781616,
                        -0.39576131105422974,
                        -0.3244020342826843,
                        -0.3243345022201538,
                        -0.4301565885543823,
                        0.2642821669578552,
                        -0.2526663541793823,
                        -0.2595505714416504,
                        0.4536835253238678,
                        -0.32337895035743713,
                        0.4726612865924835,
                        0.2058880776166916,
                        -0.43779391050338745,
                        -0.20078156888484955,
                        0.10218151658773422,
                        0.5069736838340759,
                        -0.03852259740233421,
                        0.2727322578430176,
                        1.012880802154541,
                        0.013586354441940784,
                        -0.09251508861780167,
                        0.005717224907130003,
                        -0.10035355389118195,
                        0.3520442843437195,
                        1.0041558742523193,
                        -0.2773449122905731,
                        -0.12510059773921967,
                        -0.1955249309539795,
                        0.10005595535039902,
                        0.02985689602792263,
                        -0.2710177004337311,
                        0.465709924697876,
                        -0.10255718976259232
                    ],
                    [
                        0.1604471355676651,
                        0.008254223503172398,
                        -0.09582587331533432,
                        0.1848074495792389,
                        -0.09206435829401016,
                        -0.1311887800693512,
                        -0.12550882995128632,
                        0.14567549526691437,
                        0.12039793282747269,
                        0.07403751462697983,
                        -0.01851416379213333,
                        0.06857213377952576,
                        0.24079562723636627,
                        0.082438625395298,
                        0.09678800404071808,
                        0.10143496096134186,
                        0.41854581236839294,
                        0.18371596932411194,
                        0.06527635455131531,
                        0.22920382022857666,
                        0.04577792435884476,
                        0.0465189591050148,
                        -0.004232778679579496,
                        0.1597001552581787,
                        0.9350066184997559,
                        -0.2910937964916229,
                        0.05978889390826225,
                        0.4247485101222992,
                        0.0786057859659195,
                        0.43174806237220764,
                        -0.38860687613487244,
                        0.0265104528516531,
                        0.14622168242931366,
                        0.6712377667427063,
                        -0.22200803458690643,
                        0.4758107364177704,
                        0.1026245728135109,
                        0.07040716707706451,
                        0.10472574084997177,
                        -0.08926994353532791,
                        -0.032085031270980835,
                        -0.6024100184440613,
                        0.03649022430181503,
                        0.30753347277641296,
                        0.04992392286658287,
                        0.0629778578877449,
                        0.004893553908914328,
                        0.03278479352593422
                    ],
                    [
                        -0.08658149838447571,
                        -0.021336786448955536,
                        -0.1698109209537506,
                        -0.08517105877399445,
                        -0.16588416695594788,
                        -0.20908965170383453,
                        0.1801460087299347,
                        0.10229931026697159,
                        0.11662595719099045,
                        -0.150782510638237,
                        -0.4190792739391327,
                        0.5276429057121277,
                        -0.012227080762386322,
                        0.36956721544265747,
                        0.7054727673530579,
                        -0.16834864020347595,
                        -0.018650079146027565,
                        -0.08602846413850784,
                        -0.057379089295864105,
                        -0.024219641461968422,
                        0.18924809992313385,
                        -0.46679404377937317,
                        0.39315274357795715,
                        0.39386922121047974,
                        0.10439372807741165,
                        -0.5337772965431213,
                        -0.23360887169837952,
                        0.1014399528503418,
                        0.040018025785684586,
                        -0.09215743839740753,
                        -0.5061056613922119,
                        -0.4210894703865051,
                        0.1244535818696022,
                        0.3773043751716614,
                        0.2933308780193329,
                        0.3576340675354004,
                        0.020825935527682304,
                        -0.01890941709280014,
                        -0.04474060237407684,
                        0.3620418310165405,
                        -0.22285592555999756,
                        -0.1505613625049591,
                        0.2536764144897461,
                        -0.18975834548473358,
                        0.22775785624980927,
                        -0.16900648176670074,
                        0.05044202134013176,
                        0.1315579116344452
                    ],
                    [
                        -0.1252800077199936,
                        -0.4373558759689331,
                        -0.1794581115245819,
                        0.09833788871765137,
                        -0.16295519471168518,
                        0.10954583436250687,
                        0.0012416023528203368,
                        -0.1513349562883377,
                        -0.05391997471451759,
                        -0.08372357487678528,
                        0.6098872423171997,
                        1.011122226715088,
                        0.39234718680381775,
                        0.014107237569987774,
                        0.1013149544596672,
                        -0.4585517644882202,
                        0.05684266611933708,
                        0.20665588974952698,
                        0.0028189856093376875,
                        -0.21146924793720245,
                        0.25898638367652893,
                        -0.030095301568508148,
                        0.04671894386410713,
                        0.11996513605117798,
                        0.023580128327012062,
                        0.565582811832428,
                        -0.29691165685653687,
                        -0.7549407482147217,
                        0.14783206582069397,
                        0.13470059633255005,
                        -0.9080188274383545,
                        -0.30870139598846436,
                        -1.3661689758300781,
                        -0.28457823395729065,
                        0.27565860748291016,
                        1.3215429782867432,
                        0.03379390388727188,
                        0.06602269411087036,
                        -0.25351423025131226,
                        -0.6409516334533691,
                        -0.3884882628917694,
                        -0.06883111596107483,
                        0.7814136147499084,
                        0.1991691291332245,
                        -0.0656350776553154,
                        -0.12908950448036194,
                        0.5146395564079285,
                        0.017205065116286278
                    ],
                    [
                        -0.003788568312302232,
                        -0.3298707604408264,
                        -0.05261237174272537,
                        -0.0793553963303566,
                        -0.22260643541812897,
                        0.254366934299469,
                        0.7611326575279236,
                        0.5968241691589355,
                        0.11226877570152283,
                        -0.17396722733974457,
                        0.40763622522354126,
                        0.5174271464347839,
                        0.5483644604682922,
                        -0.4096446931362152,
                        -0.7672929167747498,
                        -0.041350625455379486,
                        -0.47324705123901367,
                        -0.05241447314620018,
                        0.05327555164694786,
                        -0.252745121717453,
                        0.37096869945526123,
                        -0.3070937693119049,
                        -0.5903910398483276,
                        0.2981671690940857,
                        -0.15336982905864716,
                        -0.09759186953306198,
                        0.36523503065109253,
                        0.6238129138946533,
                        -0.16977238655090332,
                        0.12589284777641296,
                        0.46710214018821716,
                        0.04823483154177666,
                        0.6652229428291321,
                        0.2871018052101135,
                        0.4233379065990448,
                        0.12101802974939346,
                        -0.023694170638918877,
                        -0.1733056902885437,
                        -0.262081503868103,
                        -0.10221380740404129,
                        -0.3989545702934265,
                        0.5128824710845947,
                        -0.2324945032596588,
                        0.23127053678035736,
                        0.017458323389291763,
                        -0.17353399097919464,
                        -0.6171450614929199,
                        0.14398565888404846
                    ],
                    [
                        0.1658191978931427,
                        0.18618163466453552,
                        -0.05798137187957764,
                        0.20075194537639618,
                        0.1341499537229538,
                        -0.23351095616817474,
                        0.9835679531097412,
                        0.00024444705923087895,
                        -0.3322920501232147,
                        0.2720772922039032,
                        -0.3897075951099396,
                        1.6311107873916626,
                        -0.04695864021778107,
                        -0.39878609776496887,
                        0.1836511194705963,
                        0.19980163872241974,
                        0.7433186769485474,
                        0.3333701491355896,
                        0.288553386926651,
                        0.6596506237983704,
                        -0.2164602428674698,
                        0.29129743576049805,
                        0.12059043347835541,
                        0.4574429988861084,
                        -0.09416049718856812,
                        0.31103017926216125,
                        0.23583677411079407,
                        0.29367971420288086,
                        0.6072525382041931,
                        -0.09291107952594757,
                        -0.41415131092071533,
                        -0.23339518904685974,
                        0.3313557207584381,
                        0.23084892332553864,
                        -0.08384567499160767,
                        0.7283233404159546,
                        0.144414022564888,
                        0.19325986504554749,
                        -0.09637442231178284,
                        -0.5459818243980408,
                        0.43307432532310486,
                        0.0682314783334732,
                        0.17744730412960052,
                        0.0628504753112793,
                        0.1100287139415741,
                        0.2674179673194885,
                        -0.15754681825637817,
                        1.3450117111206055
                    ]
                ],
                [
                    1.2149568796157837,
                    0.4554891586303711,
                    -1.6440792083740234,
                    0.9780179262161255,
                    -0.11316825449466705,
                    -0.6748107671737671,
                    0.21033549308776855,
                    -2.7865653038024902,
                    0.11792954057455063,
                    1.333913803100586,
                    -2.9189534187316895,
                    0.33541858196258545,
                    -0.02315298095345497,
                    0.415571391582489,
                    1.5354282855987549,
                    0.7171295881271362,
                    -0.02403419464826584,
                    1.61995267868042,
                    0.1388116329908371,
                    3.1491665840148926,
                    0.948043942451477,
                    0.07282903790473938,
                    3.1149280071258545,
                    0.5705274939537048,
                    -0.08331675082445145,
                    0.07923305034637451,
                    -0.17540663480758667,
                    0.6167497634887695,
                    -0.014148205518722534,
                    0.5985476970672607,
                    -0.08363834023475647,
                    0.06550072133541107,
                    0.4731608033180237,
                    -0.7009875774383545,
                    -0.15387357771396637,
                    0.3659512400627136,
                    1.5834014415740967,
                    0.7816147804260254,
                    0.4776078760623932,
                    0.2960304319858551,
                    0.3353652358055115,
                    0.18681618571281433,
                    0.8112199306488037,
                    0.2517990469932556,
                    0.8790754079818726,
                    1.5669023990631104,
                    -0.22422200441360474,
                    0.726917028427124
                ]
            ]
        },
        {
            "type": "dense",
            "activation": "",
            "shape": [
                null,
                null,
                1
            ],
            "weights": [
                [
                    [
                        -0.28698816895484924
                    ],
                    [
                        -1.5670183897018433
                    ],
                    [
                        -0.3477288484573364
                    ],
                    [
                        -0.14701144397258759
                    ],
                    [
                        0.10372763127088547
                    ],
                    [
                        -0.863436758518219
                    ],
                    [
                        -0.5321261286735535
                    ],
                    [
                        0.03877777233719826
                    ],
                    [
                        -0.2977280020713806
                    ],
                    [
                        1.2117106914520264
                    ],
                    [
                        0.09782450646162033
                    ],
                    [
                        -0.11652955412864685
                    ]
                ],
                [
                    -0.04203827679157257
                ]
            ]
        }
    ],
    "samplerate": 48000.0,
    "author": "AIDA DSP",
    "esr": 0.01863781549036503
}
