{
    "in_shape": [
        null,
        null,
        1
    ],
    "out_gain": -4,
    "layers": [
        {
            "type": "lstm",
            "activation": "",
            "shape": [
                null,
                null,
                12
            ],
            "weights": [
                [
                    [
                        -0.29265108704566956,
                        -0.17206311225891113,
                        0.17688043415546417,
                        -0.2818956971168518,
                        0.25878316164016724,
                        0.007556712254881859,
                        -0.5395508408546448,
                        -0.13533523678779602,
                        0.006051982287317514,
                        -0.05135786533355713,
                        -0.0065666320733726025,
                        0.2809888422489166,
                        0.5377776026725769,
                        0.1198793277144432,
                        0.2355756014585495,
                        0.307824045419693,
                        -0.08432910591363907,
                        -0.3857702314853668,
                        0.45675840973854065,
                        0.3891281187534332,
                        0.3371199071407318,
                        -0.13174165785312653,
                        0.034289803355932236,
                        0.0876670852303505,
                        0.6061074733734131,
                        0.2529353201389313,
                        1.1285237073898315,
                        -0.05554216727614403,
                        -0.40220633149147034,
                        -1.2003763914108276,
                        -0.11492614448070526,
                        -0.5270195007324219,
                        0.6207677721977234,
                        -0.42225298285484314,
                        -0.4440746605396271,
                        -0.07849999517202377,
                        0.12223728001117706,
                        -0.48122474551200867,
                        0.44257989525794983,
                        -0.08623075485229492,
                        0.03843355178833008,
                        0.0076370094902813435,
                        0.18675659596920013,
                        -0.1716368943452835,
                        0.247308611869812,
                        -0.19914233684539795,
                        -0.06474250555038452,
                        0.2886403203010559
                    ]
                ],
                [
                    [
                        0.2355344593524933,
                        -0.38738876581192017,
                        0.2947569489479065,
                        -0.9303654432296753,
                        0.39863064885139465,
                        0.46059203147888184,
                        -1.1778866052627563,
                        -0.14421287178993225,
                        0.009324632585048676,
                        -0.23091042041778564,
                        0.7184351086616516,
                        -0.03598218783736229,
                        0.20347851514816284,
                        0.5827726721763611,
                        0.19682948291301727,
                        1.0272589921951294,
                        0.5313827991485596,
                        -0.10176698863506317,
                        1.020975112915039,
                        0.8389511108398438,
                        0.4138762056827545,
                        0.21516971290111542,
                        0.37638869881629944,
                        0.12246597558259964,
                        0.32147645950317383,
                        0.37643638253211975,
                        0.3966294527053833,
                        0.35980933904647827,
                        0.0933651551604271,
                        0.48294270038604736,
                        -0.23236125707626343,
                        -0.38440418243408203,
                        0.4707892835140228,
                        0.03012903779745102,
                        0.6032920479774475,
                        -0.5555986762046814,
                        0.35385051369667053,
                        0.07382773607969284,
                        0.16751834750175476,
                        -0.2114187777042389,
                        0.1047685295343399,
                        0.40781646966934204,
                        0.1850627362728119,
                        0.2388789802789688,
                        0.558006227016449,
                        0.02621448040008545,
                        0.8615200519561768,
                        0.2738737463951111
                    ],
                    [
                        -0.18829989433288574,
                        0.005885432939976454,
                        -0.06362654268741608,
                        -0.515341579914093,
                        0.2686265707015991,
                        0.09893286228179932,
                        -0.048174720257520676,
                        0.08792263269424438,
                        -0.00040024807094596326,
                        -0.07342075556516647,
                        0.028711838647723198,
                        0.3347843885421753,
                        -0.17190642654895782,
                        0.13482898473739624,
                        0.5556599497795105,
                        0.12000968307256699,
                        0.22489488124847412,
                        -0.033306293189525604,
                        0.07259849458932877,
                        0.15592063963413239,
                        0.14254415035247803,
                        -0.15743601322174072,
                        0.13096360862255096,
                        0.013508273288607597,
                        -0.5954691767692566,
                        0.14084981381893158,
                        -0.6530100107192993,
                        -0.3228842318058014,
                        0.5675990581512451,
                        -0.10114806145429611,
                        -0.1228564977645874,
                        -0.15123480558395386,
                        -0.4630201756954193,
                        -0.6623018980026245,
                        -0.2580857574939728,
                        -0.09434595704078674,
                        0.06376048177480698,
                        -0.12782235443592072,
                        0.0025257891975343227,
                        -0.5900285840034485,
                        0.14356592297554016,
                        0.08009976148605347,
                        0.09289488941431046,
                        -0.26621124148368835,
                        0.1387445628643036,
                        -0.1578245311975479,
                        -0.6292157769203186,
                        -0.13680259883403778
                    ],
                    [
                        -0.18661171197891235,
                        -0.0702468752861023,
                        -0.25797075033187866,
                        0.8359926342964172,
                        0.15437082946300507,
                        -0.16662323474884033,
                        0.5414135456085205,
                        0.028027886524796486,
                        -0.06743819266557693,
                        0.23100262880325317,
                        -0.4402438700199127,
                        0.4044690728187561,
                        -0.33930256962776184,
                        -0.32879868149757385,
                        -0.34775882959365845,
                        -0.8533060550689697,
                        -0.6090598106384277,
                        0.5055521130561829,
                        -0.44647684693336487,
                        -0.48496079444885254,
                        0.012137583456933498,
                        -0.16921886801719666,
                        -0.38868480920791626,
                        -0.26444536447525024,
                        -0.6521474123001099,
                        0.5581687092781067,
                        -0.24481919407844543,
                        0.7552778124809265,
                        -0.0366312712430954,
                        0.9424445033073425,
                        -0.31985750794410706,
                        -0.5810510516166687,
                        0.3523995876312256,
                        0.34333276748657227,
                        1.9292593002319336,
                        -0.8514459133148193,
                        -0.3345499634742737,
                        -0.5852597951889038,
                        -0.5381439924240112,
                        -0.3136548697948456,
                        -1.0348254442214966,
                        0.1422351449728012,
                        -0.15746837854385376,
                        -0.2596985399723053,
                        -0.12657292187213898,
                        -0.07925742119550705,
                        -0.28587284684181213,
                        -0.06952052563428879
                    ],
                    [
                        0.12347238510847092,
                        0.23932650685310364,
                        -0.10390651971101761,
                        -0.23011334240436554,
                        0.049798499792814255,
                        -0.023031234741210938,
                        -0.0810442864894867,
                        0.0017000699881464243,
                        0.2978580892086029,
                        0.1319163292646408,
                        -0.0217271838337183,
                        -0.07506149262189865,
                        0.19665765762329102,
                        0.35062140226364136,
                        -0.3957853317260742,
                        0.09610948711633682,
                        -0.26871320605278015,
                        0.07716434448957443,
                        0.0622546412050724,
                        -0.1192183867096901,
                        -0.12568041682243347,
                        0.19998927414417267,
                        -0.2654125392436981,
                        -0.5087730288505554,
                        0.02920926734805107,
                        0.09029054641723633,
                        -0.09013886749744415,
                        0.7705509662628174,
                        0.39017394185066223,
                        -0.36350104212760925,
                        -0.3944035470485687,
                        -0.7043260931968689,
                        -0.07493708282709122,
                        -0.4213673770427704,
                        -0.9200147986412048,
                        -0.30921855568885803,
                        0.12984585762023926,
                        0.17719770967960358,
                        -0.0894794687628746,
                        -0.15422463417053223,
                        -0.07697916030883789,
                        -0.02777804061770439,
                        -0.1539144515991211,
                        -0.044771235436201096,
                        0.15967020392417908,
                        0.25866007804870605,
                        -0.12790462374687195,
                        -0.09048940986394882
                    ],
                    [
                        0.05460817739367485,
                        0.05291634052991867,
                        0.11963369697332382,
                        -0.36108002066612244,
                        -0.17079544067382812,
                        0.14466948807239532,
                        -0.37388989329338074,
                        -0.31919968128204346,
                        0.12510846555233002,
                        -0.028757700696587563,
                        0.22589577734470367,
                        0.003585678758099675,
                        -0.5036115050315857,
                        -0.13877421617507935,
                        0.1367565393447876,
                        0.3789967894554138,
                        0.14759066700935364,
                        0.02962362952530384,
                        0.5619910955429077,
                        0.5717279314994812,
                        0.21821391582489014,
                        0.09974787384271622,
                        -0.28794804215431213,
                        0.21124953031539917,
                        -0.9401257634162903,
                        -0.4147862493991852,
                        0.36228063702583313,
                        -0.32995155453681946,
                        0.2682656943798065,
                        -0.8890891671180725,
                        0.25805097818374634,
                        -0.30350229144096375,
                        1.5811339616775513,
                        0.25712496042251587,
                        -0.9981722831726074,
                        0.21415723860263824,
                        0.1647087186574936,
                        0.19954192638397217,
                        -0.014616102911531925,
                        -0.19937516748905182,
                        0.36739790439605713,
                        0.04555721580982208,
                        -0.12270552664995193,
                        0.063944973051548,
                        0.1385955959558487,
                        -0.08608443289995193,
                        -0.03946700692176819,
                        0.07178939878940582
                    ],
                    [
                        0.04917319864034653,
                        -0.3099423944950104,
                        0.2926349341869354,
                        -0.4831100404262543,
                        0.4051376283168793,
                        0.14823617041110992,
                        -0.749250054359436,
                        -0.39034420251846313,
                        0.32867681980133057,
                        0.07046244293451309,
                        0.3261285424232483,
                        -0.04222108796238899,
                        0.19315917789936066,
                        0.14287197589874268,
                        0.2786497175693512,
                        0.6359075903892517,
                        0.019858332350850105,
                        -0.21855531632900238,
                        0.7303285002708435,
                        0.5853592753410339,
                        -0.19271418452262878,
                        0.1721896529197693,
                        -0.08780303597450256,
                        0.129607692360878,
                        0.09750766307115555,
                        -0.21840789914131165,
                        -0.5751824378967285,
                        0.2886742055416107,
                        0.36974379420280457,
                        -0.6312514543533325,
                        -0.003614859189838171,
                        -0.2513984739780426,
                        -0.3638472855091095,
                        0.09096287190914154,
                        1.4413877725601196,
                        -0.42086338996887207,
                        0.23147642612457275,
                        -0.4210066497325897,
                        0.814713716506958,
                        0.09669192135334015,
                        0.46051910519599915,
                        0.6074475049972534,
                        -0.19944748282432556,
                        0.4680144786834717,
                        0.2612321078777313,
                        -0.053644295781850815,
                        0.7530633807182312,
                        0.4810727536678314
                    ],
                    [
                        0.09045960009098053,
                        0.32492929697036743,
                        0.07640308886766434,
                        -0.02930212765932083,
                        0.04331047832965851,
                        -0.06664495915174484,
                        -0.22798530757427216,
                        0.044151999056339264,
                        0.10424886643886566,
                        0.06796041876077652,
                        -0.07097463309764862,
                        0.1570657342672348,
                        -0.24313019216060638,
                        -0.0190865658223629,
                        -0.36713165044784546,
                        0.061557017266750336,
                        -0.08809753507375717,
                        -0.02695378288626671,
                        0.18904590606689453,
                        -0.32326868176460266,
                        0.12003481388092041,
                        0.13248397409915924,
                        -0.6424316167831421,
                        -0.32025471329689026,
                        0.2628781795501709,
                        -0.20988182723522186,
                        0.08793260157108307,
                        0.2560851573944092,
                        -0.4310280382633209,
                        0.27220284938812256,
                        0.9023876190185547,
                        -0.055033840239048004,
                        0.14814069867134094,
                        0.18625831604003906,
                        -0.04810250550508499,
                        0.5605798959732056,
                        -0.1847979873418808,
                        0.1399676650762558,
                        0.024173550307750702,
                        -0.004953097552061081,
                        0.13063320517539978,
                        -0.07574591040611267,
                        -0.30686646699905396,
                        -0.1460154801607132,
                        0.09784046560525894,
                        0.16596382856369019,
                        -0.11088631302118301,
                        0.052992191165685654
                    ],
                    [
                        0.20637935400009155,
                        -0.39435499906539917,
                        0.04343952238559723,
                        -0.2756987512111664,
                        -0.3498023748397827,
                        -0.008301731199026108,
                        -0.5672886967658997,
                        -0.09865004569292068,
                        -0.35706689953804016,
                        0.08872811496257782,
                        0.32905033230781555,
                        -0.1272239089012146,
                        0.039854008704423904,
                        0.14457833766937256,
                        0.26088330149650574,
                        0.6056608557701111,
                        0.09078522026538849,
                        -0.19247646629810333,
                        0.5819149017333984,
                        0.7320983409881592,
                        0.3036055862903595,
                        0.2883095145225525,
                        0.6231538653373718,
                        0.5059185028076172,
                        0.044043611735105515,
                        -0.026783837005496025,
                        0.5399990081787109,
                        -0.18655964732170105,
                        0.07078862935304642,
                        -0.025804031640291214,
                        0.12322896718978882,
                        0.38196811079978943,
                        0.09867441654205322,
                        0.11835988610982895,
                        0.5101214051246643,
                        0.49891191720962524,
                        0.2362443059682846,
                        0.10244694352149963,
                        0.13644230365753174,
                        -0.06343159824609756,
                        0.2730966806411743,
                        -0.009288015775382519,
                        0.3954956829547882,
                        0.49887633323669434,
                        -0.2207212746143341,
                        0.07827255874872208,
                        0.7593460083007812,
                        0.3795345723628998
                    ],
                    [
                        0.4293762743473053,
                        0.001043075928464532,
                        -0.024076011031866074,
                        -0.3878721296787262,
                        -0.23682133853435516,
                        0.26485422253608704,
                        -0.42610830068588257,
                        -0.040448252111673355,
                        0.4229185879230499,
                        -0.02472514472901821,
                        0.33736610412597656,
                        -0.3666152060031891,
                        0.41269776225090027,
                        0.3979068398475647,
                        0.4669693410396576,
                        0.8939740657806396,
                        -0.19794149696826935,
                        -0.004040383268147707,
                        0.36100101470947266,
                        0.7476831078529358,
                        0.012915351428091526,
                        0.40348175168037415,
                        -0.000640491081867367,
                        0.41544634103775024,
                        -1.3835384845733643,
                        0.22593601047992706,
                        -1.45587956905365,
                        0.024459222331643105,
                        -0.8103265166282654,
                        0.12067552655935287,
                        0.008562367409467697,
                        -0.30755794048309326,
                        0.058485180139541626,
                        -0.45323002338409424,
                        -0.25196704268455505,
                        -0.5345381498336792,
                        0.43161705136299133,
                        0.06366263329982758,
                        0.17596827447414398,
                        -0.2895391881465912,
                        -0.38955098390579224,
                        0.2994561493396759,
                        0.025561677291989326,
                        0.35460180044174194,
                        0.5015589594841003,
                        0.0355483815073967,
                        0.16488324105739594,
                        0.11707345396280289
                    ],
                    [
                        0.05655469372868538,
                        -0.18522796034812927,
                        -0.04091853275895119,
                        0.02747306041419506,
                        -0.1432165801525116,
                        -0.2585753798484802,
                        0.3127046227455139,
                        0.2435678392648697,
                        -0.10326113551855087,
                        -0.0856461301445961,
                        -0.12318859994411469,
                        -0.13093701004981995,
                        0.04420215263962746,
                        0.09886438399553299,
                        -0.20416811108589172,
                        -0.1472979635000229,
                        0.13230112195014954,
                        -0.19494232535362244,
                        -0.25816285610198975,
                        -0.05866178125143051,
                        0.0324280671775341,
                        -0.22647470235824585,
                        0.3660286068916321,
                        0.0008905992144718766,
                        -0.3249821364879608,
                        -0.1726178526878357,
                        0.08446576446294785,
                        0.23037005960941315,
                        -0.34960678219795227,
                        -0.12955713272094727,
                        -0.1564306914806366,
                        -0.1277329921722412,
                        0.3037978708744049,
                        0.46158984303474426,
                        0.16010767221450806,
                        -0.26373133063316345,
                        -0.0074037970043718815,
                        -0.19746117293834686,
                        -0.023087607696652412,
                        0.7889425754547119,
                        0.04092001914978027,
                        -0.19154824316501617,
                        0.1107778400182724,
                        0.39442500472068787,
                        -0.14419680833816528,
                        -0.029463211074471474,
                        -0.24653209745883942,
                        0.00015670343418605626
                    ],
                    [
                        -0.10384152829647064,
                        -0.3645217716693878,
                        0.34736114740371704,
                        0.16394378244876862,
                        -0.02520359866321087,
                        -0.3640509247779846,
                        -0.009383795782923698,
                        0.00725238723680377,
                        -0.03300090134143829,
                        0.1810326874256134,
                        0.006375669501721859,
                        -0.06615697592496872,
                        -0.06477563828229904,
                        -0.5356753468513489,
                        0.2988039553165436,
                        -0.2294912189245224,
                        0.10017505288124084,
                        -0.47441500425338745,
                        0.12849178910255432,
                        0.1563941240310669,
                        -0.010266123339533806,
                        0.003806454362347722,
                        -0.11865269392728806,
                        0.025520972907543182,
                        -0.023527145385742188,
                        0.04124770686030388,
                        -0.18727950751781464,
                        0.06924277544021606,
                        0.01922282762825489,
                        -0.18960684537887573,
                        0.4357319474220276,
                        -0.2797095775604248,
                        -0.0722823217511177,
                        0.06920377165079117,
                        -0.20755137503147125,
                        -0.2582768499851227,
                        -0.22166109085083008,
                        -0.2619718909263611,
                        0.21660402417182922,
                        -0.31203317642211914,
                        -0.0287679024040699,
                        -0.6776478886604309,
                        -0.16960126161575317,
                        -0.16365160048007965,
                        0.13540875911712646,
                        0.39953240752220154,
                        0.09606549143791199,
                        0.12321601063013077
                    ],
                    [
                        0.36984094977378845,
                        0.35857099294662476,
                        0.13125142455101013,
                        -0.36900413036346436,
                        -0.14060989022254944,
                        0.07050163298845291,
                        0.00881936028599739,
                        0.33101406693458557,
                        0.2633822560310364,
                        -0.009459407068789005,
                        0.1570739895105362,
                        -0.29098692536354065,
                        0.3299320638179779,
                        0.11930499970912933,
                        0.13043679296970367,
                        -0.1658996045589447,
                        0.3965918719768524,
                        -0.20343852043151855,
                        0.12960189580917358,
                        -0.26017817854881287,
                        0.3437158167362213,
                        0.035620495676994324,
                        0.849608838558197,
                        0.018994584679603577,
                        0.35609564185142517,
                        -0.42723363637924194,
                        0.6883144974708557,
                        0.5527572631835938,
                        -0.39040127396583557,
                        -0.006452412344515324,
                        -0.08592677861452103,
                        -0.07483373582363129,
                        0.19893956184387207,
                        0.187669575214386,
                        0.7223697304725647,
                        0.3696357011795044,
                        0.16367588937282562,
                        0.24000346660614014,
                        0.06813621520996094,
                        -0.7592110633850098,
                        0.3683525621891022,
                        0.09310684353113174,
                        0.08258091658353806,
                        -0.07515516132116318,
                        0.023027749732136726,
                        0.0618867352604866,
                        -0.20951561629772186,
                        -0.07628432661294937
                    ]
                ],
                [
                    0.569989800453186,
                    -0.5389307737350464,
                    0.9673881530761719,
                    -2.4071154594421387,
                    0.37956199049949646,
                    1.4664838314056396,
                    -2.3270058631896973,
                    -1.3097496032714844,
                    0.7574850916862488,
                    -0.40685099363327026,
                    2.0504252910614014,
                    -0.6027498245239258,
                    0.6572787761688232,
                    0.9232942461967468,
                    0.3495372533798218,
                    3.0172300338745117,
                    -0.005767546594142914,
                    -0.04432804509997368,
                    3.4223954677581787,
                    1.8889076709747314,
                    0.30849549174308777,
                    0.6537024974822998,
                    0.27275732159614563,
                    1.3950612545013428,
                    0.47643721103668213,
                    0.14669500291347504,
                    -0.2058355212211609,
                    0.04924649000167847,
                    0.10702989250421524,
                    0.6026021242141724,
                    -0.07204526662826538,
                    0.274480938911438,
                    -0.2725116014480591,
                    -0.071815624833107,
                    0.10123331099748611,
                    0.21037019789218903,
                    1.544176459312439,
                    0.18764740228652954,
                    1.3111820220947266,
                    0.5034385919570923,
                    0.6309986114501953,
                    1.3944461345672607,
                    -0.1323138177394867,
                    0.4249975383281708,
                    1.1019238233566284,
                    0.00961398333311081,
                    -0.8374882340431213,
                    0.6166888475418091
                ]
            ]
        },
        {
            "type": "dense",
            "activation": "",
            "shape": [
                null,
                null,
                1
            ],
            "weights": [
                [
                    [
                        0.0406356006860733
                    ],
                    [
                        -0.1090167835354805
                    ],
                    [
                        0.09141772985458374
                    ],
                    [
                        0.03582422807812691
                    ],
                    [
                        0.11254610866308212
                    ],
                    [
                        0.012487629428505898
                    ],
                    [
                        -0.10317937284708023
                    ],
                    [
                        -0.04797472432255745
                    ],
                    [
                        0.010177907533943653
                    ],
                    [
                        -0.33059704303741455
                    ],
                    [
                        1.044871211051941
                    ],
                    [
                        0.021854445338249207
                    ]
                ],
                [
                    -0.13384030759334564
                ]
            ]
        }
    ],
    "samplerate": 48000.0,
    "author": "AIDA DSP",
    "esr": 0.022775335237383842
}
