{
    "in_shape": [
        null,
        null,
        1
    ],
    "out_gain": -5,
    "layers": [
        {
            "type": "lstm",
            "activation": "",
            "shape": [
                null,
                null,
                12
            ],
            "weights": [
                [
                    [
                        -0.4047755300998688,
                        -1.0293705463409424,
                        0.07069259136915207,
                        -0.30403321981430054,
                        -0.056718748062849045,
                        -0.26622217893600464,
                        -0.4064013361930847,
                        -0.20448192954063416,
                        -0.019801627844572067,
                        0.3828338086605072,
                        -0.23186515271663666,
                        -0.007175771985203028,
                        -0.48480722308158875,
                        -0.23690402507781982,
                        0.006493350025266409,
                        0.14787934720516205,
                        0.20055752992630005,
                        -0.11578579992055893,
                        0.1262102872133255,
                        0.11240001022815704,
                        -0.08050625771284103,
                        0.04053965210914612,
                        0.08774904161691666,
                        -0.09379468858242035,
                        -0.23643362522125244,
                        0.055930737406015396,
                        -0.0387076810002327,
                        -0.7681126594543457,
                        -0.8306254744529724,
                        -0.16107052564620972,
                        0.7270514369010925,
                        -0.2382364720106125,
                        0.25400179624557495,
                        -0.20083940029144287,
                        -0.0736946165561676,
                        -0.16059696674346924,
                        0.5050779581069946,
                        0.4703933894634247,
                        -0.22335892915725708,
                        -0.06961224973201752,
                        -0.245850071310997,
                        1.176296591758728,
                        -0.16192445158958435,
                        0.06891991198062897,
                        0.3518177270889282,
                        -0.25248807668685913,
                        -0.07520122826099396,
                        -0.11931437253952026
                    ]
                ],
                [
                    [
                        0.9691903591156006,
                        -0.42395657300949097,
                        0.10142122209072113,
                        0.232383593916893,
                        0.11069068312644958,
                        0.007188679650425911,
                        -0.26598435640335083,
                        -0.49568089842796326,
                        -0.37438762187957764,
                        -0.44060635566711426,
                        -0.1628589630126953,
                        -0.5075116753578186,
                        -0.0330752432346344,
                        0.3279955983161926,
                        0.30903685092926025,
                        0.004495487082749605,
                        0.14321917295455933,
                        -0.03202354907989502,
                        0.04601738601922989,
                        0.42280855774879456,
                        0.6133578419685364,
                        -0.1281198263168335,
                        0.6661635637283325,
                        0.3351803123950958,
                        -0.18060845136642456,
                        0.21533052623271942,
                        -0.26593413949012756,
                        0.11852432042360306,
                        0.32455793023109436,
                        -0.20841240882873535,
                        -0.1135055348277092,
                        -0.4272831380367279,
                        0.04473818838596344,
                        0.08243366330862045,
                        0.02887505292892456,
                        0.1428225338459015,
                        0.2636750638484955,
                        -0.5753188729286194,
                        0.1179962158203125,
                        0.28344136476516724,
                        -0.1728665679693222,
                        0.44549036026000977,
                        -0.29788023233413696,
                        -0.13725048303604126,
                        -0.10328346490859985,
                        -0.3721373379230499,
                        0.4119434952735901,
                        0.08613584190607071
                    ],
                    [
                        -0.7378445267677307,
                        0.018094502389431,
                        -0.21818846464157104,
                        -0.6354956030845642,
                        -0.8613002300262451,
                        -0.07910894602537155,
                        -0.1371465027332306,
                        0.7518988251686096,
                        -0.6723288297653198,
                        0.19525590538978577,
                        -0.09181337058544159,
                        1.3218342065811157,
                        -1.1377874612808228,
                        -0.24119055271148682,
                        -0.23104430735111237,
                        0.11505846679210663,
                        -0.034073587507009506,
                        -0.5272660255432129,
                        -0.13355711102485657,
                        -0.8502663373947144,
                        0.06815155595541,
                        -0.6778867840766907,
                        -0.036373477429151535,
                        -1.1399812698364258,
                        -0.5561826825141907,
                        0.051342517137527466,
                        -0.03178421035408974,
                        0.013810820877552032,
                        0.08895791321992874,
                        -0.2126101404428482,
                        0.16790801286697388,
                        -0.17152388393878937,
                        -0.3992065191268921,
                        -0.1700362265110016,
                        -0.1533774882555008,
                        -0.10115394741296768,
                        -0.402155339717865,
                        -0.37364187836647034,
                        -0.20996490120887756,
                        -0.46916481852531433,
                        -1.3416229486465454,
                        -0.1922006458044052,
                        -0.303301066160202,
                        -0.3698565363883972,
                        -0.021729927510023117,
                        0.48279404640197754,
                        -0.5738362669944763,
                        -0.41414716839790344
                    ],
                    [
                        0.0501716174185276,
                        0.05408691242337227,
                        0.033173855394124985,
                        0.05851557478308678,
                        -0.24966605007648468,
                        -0.18754516541957855,
                        -0.0012691725278273225,
                        0.8734617829322815,
                        0.13913094997406006,
                        0.3714745342731476,
                        0.05010967329144478,
                        0.6407328248023987,
                        0.0723971277475357,
                        -0.15950316190719604,
                        -0.2764763832092285,
                        0.24235160648822784,
                        -0.3994623124599457,
                        -0.48554176092147827,
                        -0.010263151489198208,
                        -1.097699761390686,
                        -0.1705331802368164,
                        -0.20646297931671143,
                        -0.07566778361797333,
                        -0.5237699747085571,
                        0.5664365291595459,
                        -0.3756486475467682,
                        0.16984979808330536,
                        -0.8790034055709839,
                        1.0113266706466675,
                        0.00268115708604455,
                        0.1776951551437378,
                        0.17905883491039276,
                        0.26274585723876953,
                        0.07681045681238174,
                        0.3836423456668854,
                        0.2623063027858734,
                        -0.15336330235004425,
                        -0.22448433935642242,
                        -0.4272286295890808,
                        -0.11077012121677399,
                        -0.15585067868232727,
                        0.33787545561790466,
                        -0.1420799046754837,
                        -0.0567893348634243,
                        -0.013827096670866013,
                        0.01640402525663376,
                        -0.07603535801172256,
                        -0.162190243601799
                    ],
                    [
                        0.18070931732654572,
                        0.24173565208911896,
                        0.16704323887825012,
                        -0.10382292419672012,
                        -0.34371984004974365,
                        0.006563400384038687,
                        -0.16495013236999512,
                        -0.35454481840133667,
                        -0.17854391038417816,
                        0.44837671518325806,
                        0.6315096020698547,
                        -0.09913870692253113,
                        -0.2572474479675293,
                        -0.726371169090271,
                        -0.3100367486476898,
                        -0.053228311240673065,
                        -0.6114444732666016,
                        0.28438037633895874,
                        -0.15187646448612213,
                        0.010812331922352314,
                        -0.21629418432712555,
                        4.91202918055933e-05,
                        -0.13566429913043976,
                        0.40740591287612915,
                        -0.9515699148178101,
                        -0.12827345728874207,
                        1.0046064853668213,
                        0.2647334337234497,
                        -1.0674692392349243,
                        -0.6578493118286133,
                        0.3359692394733429,
                        -0.7246171236038208,
                        0.44898736476898193,
                        -0.4397529661655426,
                        -1.251413106918335,
                        -0.36986780166625977,
                        -0.6556100249290466,
                        -0.5998716354370117,
                        -0.23253121972084045,
                        -0.038666531443595886,
                        -0.9744383692741394,
                        1.4266550540924072,
                        0.033654823899269104,
                        0.43697991967201233,
                        -0.03305555880069733,
                        0.03765186294913292,
                        -0.22524721920490265,
                        -0.3123232126235962
                    ],
                    [
                        -0.30554285645484924,
                        -0.5752926468849182,
                        0.446796715259552,
                        -0.0878896415233612,
                        0.06786680966615677,
                        0.08401660621166229,
                        0.19025804102420807,
                        -0.5282966494560242,
                        0.025364061817526817,
                        0.19898676872253418,
                        -1.2143909931182861,
                        0.7588807940483093,
                        -0.08386480808258057,
                        0.028766917064785957,
                        0.007915117777884007,
                        -0.260822594165802,
                        -0.22330915927886963,
                        -0.12209802120923996,
                        0.3049752116203308,
                        -0.011875373311340809,
                        -0.2760353684425354,
                        -0.043225716799497604,
                        -0.5542548894882202,
                        -0.29486867785453796,
                        -0.905086100101471,
                        -1.2817717790603638,
                        -0.17959678173065186,
                        0.07146133482456207,
                        0.5038394331932068,
                        -0.17047825455665588,
                        0.42298194766044617,
                        0.2564939558506012,
                        -0.43550923466682434,
                        -0.1396053582429886,
                        1.3348954916000366,
                        0.5851846933364868,
                        -0.47460445761680603,
                        -0.5946222543716431,
                        0.011437450535595417,
                        -0.04612569138407707,
                        0.5056059956550598,
                        0.7487372159957886,
                        0.535736620426178,
                        -0.0857618972659111,
                        0.40830397605895996,
                        0.04303350672125816,
                        -0.6180117130279541,
                        -0.2919352054595947
                    ],
                    [
                        -0.5018136501312256,
                        -0.20085236430168152,
                        0.4476468861103058,
                        -0.25877484679222107,
                        -0.5460092425346375,
                        0.00772272190079093,
                        -0.3168624937534332,
                        1.166130781173706,
                        -0.23212455213069916,
                        0.4925834834575653,
                        -0.04079588130116463,
                        0.8424517512321472,
                        -0.02590256556868553,
                        -0.36814677715301514,
                        0.007739697117358446,
                        -0.14043381810188293,
                        -0.18010349571704865,
                        -0.49038171768188477,
                        -0.2172718197107315,
                        -1.1172661781311035,
                        -0.17025451362133026,
                        -0.48043450713157654,
                        0.11275219917297363,
                        -1.0203620195388794,
                        0.32752078771591187,
                        0.11223171651363373,
                        -0.46489840745925903,
                        1.1291530132293701,
                        -0.09072466194629669,
                        0.23788242042064667,
                        -0.1279773861169815,
                        0.06547614932060242,
                        0.1388154774904251,
                        0.4755929410457611,
                        -0.25097060203552246,
                        -0.04609144106507301,
                        -0.1289900839328766,
                        -0.2852485477924347,
                        0.00918910838663578,
                        -0.33768823742866516,
                        -0.2904544770717621,
                        -0.369221568107605,
                        -0.6052297353744507,
                        0.14051605761051178,
                        -0.7065073251724243,
                        -0.07712407410144806,
                        -0.33284029364585876,
                        -0.4958801865577698
                    ],
                    [
                        0.25648507475852966,
                        -0.24465209245681763,
                        0.1439019739627838,
                        -0.157507061958313,
                        -0.05639618635177612,
                        -0.33690065145492554,
                        -0.018438240513205528,
                        0.4127305746078491,
                        -0.070207379758358,
                        -0.49869996309280396,
                        -0.09535932540893555,
                        0.5413889288902283,
                        0.2973331809043884,
                        -0.5436341762542725,
                        -0.08119706809520721,
                        -0.6041663885116577,
                        0.08755403757095337,
                        -0.5254242420196533,
                        -0.5202381014823914,
                        0.0125657944008708,
                        -0.17055819928646088,
                        0.14666810631752014,
                        0.07571680098772049,
                        -0.2986305058002472,
                        0.8997728228569031,
                        0.10572075843811035,
                        -0.2979826331138611,
                        0.07036302238702774,
                        0.2543622553348541,
                        0.2679162323474884,
                        -0.036797668784856796,
                        0.12358055263757706,
                        0.8337209224700928,
                        0.28355997800827026,
                        -0.2781946361064911,
                        0.004581687971949577,
                        -1.3730194568634033,
                        -0.08961845189332962,
                        -0.18356971442699432,
                        -0.3199702203273773,
                        0.12716808915138245,
                        -0.568162202835083,
                        -0.23730458319187164,
                        -0.03606342896819115,
                        -0.143757164478302,
                        0.9395438432693481,
                        -0.2912188172340393,
                        -0.20611733198165894
                    ],
                    [
                        -0.1055733859539032,
                        -0.427668958902359,
                        0.19141902029514313,
                        0.09216192364692688,
                        -0.011424348689615726,
                        0.2551901936531067,
                        -0.1467963457107544,
                        0.017430275678634644,
                        0.31231552362442017,
                        0.024430593475699425,
                        -0.32197925448417664,
                        -0.12781566381454468,
                        0.5389223098754883,
                        -0.27782419323921204,
                        0.13256116211414337,
                        -0.08637192845344543,
                        0.17258626222610474,
                        0.37526100873947144,
                        -0.33794474601745605,
                        0.0655338391661644,
                        0.1428963989019394,
                        -0.043517984449863434,
                        -0.41785743832588196,
                        0.019441133365035057,
                        -0.08367820829153061,
                        0.4020601809024811,
                        -0.2320505827665329,
                        -0.35198867321014404,
                        -0.7031861543655396,
                        -0.12743638455867767,
                        0.10585799068212509,
                        0.7168096899986267,
                        0.3203739821910858,
                        -0.26270610094070435,
                        -0.09763705730438232,
                        -0.2514094114303589,
                        -0.31343188881874084,
                        0.4516794979572296,
                        0.08522574603557587,
                        0.07342859357595444,
                        -0.14921216666698456,
                        0.008090639486908913,
                        -0.20702174305915833,
                        -0.15598323941230774,
                        0.20852205157279968,
                        0.05356837436556816,
                        -0.12860246002674103,
                        0.069663867354393
                    ],
                    [
                        -0.46506237983703613,
                        0.06461025029420853,
                        0.22480958700180054,
                        0.279141902923584,
                        0.258231520652771,
                        -0.18823054432868958,
                        -0.29139673709869385,
                        -0.33858808875083923,
                        0.6467781662940979,
                        -0.6381294131278992,
                        0.45809850096702576,
                        -0.8254567980766296,
                        -0.5284103751182556,
                        -0.06259559839963913,
                        0.24451804161071777,
                        0.07070554792881012,
                        0.7996646165847778,
                        0.4636790156364441,
                        0.5355023741722107,
                        0.5707071423530579,
                        0.45518016815185547,
                        0.13382884860038757,
                        -0.13650986552238464,
                        0.759532630443573,
                        -0.9397264122962952,
                        0.046402063220739365,
                        -0.19573721289634705,
                        -0.2585776150226593,
                        0.7636829018592834,
                        0.25867927074432373,
                        -0.7375521063804626,
                        -0.07594728469848633,
                        0.6258488893508911,
                        0.3490649461746216,
                        -0.45005112886428833,
                        -0.32599273324012756,
                        -0.3410170376300812,
                        0.0716792643070221,
                        0.3658948540687561,
                        0.1402478963136673,
                        -0.15046940743923187,
                        -0.14278456568717957,
                        -0.3396683633327484,
                        0.11836165934801102,
                        0.18788234889507294,
                        -0.20745345950126648,
                        0.4082838296890259,
                        0.014131474308669567
                    ],
                    [
                        0.13773520290851593,
                        -0.43619051575660706,
                        0.10131005197763443,
                        -0.12313628941774368,
                        -0.11090710759162903,
                        -0.07691662758588791,
                        0.06624995917081833,
                        -0.1880180686712265,
                        0.1845591515302658,
                        -0.08034516125917435,
                        0.003897294867783785,
                        0.20479324460029602,
                        -0.14375844597816467,
                        -0.006474034860730171,
                        0.09171566367149353,
                        -0.7581841349601746,
                        -0.28355586528778076,
                        0.052339330315589905,
                        0.36840951442718506,
                        -0.1237712949514389,
                        0.07128675282001495,
                        -0.4715522229671478,
                        -0.2972356677055359,
                        -0.15356603264808655,
                        -0.40422818064689636,
                        -0.4950532615184784,
                        0.114207923412323,
                        0.22265590727329254,
                        -0.013708317652344704,
                        0.1845903992652893,
                        0.10109195858240128,
                        -0.18246275186538696,
                        0.4464636743068695,
                        0.10803312808275223,
                        -0.23048627376556396,
                        -0.04686742275953293,
                        0.6855818629264832,
                        0.03958817198872566,
                        -0.11493990570306778,
                        -0.08587125688791275,
                        0.01935739815235138,
                        -0.2713780105113983,
                        -0.09930218756198883,
                        0.0265949834138155,
                        -0.17709989845752716,
                        -0.25810331106185913,
                        0.25200533866882324,
                        0.1211613342165947
                    ],
                    [
                        0.36854657530784607,
                        -0.37702178955078125,
                        0.34608182311058044,
                        0.18232575058937073,
                        0.13466864824295044,
                        0.10443897545337677,
                        0.36747702956199646,
                        0.5028418898582458,
                        0.05603618174791336,
                        -0.020227942615747452,
                        0.2656833231449127,
                        0.6642900705337524,
                        0.7670502662658691,
                        0.05017341673374176,
                        -0.2677144706249237,
                        0.09347989410161972,
                        0.5302109122276306,
                        -0.3456993103027344,
                        -0.07161112874746323,
                        -0.464546263217926,
                        -0.8595765233039856,
                        -0.12826001644134521,
                        0.24600297212600708,
                        -0.9756287336349487,
                        0.12077049911022186,
                        -0.42633435130119324,
                        0.1510360687971115,
                        -0.04911976307630539,
                        -0.12124427407979965,
                        -0.30251452326774597,
                        0.4625511169433594,
                        -0.4238053560256958,
                        -0.2389870584011078,
                        -0.47161680459976196,
                        0.5674236416816711,
                        -0.15890340507030487,
                        -0.7815535664558411,
                        0.3024548590183258,
                        0.15514005720615387,
                        -0.028100784868001938,
                        0.8621333241462708,
                        0.2076495736837387,
                        0.5871221423149109,
                        0.12621690332889557,
                        -0.315311461687088,
                        -0.053004540503025055,
                        0.08490078896284103,
                        -0.010242179967463017
                    ],
                    [
                        0.04704049602150917,
                        0.7764437198638916,
                        -0.11652923375368118,
                        -0.32497015595436096,
                        0.010236857458949089,
                        0.03366347402334213,
                        0.1148759201169014,
                        -0.08197852969169617,
                        -0.20575563609600067,
                        -0.0709741860628128,
                        -0.010169430635869503,
                        -0.3717246651649475,
                        0.052137136459350586,
                        0.10306515544652939,
                        0.10860112309455872,
                        -0.21156227588653564,
                        0.13342399895191193,
                        -0.18003425002098083,
                        -0.09589605778455734,
                        0.16907551884651184,
                        0.19951818883419037,
                        0.020022308453917503,
                        0.019673680886626244,
                        -0.20067378878593445,
                        -0.13103236258029938,
                        0.688246488571167,
                        -0.638321042060852,
                        -1.2782505750656128,
                        -1.2283073663711548,
                        0.3653758764266968,
                        0.6300271153450012,
                        0.05679238215088844,
                        0.5570077300071716,
                        -0.12480911612510681,
                        -0.4400857388973236,
                        0.28936123847961426,
                        0.13469955325126648,
                        -0.3766040802001953,
                        -0.04246649146080017,
                        -0.19664078950881958,
                        0.05635617673397064,
                        0.4847952723503113,
                        0.17466427385807037,
                        0.1823318749666214,
                        -0.2277325689792633,
                        0.05553903058171272,
                        -0.014651765115559101,
                        -0.01811063289642334
                    ]
                ],
                [
                    1.1143138408660889,
                    0.19475816190242767,
                    -0.17008242011070251,
                    1.147052526473999,
                    1.06093430519104,
                    -0.34282350540161133,
                    0.13328441977500916,
                    -2.6115410327911377,
                    0.30467700958251953,
                    -1.192214012145996,
                    0.14296254515647888,
                    -2.173060178756714,
                    0.1774916648864746,
                    0.5232824087142944,
                    0.8017741441726685,
                    0.00828547403216362,
                    -0.37507593631744385,
                    1.111645221710205,
                    0.28222155570983887,
                    3.4233016967773438,
                    -0.2919962406158447,
                    2.398073673248291,
                    0.06989113241434097,
                    3.0491530895233154,
                    0.3559604287147522,
                    -0.8049761056900024,
                    -0.3078925609588623,
                    0.5034956932067871,
                    -0.03927357867360115,
                    -0.5816233158111572,
                    0.18408460915088654,
                    -0.02476641535758972,
                    0.039743151515722275,
                    -0.027438104152679443,
                    -0.1688230335712433,
                    0.011887207627296448,
                    0.2711496651172638,
                    1.3187594413757324,
                    0.9716435670852661,
                    1.7149393558502197,
                    0.8235750794410706,
                    0.0696096122264862,
                    0.21736402809619904,
                    0.10997091233730316,
                    0.8336656093597412,
                    0.11520130187273026,
                    0.4132835268974304,
                    1.1933846473693848
                ]
            ]
        },
        {
            "type": "dense",
            "activation": "",
            "shape": [
                null,
                null,
                1
            ],
            "weights": [
                [
                    [
                        1.091333270072937
                    ],
                    [
                        -0.03496529161930084
                    ],
                    [
                        0.3226579427719116
                    ],
                    [
                        0.2779724895954132
                    ],
                    [
                        0.07237698137760162
                    ],
                    [
                        0.3057594895362854
                    ],
                    [
                        0.46475398540496826
                    ],
                    [
                        0.20318037271499634
                    ],
                    [
                        0.10587622970342636
                    ],
                    [
                        0.24836434423923492
                    ],
                    [
                        0.10338089615106583
                    ],
                    [
                        0.07703029364347458
                    ]
                ],
                [
                    0.16295084357261658
                ]
            ]
        }
    ],
    "samplerate": 48000.0,
    "author": "AIDA DSP",
    "esr": 0.023487869650125504
}
