{
    "in_shape": [
        null,
        null,
        1
    ],
    "out_gain": -4.8,
    "layers": [
        {
            "type": "lstm",
            "activation": "",
            "shape": [
                null,
                null,
                12
            ],
            "weights": [
                [
                    [
                        0.21561944484710693,
                        0.34326064586639404,
                        0.08502191305160522,
                        -0.4117184281349182,
                        -0.056885432451963425,
                        -0.19137559831142426,
                        -0.09562742710113525,
                        -0.16121773421764374,
                        0.2970544099807739,
                        -0.03488728031516075,
                        0.24301010370254517,
                        -0.019751273095607758,
                        0.0033914935775101185,
                        -0.5806399583816528,
                        -0.1304674595594406,
                        0.013836471363902092,
                        -0.11964534223079681,
                        -0.29403233528137207,
                        0.07592742145061493,
                        -0.2729816734790802,
                        0.1858520656824112,
                        0.1994878202676773,
                        0.04439298063516617,
                        -0.045194361358881,
                        0.2071198672056198,
                        1.273667573928833,
                        0.03850493207573891,
                        0.09553991258144379,
                        0.06069785729050636,
                        0.045191992074251175,
                        0.024357907474040985,
                        0.04564157873392105,
                        -0.5263053178787231,
                        0.02847040817141533,
                        -0.2176913470029831,
                        -0.0065904650837183,
                        -0.05567564070224762,
                        0.001082396018318832,
                        0.1034746989607811,
                        0.9555410742759705,
                        0.09626173973083496,
                        -0.12312809377908707,
                        -0.20448707044124603,
                        -0.2176443189382553,
                        0.17693324387073517,
                        0.00952146202325821,
                        -0.07189904898405075,
                        0.24686887860298157
                    ]
                ],
                [
                    [
                        0.03893474489450455,
                        0.0932488664984703,
                        -0.11336944997310638,
                        0.02723706141114235,
                        0.421351820230484,
                        -0.16911134123802185,
                        0.057521648705005646,
                        -0.2612978219985962,
                        0.39954090118408203,
                        -0.4064348340034485,
                        0.14986979961395264,
                        0.7081362009048462,
                        -0.3568117618560791,
                        -0.4276427924633026,
                        -0.07214850932359695,
                        0.27470818161964417,
                        -0.38777247071266174,
                        0.38556259870529175,
                        0.044157885015010834,
                        0.43211835622787476,
                        0.08383579552173615,
                        -0.03265661001205444,
                        0.3884700536727905,
                        0.6927972435951233,
                        1.0686672925949097,
                        -0.05254743620753288,
                        0.48179560899734497,
                        -0.570042073726654,
                        -0.7415202856063843,
                        -0.08074066787958145,
                        0.052099671214818954,
                        0.07300963252782822,
                        0.04249664396047592,
                        0.7200690507888794,
                        -0.11508968472480774,
                        -0.12459424138069153,
                        -0.22861158847808838,
                        -0.09260264784097672,
                        -0.04635470360517502,
                        -0.3528737425804138,
                        -0.17127761244773865,
                        0.2940160036087036,
                        0.27778905630111694,
                        0.13705144822597504,
                        0.1732891947031021,
                        -0.23148991167545319,
                        0.27233245968818665,
                        -0.40731310844421387
                    ],
                    [
                        -0.2624630630016327,
                        -0.4107059836387634,
                        -0.42448854446411133,
                        0.1716652661561966,
                        0.44445711374282837,
                        0.48580402135849,
                        0.06586482375860214,
                        0.7031874656677246,
                        -0.0011964119039475918,
                        0.2204873412847519,
                        -0.4281514883041382,
                        0.18126742541790009,
                        -0.00481453537940979,
                        0.5680842399597168,
                        -0.37441912293434143,
                        -0.17076575756072998,
                        0.40851840376853943,
                        0.5016576051712036,
                        0.020740678533911705,
                        -0.36369213461875916,
                        -0.17667241394519806,
                        -0.18243740499019623,
                        -0.17963501811027527,
                        0.21480979025363922,
                        0.13444368541240692,
                        -0.48235198855400085,
                        -0.5934410691261292,
                        -0.23454585671424866,
                        0.0748308077454567,
                        0.06270401179790497,
                        -0.1385582983493805,
                        -0.13488031923770905,
                        -1.1375572681427002,
                        -0.27902573347091675,
                        0.8748265504837036,
                        0.9454861879348755,
                        -0.019849298521876335,
                        -0.583041787147522,
                        -0.2381136268377304,
                        -0.34289035201072693,
                        -0.17477193474769592,
                        0.2524477541446686,
                        0.3579075038433075,
                        -0.2308376133441925,
                        -0.14323678612709045,
                        -0.06663284450769424,
                        -0.1160748302936554,
                        -0.17520911991596222
                    ],
                    [
                        -0.18079982697963715,
                        0.326704740524292,
                        0.04923282563686371,
                        -0.40206587314605713,
                        0.08574693650007248,
                        -0.8253515362739563,
                        -0.134450763463974,
                        -0.8389622569084167,
                        0.26098397374153137,
                        -0.4294820725917816,
                        -0.05338006839156151,
                        0.49036645889282227,
                        0.8664718866348267,
                        -0.16947214305400848,
                        0.2054288238286972,
                        0.40307652950286865,
                        0.3052452802658081,
                        0.5625820159912109,
                        0.043271757662296295,
                        1.6095057725906372,
                        0.24338077008724213,
                        0.6245301961898804,
                        0.7878323197364807,
                        0.26876482367515564,
                        -0.6934360265731812,
                        0.07293038815259933,
                        0.26629456877708435,
                        0.6078996062278748,
                        -0.20310647785663605,
                        0.007539588958024979,
                        0.007648569531738758,
                        0.23552177846431732,
                        0.054854556918144226,
                        -0.2998444139957428,
                        -0.07818875461816788,
                        0.34698423743247986,
                        0.4819187521934509,
                        0.10929985344409943,
                        0.4327797591686249,
                        -0.012810028158128262,
                        0.3002946376800537,
                        -0.06169033795595169,
                        -0.2747090458869934,
                        0.1312047243118286,
                        0.2849724590778351,
                        0.24973873794078827,
                        0.39433252811431885,
                        -0.053009435534477234
                    ],
                    [
                        -0.028648365288972855,
                        0.19859911501407623,
                        0.2866663932800293,
                        -0.05898332595825195,
                        -0.37590059638023376,
                        -0.23054030537605286,
                        -0.010293925181031227,
                        -0.6936848759651184,
                        0.27480724453926086,
                        0.03207944706082344,
                        0.3033837378025055,
                        -0.06585937738418579,
                        0.13118910789489746,
                        -0.0025431409012526274,
                        0.3325650095939636,
                        0.6041008234024048,
                        -0.09831424057483673,
                        0.3705121874809265,
                        0.06473024189472198,
                        0.8386978507041931,
                        0.08143601566553116,
                        -0.0660233423113823,
                        0.16183145344257355,
                        -0.11687444895505905,
                        0.1418774276971817,
                        -0.05990222841501236,
                        -0.29227375984191895,
                        -0.14376670122146606,
                        -0.35937491059303284,
                        0.037937503308057785,
                        -0.08974350988864899,
                        -0.39392825961112976,
                        -0.770027220249176,
                        0.18628567457199097,
                        -0.27072563767433167,
                        -0.8853784799575806,
                        0.31790316104888916,
                        0.22865238785743713,
                        0.2627534866333008,
                        0.14675293862819672,
                        0.18387629091739655,
                        -0.14279477298259735,
                        -0.09374010562896729,
                        0.22812582552433014,
                        0.26106226444244385,
                        0.24533526599407196,
                        0.32233259081840515,
                        0.4045374393463135
                    ],
                    [
                        0.17364774644374847,
                        -0.12089651077985764,
                        -0.2829425632953644,
                        -0.06879968196153641,
                        0.15587598085403442,
                        -0.14874733984470367,
                        0.2744933068752289,
                        0.6221954822540283,
                        -0.21966511011123657,
                        -0.0430743508040905,
                        -0.06282071769237518,
                        -0.13222596049308777,
                        0.455246239900589,
                        0.1282716691493988,
                        -0.3368099629878998,
                        -0.11020950973033905,
                        0.5691460371017456,
                        0.5670366883277893,
                        0.3070855736732483,
                        0.00434788316488266,
                        -0.23986227810382843,
                        -0.11458001285791397,
                        -0.2489403784275055,
                        -0.6666252017021179,
                        -0.0922345221042633,
                        0.4220345914363861,
                        -0.523949384689331,
                        0.04963367432355881,
                        -0.021949341520667076,
                        0.3090554475784302,
                        -0.5344347953796387,
                        -0.14335516095161438,
                        0.051017116755247116,
                        -0.19508114457130432,
                        0.01160581037402153,
                        -1.3509098291397095,
                        0.10962346196174622,
                        0.0332174114882946,
                        0.03617698326706886,
                        -0.04199322313070297,
                        0.29684725403785706,
                        0.14123596251010895,
                        0.0004337229474913329,
                        0.02853911742568016,
                        -0.019233547151088715,
                        0.18981118500232697,
                        0.03117498755455017,
                        0.6070345044136047
                    ],
                    [
                        -0.29101046919822693,
                        0.14245198667049408,
                        -0.174141526222229,
                        0.2213277667760849,
                        0.4054029583930969,
                        -0.45817363262176514,
                        -0.2209976613521576,
                        -0.3128500282764435,
                        0.010293308645486832,
                        0.6006829738616943,
                        -0.15237505733966827,
                        0.521167516708374,
                        -0.45407623052597046,
                        0.4544970691204071,
                        0.12211049348115921,
                        -0.47894543409347534,
                        0.4520030617713928,
                        -0.050095636397600174,
                        -0.2954413890838623,
                        -0.049993809312582016,
                        -0.37951958179473877,
                        0.09174998849630356,
                        -0.1850011944770813,
                        0.9051300883293152,
                        0.48280614614486694,
                        0.9372113347053528,
                        0.24625317752361298,
                        -0.25513023138046265,
                        -0.3422946035861969,
                        0.40142691135406494,
                        0.5616622567176819,
                        -0.19959798455238342,
                        0.46740421652793884,
                        0.2751406133174896,
                        -0.2833370566368103,
                        0.01163876336067915,
                        0.043049149215221405,
                        0.36898988485336304,
                        0.12443708628416061,
                        0.13215254247188568,
                        0.09897962212562561,
                        -0.36669760942459106,
                        -0.18358145654201508,
                        0.15521010756492615,
                        0.05793513357639313,
                        0.21774065494537354,
                        0.07198421657085419,
                        0.44407156109809875
                    ],
                    [
                        0.10795821994543076,
                        -0.03245557099580765,
                        -0.2542360723018646,
                        0.48677295446395874,
                        0.20050048828125,
                        0.6072778701782227,
                        -0.011906945146620274,
                        0.4910537004470825,
                        0.2625873386859894,
                        0.270328164100647,
                        0.06360591948032379,
                        0.09599383175373077,
                        0.09183412790298462,
                        0.017044048756361008,
                        -0.26472610235214233,
                        -0.2787160873413086,
                        0.2499379962682724,
                        -0.7013711333274841,
                        -0.18215350806713104,
                        -0.46017688512802124,
                        -0.06798001378774643,
                        0.1666915863752365,
                        0.13859784603118896,
                        0.3092939555644989,
                        -0.28974735736846924,
                        0.20325791835784912,
                        0.2797538936138153,
                        -0.11438019573688507,
                        -0.1925511360168457,
                        0.10747239738702774,
                        -0.03448982909321785,
                        0.0654529333114624,
                        0.04112355411052704,
                        -0.17935989797115326,
                        0.035621922463178635,
                        -0.6621013879776001,
                        0.01079393457621336,
                        0.0034020598977804184,
                        -0.200861856341362,
                        0.001982812536880374,
                        -0.13675503432750702,
                        -0.4309329390525818,
                        -0.29216450452804565,
                        -0.2757496237754822,
                        -0.11587783694267273,
                        -0.08705170452594757,
                        -0.21704143285751343,
                        -0.663358747959137
                    ],
                    [
                        0.14327557384967804,
                        0.08751969039440155,
                        -0.05473649874329567,
                        -0.05287662521004677,
                        0.07059801369905472,
                        0.23911753296852112,
                        -0.09085515141487122,
                        0.11524893343448639,
                        0.26814717054367065,
                        0.07147017121315002,
                        0.06913001090288162,
                        0.020431211218237877,
                        -0.005607078783214092,
                        0.03311321511864662,
                        -0.11481290310621262,
                        0.21863847970962524,
                        0.06588687002658844,
                        -0.148658886551857,
                        -0.10097481310367584,
                        -0.012561244890093803,
                        0.15154562890529633,
                        0.08978116512298584,
                        0.24110402166843414,
                        -0.1330777257680893,
                        0.16000725328922272,
                        -0.2209775596857071,
                        -0.026324909180402756,
                        -0.043055083602666855,
                        0.06921249628067017,
                        0.1486455798149109,
                        0.14446036517620087,
                        0.5016685724258423,
                        0.5962781310081482,
                        -0.14684753119945526,
                        0.6170774102210999,
                        -0.35460102558135986,
                        -0.0322127565741539,
                        0.09090238064527512,
                        -0.007549962028861046,
                        0.0711350291967392,
                        -0.016776571050286293,
                        0.22699303925037384,
                        -0.1882326602935791,
                        0.2297573834657669,
                        0.042334672063589096,
                        -0.009146751835942268,
                        -0.010563040152192116,
                        0.020580943673849106
                    ],
                    [
                        -0.42508187890052795,
                        -0.0035480631049722433,
                        0.25691044330596924,
                        0.42347267270088196,
                        0.1064145416021347,
                        -0.3003816306591034,
                        0.002548724878579378,
                        0.20590367913246155,
                        0.06225885450839996,
                        -0.23287469148635864,
                        -0.08661066740751266,
                        0.16227611899375916,
                        -0.07817120105028152,
                        -0.3855346143245697,
                        0.2868536412715912,
                        0.04383561387658119,
                        -0.11653007566928864,
                        -0.5656290054321289,
                        -0.11079513281583786,
                        -0.03923753276467323,
                        -0.045972250401973724,
                        0.03329503536224365,
                        0.07230256497859955,
                        0.08242671191692352,
                        0.566538393497467,
                        1.421460509300232,
                        -0.6124526858329773,
                        0.4831535518169403,
                        0.14174173772335052,
                        0.21295738220214844,
                        0.13789783418178558,
                        -0.4061116576194763,
                        0.18597711622714996,
                        -0.028869083151221275,
                        0.8983351588249207,
                        0.7362461090087891,
                        -0.06370352953672409,
                        -0.004100434482097626,
                        -0.08170964568853378,
                        -0.39539238810539246,
                        0.005400555208325386,
                        -0.14286811649799347,
                        -0.04802832007408142,
                        0.21834832429885864,
                        -0.080769844353199,
                        -0.08866774290800095,
                        -0.03237055987119675,
                        0.16449186205863953
                    ],
                    [
                        -0.08139560371637344,
                        -0.17613211274147034,
                        -0.5079293847084045,
                        0.4105346202850342,
                        0.38607001304626465,
                        0.3576025068759918,
                        -0.10966956615447998,
                        0.00023202072770800442,
                        -0.3796152174472809,
                        0.14642958343029022,
                        -0.3036305010318756,
                        0.27464011311531067,
                        -0.38231360912323,
                        -0.014835329726338387,
                        -0.21080166101455688,
                        -0.1388043314218521,
                        0.31268951296806335,
                        -0.30839669704437256,
                        -0.018649103119969368,
                        -0.6348660588264465,
                        -0.24586236476898193,
                        0.05436049401760101,
                        -0.36971381306648254,
                        0.580044150352478,
                        -1.1563948392868042,
                        0.3461098372936249,
                        0.7048817873001099,
                        0.08053824305534363,
                        0.007791707757860422,
                        -0.40163475275039673,
                        0.3537781834602356,
                        0.4892965853214264,
                        0.10902655124664307,
                        -0.04064469411969185,
                        -0.5158209800720215,
                        1.5519630908966064,
                        -0.07789244502782822,
                        -0.5543738007545471,
                        -0.12046931684017181,
                        -0.4339788556098938,
                        -0.28694677352905273,
                        0.001694706967100501,
                        0.2885487377643585,
                        -0.06912674754858017,
                        -0.26308509707450867,
                        -0.06450481712818146,
                        -0.14254146814346313,
                        -0.5666419267654419
                    ],
                    [
                        -0.17225489020347595,
                        -0.027233902364969254,
                        -0.19348587095737457,
                        -0.02495945245027542,
                        0.15518423914909363,
                        0.10788431763648987,
                        -0.0007458143518306315,
                        -0.09548977762460709,
                        -0.18092679977416992,
                        0.08901078999042511,
                        -0.14856992661952972,
                        -0.4627845883369446,
                        0.26570504903793335,
                        0.14949116110801697,
                        0.41608184576034546,
                        0.20582491159439087,
                        0.5191425681114197,
                        0.00035751055111177266,
                        0.004444848746061325,
                        -0.3764804005622864,
                        0.1318109929561615,
                        0.09259729832410812,
                        -0.18471410870552063,
                        -0.23520666360855103,
                        0.1348762810230255,
                        0.06455978751182556,
                        1.1585267782211304,
                        0.1791025698184967,
                        0.5830481052398682,
                        -0.034821607172489166,
                        -0.14494836330413818,
                        -0.211295947432518,
                        -0.2977997958660126,
                        1.0988237857818604,
                        0.32739511132240295,
                        -1.0604625940322876,
                        0.026609940454363823,
                        0.4466247260570526,
                        -0.09464285522699356,
                        0.30358943343162537,
                        0.1241733655333519,
                        0.09316592663526535,
                        -0.5669096112251282,
                        0.0837077721953392,
                        -0.073332279920578,
                        0.08066600561141968,
                        0.05420849099755287,
                        -0.12120052427053452
                    ],
                    [
                        -0.11193017661571503,
                        0.15059326589107513,
                        0.1265571266412735,
                        0.035894934087991714,
                        0.19826827943325043,
                        -0.17671987414360046,
                        -0.34966060519218445,
                        -0.11517035961151123,
                        -0.109457828104496,
                        0.04428650811314583,
                        0.2900488078594208,
                        1.3742095232009888,
                        0.2371441125869751,
                        -0.14214980602264404,
                        0.24102333188056946,
                        0.38461580872535706,
                        0.2712767720222473,
                        0.7400444746017456,
                        -0.24849654734134674,
                        0.16442614793777466,
                        0.08652665466070175,
                        0.049804165959358215,
                        -0.23627839982509613,
                        0.33406880497932434,
                        0.11714893579483032,
                        -0.11075357347726822,
                        -0.295437216758728,
                        -0.05670292675495148,
                        0.14182497560977936,
                        -0.5571199655532837,
                        0.15431612730026245,
                        -0.18256846070289612,
                        -0.0829857811331749,
                        -0.03212298825383186,
                        0.09389398247003555,
                        0.28498461842536926,
                        -0.41624143719673157,
                        0.3243520259857178,
                        -0.0650227814912796,
                        0.06490852683782578,
                        0.20373497903347015,
                        0.31992658972740173,
                        -0.537663996219635,
                        0.08346633613109589,
                        0.07737937569618225,
                        -0.04955373704433441,
                        -0.22625242173671722,
                        -1.1927862167358398
                    ]
                ],
                [
                    0.593306303024292,
                    1.1552670001983643,
                    0.3294554054737091,
                    -1.0103607177734375,
                    0.09238812327384949,
                    -2.240560531616211,
                    -0.19523724913597107,
                    -2.820143699645996,
                    0.338882714509964,
                    0.9994615912437439,
                    0.5837727189064026,
                    1.452988624572754,
                    -0.36836525797843933,
                    0.37558501958847046,
                    0.3702772557735443,
                    1.7553470134735107,
                    0.4997614622116089,
                    3.5417323112487793,
                    0.9194348454475403,
                    2.9821934700012207,
                    0.27182701230049133,
                    0.5454932451248169,
                    -0.18956591188907623,
                    0.075164794921875,
                    0.07487553358078003,
                    -0.1506376415491104,
                    0.541761040687561,
                    0.1440846025943756,
                    0.3876541256904602,
                    -0.03583125025033951,
                    -0.33759191632270813,
                    0.1171848401427269,
                    0.04830755293369293,
                    -0.15926247835159302,
                    0.31980517506599426,
                    0.5821936130523682,
                    1.070051670074463,
                    1.07200288772583,
                    1.3619537353515625,
                    0.19677770137786865,
                    1.1885169744491577,
                    0.7854197025299072,
                    0.40601372718811035,
                    0.2368699014186859,
                    1.294844150543213,
                    1.768258810043335,
                    1.2547309398651123,
                    0.7201411128044128
                ]
            ]
        },
        {
            "type": "dense",
            "activation": "",
            "shape": [
                null,
                null,
                1
            ],
            "weights": [
                [
                    [
                        0.05256050080060959
                    ],
                    [
                        0.23384873569011688
                    ],
                    [
                        0.10013575106859207
                    ],
                    [
                        -0.058382242918014526
                    ],
                    [
                        0.08736355602741241
                    ],
                    [
                        -0.4443085193634033
                    ],
                    [
                        0.09585686773061752
                    ],
                    [
                        -0.13435187935829163
                    ],
                    [
                        0.1268579363822937
                    ],
                    [
                        -0.07554671168327332
                    ],
                    [
                        -0.21965913474559784
                    ],
                    [
                        -1.1937717199325562
                    ]
                ],
                [
                    0.08903376758098602
                ]
            ]
        }
    ],
    "samplerate": 48000.0,
    "author": "AIDA DSP",
    "esr": 0.015422082506120205
}
