{
    "in_shape": [
        null,
        null,
        1
    ],
    "in_gain": 7.5,
    "out_gain": -1.5,
    "layers": [
        {
            "type": "lstm",
            "activation": "",
            "shape": [
                null,
                null,
                16
            ],
            "weights": [
                [
                    [
                        -0.02665274403989315,
                        -0.41749462485313416,
                        0.24234126508235931,
                        -0.24486559629440308,
                        0.09895852208137512,
                        -0.12252774834632874,
                        -0.08559989184141159,
                        -0.31112685799598694,
                        0.0206774715334177,
                        0.033481355756521225,
                        -0.25950801372528076,
                        -0.12621036171913147,
                        0.2574906349182129,
                        -0.14255324006080627,
                        0.21749576926231384,
                        -0.07208064943552017,
                        0.010704903863370419,
                        -0.18010422587394714,
                        0.1353246569633484,
                        -0.15167653560638428,
                        0.05599862337112427,
                        0.2005617320537567,
                        -0.20782367885112762,
                        -0.1521923542022705,
                        0.04024152085185051,
                        0.1040416955947876,
                        0.28367558121681213,
                        0.03590913116931915,
                        0.354009211063385,
                        -0.11049657315015793,
                        0.5616295337677002,
                        -0.18930573761463165,
                        0.07239518314599991,
                        0.15380224585533142,
                        -0.07200737297534943,
                        -0.46072378754615784,
                        -0.6759539842605591,
                        -0.08975129574537277,
                        -0.4959225356578827,
                        0.583760678768158,
                        0.9449411630630493,
                        0.5619171857833862,
                        -0.4453374147415161,
                        -0.29945966601371765,
                        0.14984753727912903,
                        1.359108328819275,
                        0.3286900222301483,
                        -0.01462145708501339,
                        0.21814274787902832,
                        0.06363990902900696,
                        0.0888385996222496,
                        -0.2773377001285553,
                        0.14067868888378143,
                        -0.053091004490852356,
                        -0.05452967435121536,
                        -1.0779974460601807,
                        0.43918517231941223,
                        0.22011038661003113,
                        -0.26683226227760315,
                        -0.024579312652349472,
                        0.20446591079235077,
                        -0.18427757918834686,
                        0.14933030307292938,
                        0.12483758479356766
                    ]
                ],
                [
                    [
                        0.10724211484193802,
                        -0.22244693338871002,
                        0.006684856954962015,
                        0.0371478796005249,
                        -0.23826852440834045,
                        -0.02555018477141857,
                        -0.24900488555431366,
                        -0.4779660999774933,
                        -0.09697520732879639,
                        -0.014880586415529251,
                        -0.02186390571296215,
                        -0.026578588411211967,
                        -0.2709569036960602,
                        -0.10568100214004517,
                        0.19346030056476593,
                        0.07090393453836441,
                        0.5068731904029846,
                        -0.13502191007137299,
                        0.009925268590450287,
                        -0.3488375246524811,
                        0.2048981487751007,
                        0.11725073307752609,
                        -0.07278189808130264,
                        -0.36088669300079346,
                        -0.026408128440380096,
                        0.04985601082444191,
                        0.25168830156326294,
                        0.1243780329823494,
                        0.020816626027226448,
                        -0.16662748157978058,
                        -0.18485184013843536,
                        0.19116541743278503,
                        -0.8663535118103027,
                        -0.14505518972873688,
                        0.5081635117530823,
                        -0.04466237500309944,
                        0.22008433938026428,
                        0.1640413999557495,
                        -0.10025157779455185,
                        -0.4411765933036804,
                        0.12820053100585938,
                        -0.3652746379375458,
                        0.254665344953537,
                        -0.13605639338493347,
                        0.7419294714927673,
                        -0.3867436647415161,
                        0.6818507313728333,
                        0.1295994371175766,
                        0.1729488968849182,
                        -0.365388423204422,
                        0.05943024531006813,
                        -0.06890667229890823,
                        -0.27347204089164734,
                        -0.012779247015714645,
                        -0.2768057584762573,
                        -0.8629064559936523,
                        0.3004577159881592,
                        -0.06973134726285934,
                        0.00416093785315752,
                        -0.013578948564827442,
                        -0.2922758162021637,
                        -0.14571990072727203,
                        0.007573599927127361,
                        0.2154407650232315
                    ],
                    [
                        0.009150379337370396,
                        0.3592219650745392,
                        -0.09798042476177216,
                        0.06721989065408707,
                        -0.08508338034152985,
                        0.05762370675802231,
                        -0.11346244066953659,
                        0.39615386724472046,
                        0.07780987024307251,
                        -0.20238588750362396,
                        0.11818184703588486,
                        0.09814535081386566,
                        -0.1202252209186554,
                        -0.2300087809562683,
                        -0.2047843486070633,
                        0.439236044883728,
                        -0.07895560562610626,
                        0.20695866644382477,
                        -0.030436484143137932,
                        -0.2413819134235382,
                        0.12535500526428223,
                        -0.22322890162467957,
                        0.0922422781586647,
                        0.17345869541168213,
                        -0.6801112294197083,
                        -0.21273109316825867,
                        0.2973383963108063,
                        0.04662608727812767,
                        0.2743247151374817,
                        0.06257528811693192,
                        -0.0631646066904068,
                        0.14904531836509705,
                        0.3351503014564514,
                        0.49447089433670044,
                        0.527006983757019,
                        0.18776580691337585,
                        -0.15450088679790497,
                        -0.4770582318305969,
                        0.20983220636844635,
                        -0.13971936702728271,
                        -0.5365681052207947,
                        -0.471793532371521,
                        -0.09493271261453629,
                        -0.11882752925157547,
                        -0.3947802782058716,
                        0.376999169588089,
                        -0.544207751750946,
                        0.8358584046363831,
                        0.008462131954729557,
                        0.4776581823825836,
                        0.10387017577886581,
                        0.1353667974472046,
                        -0.07346518337726593,
                        0.12692007422447205,
                        -0.027196213603019714,
                        0.30354365706443787,
                        -0.086472287774086,
                        -0.030140532180666924,
                        0.18569764494895935,
                        0.09127512574195862,
                        0.026088710874319077,
                        -0.22930796444416046,
                        -0.10716933012008667,
                        0.442196786403656
                    ],
                    [
                        0.3458493649959564,
                        -0.004743315279483795,
                        0.6462602615356445,
                        0.5576158761978149,
                        0.13370279967784882,
                        0.22322963178157806,
                        0.22737637162208557,
                        0.28627893328666687,
                        0.2970225214958191,
                        -0.04161326214671135,
                        0.19164757430553436,
                        0.3656667470932007,
                        0.03137297183275223,
                        0.1776292473077774,
                        0.1432732194662094,
                        0.34459975361824036,
                        -0.13040103018283844,
                        0.07142578065395355,
                        -0.23498649895191193,
                        -0.19550736248493195,
                        -0.2119518667459488,
                        0.11733514815568924,
                        -0.12702690064907074,
                        0.05834861472249031,
                        -0.15687046945095062,
                        0.14508064091205597,
                        -0.6359643936157227,
                        -0.11874675005674362,
                        -0.6803789734840393,
                        -0.11180166155099869,
                        -0.08671809732913971,
                        0.717082679271698,
                        -0.3933491110801697,
                        -0.023512618616223335,
                        0.10043883323669434,
                        -0.9433851838111877,
                        0.27970415353775024,
                        0.6544772982597351,
                        -0.38180866837501526,
                        0.024723825976252556,
                        -0.12436969578266144,
                        -0.07882460206747055,
                        0.5956979990005493,
                        -0.7104612588882446,
                        0.5081682205200195,
                        0.34765058755874634,
                        -0.07023471593856812,
                        -0.06968735158443451,
                        0.5308204293251038,
                        0.2865780293941498,
                        0.5416558980941772,
                        0.17153063416481018,
                        0.2183542251586914,
                        0.19182804226875305,
                        0.24135719239711761,
                        0.15713714063167572,
                        0.16177599132061005,
                        -0.1379680335521698,
                        0.037270016968250275,
                        0.39401087164878845,
                        -0.002196051413193345,
                        0.24516646564006805,
                        -0.22630958259105682,
                        0.7217794060707092
                    ],
                    [
                        0.10802403837442398,
                        0.18170787394046783,
                        -0.3076786696910858,
                        -0.005340223666280508,
                        -0.05568050220608711,
                        -0.34560537338256836,
                        -0.006424410734325647,
                        -0.08367431908845901,
                        -0.13901092112064362,
                        -0.08381803333759308,
                        0.2413736879825592,
                        -0.33481156826019287,
                        0.22786979377269745,
                        0.03328890725970268,
                        0.2959533631801605,
                        0.001126582152210176,
                        0.25080740451812744,
                        0.38479986786842346,
                        0.13519713282585144,
                        -0.03461356461048126,
                        0.25037193298339844,
                        0.07597076892852783,
                        0.13820354640483856,
                        0.006687639281153679,
                        0.01806093566119671,
                        -0.2837308645248413,
                        0.2036053091287613,
                        -0.5305734276771545,
                        -0.057499367743730545,
                        0.16708074510097504,
                        0.15522074699401855,
                        0.11474528908729553,
                        -0.1983799785375595,
                        0.2741018235683441,
                        0.6783817410469055,
                        0.43181875348091125,
                        -0.36323195695877075,
                        -0.02151995524764061,
                        0.11495936661958694,
                        0.008679178543388844,
                        0.22096429765224457,
                        -0.17015406489372253,
                        0.6633499264717102,
                        -0.16743433475494385,
                        0.21638469398021698,
                        0.3696775436401367,
                        0.2693015933036804,
                        0.20294412970542908,
                        0.31982579827308655,
                        0.01230812817811966,
                        0.18742498755455017,
                        -0.06350210309028625,
                        -0.036102063953876495,
                        -0.24920406937599182,
                        -0.02305234782397747,
                        -0.31354737281799316,
                        -0.2755363881587982,
                        0.03643662855029106,
                        0.28702715039253235,
                        -0.19808319211006165,
                        0.2022331953048706,
                        -0.03627272695302963,
                        0.063052237033844,
                        0.18394741415977478
                    ],
                    [
                        0.5080369114875793,
                        0.28668972849845886,
                        0.06197802349925041,
                        0.22011113166809082,
                        0.18612976372241974,
                        -0.25359833240509033,
                        -0.10010679066181183,
                        -0.19706948101520538,
                        0.21952228248119354,
                        0.2751838266849518,
                        -0.10277076065540314,
                        -0.08568281680345535,
                        0.12174156308174133,
                        -0.39308834075927734,
                        0.09317255765199661,
                        -0.044500600546598434,
                        0.3469199538230896,
                        0.031065329909324646,
                        -0.13996867835521698,
                        0.05909101665019989,
                        -0.371390700340271,
                        -0.13710051774978638,
                        0.12080027908086777,
                        -0.15156874060630798,
                        -0.052257247269153595,
                        0.039896126836538315,
                        -0.23065932095050812,
                        -0.034337058663368225,
                        -0.04201051592826843,
                        -0.02402503602206707,
                        0.15286009013652802,
                        -0.07957205176353455,
                        -0.21874815225601196,
                        0.07514838129281998,
                        -0.10667029768228531,
                        0.04844006150960922,
                        -1.1130454540252686,
                        0.2287556380033493,
                        0.43571650981903076,
                        -0.2385777086019516,
                        -0.30166810750961304,
                        -0.4819906949996948,
                        -0.5354997515678406,
                        -0.28384193778038025,
                        -0.9711788892745972,
                        -0.2762732207775116,
                        -0.17136536538600922,
                        0.22421924769878387,
                        0.7854114174842834,
                        0.3678671717643738,
                        0.028225569054484367,
                        0.158370241522789,
                        -0.10578922182321548,
                        -0.22944185137748718,
                        -0.07826905697584152,
                        -0.7795883417129517,
                        0.4725078344345093,
                        0.14318521320819855,
                        -0.12866255640983582,
                        -0.20425188541412354,
                        0.01338939182460308,
                        -0.3935840129852295,
                        0.01190161146223545,
                        -0.14322620630264282
                    ],
                    [
                        0.3455387055873871,
                        0.6689465641975403,
                        -0.12964627146720886,
                        -0.30007022619247437,
                        -0.19258005917072296,
                        0.29899901151657104,
                        0.13227209448814392,
                        0.15493319928646088,
                        -0.4542370140552521,
                        -0.09263911098241806,
                        0.08633425831794739,
                        0.15623311698436737,
                        -0.2870177924633026,
                        0.2242528349161148,
                        -1.5142837762832642,
                        -0.5915629863739014,
                        -0.031249307096004486,
                        0.3109472692012787,
                        0.6705004572868347,
                        1.1861673593521118,
                        0.15002410113811493,
                        -0.42706888914108276,
                        0.015761369839310646,
                        -0.06847274303436279,
                        0.4362136423587799,
                        0.09932022541761398,
                        -0.2433951199054718,
                        0.33337387442588806,
                        0.6014356017112732,
                        0.1721431463956833,
                        0.4987192153930664,
                        -0.47054678201675415,
                        -0.7407869696617126,
                        0.8615497350692749,
                        -0.8313726186752319,
                        -0.29094746708869934,
                        0.4277718663215637,
                        0.09294057637453079,
                        -0.4979223608970642,
                        -0.45453953742980957,
                        -0.24151630699634552,
                        0.06834457814693451,
                        0.13426855206489563,
                        -0.2565547823905945,
                        -0.4743962287902832,
                        -0.10531420260667801,
                        -0.8542829155921936,
                        -1.111601710319519,
                        0.5057915449142456,
                        0.43583160638809204,
                        -0.3231666088104248,
                        0.07650425285100937,
                        -0.09687203168869019,
                        0.09507118165493011,
                        0.18839122354984283,
                        -0.008074280805885792,
                        -0.23245322704315186,
                        -0.02116883359849453,
                        0.1552140712738037,
                        0.39188385009765625,
                        -0.13087116181850433,
                        0.2776317596435547,
                        -0.9587310552597046,
                        -0.6335941553115845
                    ],
                    [
                        -0.2081858366727829,
                        -0.005103817209601402,
                        0.38324853777885437,
                        0.28895851969718933,
                        -0.25956425070762634,
                        -0.10970106720924377,
                        0.11691287904977798,
                        -0.14008717238903046,
                        -0.13657374680042267,
                        -0.27501291036605835,
                        -0.02542404644191265,
                        -0.1183289960026741,
                        0.052888862788677216,
                        -0.14920185506343842,
                        0.5861406922340393,
                        0.04366539791226387,
                        0.06312766671180725,
                        -0.11765944957733154,
                        -0.49833860993385315,
                        -0.3149721622467041,
                        0.41008737683296204,
                        -0.10196447372436523,
                        -0.2072697877883911,
                        -0.10928995907306671,
                        0.15837298333644867,
                        -0.1961635947227478,
                        0.12903808057308197,
                        -0.08801557123661041,
                        0.22074797749519348,
                        0.2761949300765991,
                        0.11153752356767654,
                        -0.14133840799331665,
                        0.45874786376953125,
                        0.27326029539108276,
                        -0.20490719377994537,
                        0.7932418584823608,
                        -0.32810938358306885,
                        0.48424020409584045,
                        -0.44513651728630066,
                        -0.3264363706111908,
                        -0.25493764877319336,
                        -1.1157515048980713,
                        -1.5902704000473022,
                        -0.7287483811378479,
                        0.60833340883255,
                        0.7855463624000549,
                        0.16754554212093353,
                        0.6026538014411926,
                        -0.4133119583129883,
                        0.08225008100271225,
                        -0.3741443157196045,
                        -0.19397620856761932,
                        -0.24647772312164307,
                        -0.24163232743740082,
                        -0.18455490469932556,
                        -0.06233086436986923,
                        -0.20915323495864868,
                        -0.23112335801124573,
                        -0.05709142982959747,
                        -0.016991598531603813,
                        0.10346830636262894,
                        0.05109366029500961,
                        0.6458965539932251,
                        -0.03770717233419418
                    ],
                    [
                        0.3767572343349457,
                        0.14046473801136017,
                        -0.381912499666214,
                        -0.17248405516147614,
                        0.3593173027038574,
                        0.043052759021520615,
                        0.35157856345176697,
                        -0.026082327589392662,
                        -0.5966081619262695,
                        -0.42744436860084534,
                        0.2087898701429367,
                        -0.15224392712116241,
                        0.34763020277023315,
                        0.2678486704826355,
                        0.10803008079528809,
                        0.07291942089796066,
                        -0.1321558654308319,
                        0.07616334408521652,
                        -0.08831565827131271,
                        0.03107137233018875,
                        -0.11764118820428848,
                        0.12184827029705048,
                        -0.08411040157079697,
                        -0.1367882788181305,
                        -0.21785245835781097,
                        -0.07845756411552429,
                        -0.03975708782672882,
                        0.2457292526960373,
                        -0.12675993144512177,
                        0.2046099752187729,
                        0.08401697129011154,
                        -0.10919003933668137,
                        -0.6044556498527527,
                        0.37607479095458984,
                        0.11086072027683258,
                        0.20216716825962067,
                        -0.04261336848139763,
                        0.7086856961250305,
                        0.4933953583240509,
                        -0.1819755882024765,
                        -0.37788859009742737,
                        -0.8393786549568176,
                        0.9082512259483337,
                        0.007148625794798136,
                        0.5632646679878235,
                        -0.618358314037323,
                        0.3635617196559906,
                        -0.453946053981781,
                        0.3842410743236542,
                        -0.1306559443473816,
                        -0.179080992937088,
                        -0.17313086986541748,
                        0.38049665093421936,
                        0.05759500712156296,
                        0.22349300980567932,
                        -0.3636965751647949,
                        -0.16462163627147675,
                        -0.2796781659126282,
                        0.2640151381492615,
                        -0.0821022167801857,
                        0.2943275570869446,
                        0.23376716673374176,
                        -0.08566701412200928,
                        0.022829126566648483
                    ],
                    [
                        -0.20430293679237366,
                        0.1639554798603058,
                        0.18203969299793243,
                        0.005767593625932932,
                        -0.24066269397735596,
                        0.3632885813713074,
                        -0.19259151816368103,
                        0.13058626651763916,
                        0.011418480426073074,
                        0.18295125663280487,
                        -0.03323819488286972,
                        0.15637096762657166,
                        0.09369316697120667,
                        0.026613527908921242,
                        0.1935267448425293,
                        -0.07811645418405533,
                        0.07493159919977188,
                        -0.14400020241737366,
                        0.1508755385875702,
                        -0.14463834464550018,
                        0.06605583429336548,
                        0.016493679955601692,
                        -0.21211542189121246,
                        -0.09622017294168472,
                        -0.12704531848430634,
                        -0.24140392243862152,
                        -0.00842113234102726,
                        0.08284708857536316,
                        0.01363428495824337,
                        0.011225839145481586,
                        0.20843996107578278,
                        -0.2179701328277588,
                        -0.14193888008594513,
                        0.5516226291656494,
                        0.05858694016933441,
                        -0.20881740748882294,
                        0.19206249713897705,
                        1.859660029411316,
                        1.038004755973816,
                        0.16475819051265717,
                        -0.3927096128463745,
                        -1.5034595727920532,
                        0.9499416351318359,
                        0.6728854179382324,
                        -0.8674058318138123,
                        -1.6299670934677124,
                        0.4864577651023865,
                        -0.020846880972385406,
                        -0.1532759815454483,
                        0.014201720245182514,
                        0.14242719113826752,
                        -0.0945066288113594,
                        -0.2880488932132721,
                        0.0669746994972229,
                        -0.11111938953399658,
                        0.1768314093351364,
                        0.06841053813695908,
                        0.1087949201464653,
                        -0.02225198969244957,
                        0.1706441193819046,
                        0.06215725466609001,
                        0.02235342003405094,
                        0.10662303119897842,
                        0.007809399627149105
                    ],
                    [
                        -0.03725726902484894,
                        -0.20595811307430267,
                        0.0843605324625969,
                        0.04254605993628502,
                        0.07357212156057358,
                        0.14255832135677338,
                        -0.07168712466955185,
                        -0.05349922552704811,
                        0.29238685965538025,
                        0.07679419219493866,
                        -0.11006386578083038,
                        0.4870845079421997,
                        -0.04776988923549652,
                        0.12412314862012863,
                        0.23360246419906616,
                        -0.042501650750637054,
                        -0.1571381688117981,
                        -0.0714787095785141,
                        0.275840699672699,
                        0.4815674126148224,
                        -0.1586696207523346,
                        -0.11102556437253952,
                        -0.11321794986724854,
                        0.15371201932430267,
                        0.13240563869476318,
                        -0.18134023249149323,
                        -0.09746561199426651,
                        0.09703273326158524,
                        0.17452873289585114,
                        0.17316874861717224,
                        0.08207760751247406,
                        0.12921170890331268,
                        0.06037718802690506,
                        0.10851782560348511,
                        -0.5824991464614868,
                        0.19324561953544617,
                        0.6306211948394775,
                        0.5692126154899597,
                        1.095385193824768,
                        0.8051195740699768,
                        0.1063901036977768,
                        0.21164700388908386,
                        -0.049599699676036835,
                        -1.3392225503921509,
                        0.08656162768602371,
                        -0.30578118562698364,
                        -0.018476642668247223,
                        -0.3052067160606384,
                        -0.13456352055072784,
                        -0.15979820489883423,
                        0.30655279755592346,
                        -0.1184731051325798,
                        0.04284406453371048,
                        0.08818865567445755,
                        -0.10720580071210861,
                        0.32435283064842224,
                        -0.01179547980427742,
                        0.24562904238700867,
                        -0.23930907249450684,
                        0.32132023572921753,
                        -0.041302770376205444,
                        0.12143133580684662,
                        0.13195860385894775,
                        0.02253316342830658
                    ],
                    [
                        0.0035507201682776213,
                        0.2840523421764374,
                        -0.4806445837020874,
                        -0.5320034623146057,
                        0.21827711164951324,
                        -0.34781399369239807,
                        -0.271589070558548,
                        0.23264901340007782,
                        -0.1290452629327774,
                        -0.04846464470028877,
                        0.06879574060440063,
                        -0.4746207892894745,
                        0.055616915225982666,
                        -0.16188640892505646,
                        0.3638601005077362,
                        -0.2720840573310852,
                        -0.16961748898029327,
                        0.040137551724910736,
                        0.14485707879066467,
                        0.1326046586036682,
                        -0.6638908982276917,
                        0.39012277126312256,
                        -0.33147844672203064,
                        0.03682084381580353,
                        -0.055054452270269394,
                        0.06121540069580078,
                        0.05972139164805412,
                        -0.1876988261938095,
                        -0.6773961186408997,
                        0.3524710237979889,
                        -0.14813801646232605,
                        0.4304860532283783,
                        -0.4203391671180725,
                        0.010468301363289356,
                        -0.5756747722625732,
                        -1.0943679809570312,
                        0.22399401664733887,
                        0.15117023885250092,
                        0.3594757318496704,
                        -0.32734522223472595,
                        -0.15360742807388306,
                        0.10216931253671646,
                        -0.5327036380767822,
                        0.4172465205192566,
                        0.6351639628410339,
                        -0.009970062412321568,
                        0.7564223408699036,
                        0.21485057473182678,
                        0.25178420543670654,
                        0.15664158761501312,
                        -0.08596514165401459,
                        -0.04816153272986412,
                        0.15091443061828613,
                        0.17688387632369995,
                        -0.3504660427570343,
                        -0.21808598935604095,
                        -0.1321387141942978,
                        0.12793107330799103,
                        0.1785351037979126,
                        -0.07257501780986786,
                        0.007428396958857775,
                        -0.1983315497636795,
                        -0.11694365739822388,
                        -0.11441764235496521
                    ],
                    [
                        -0.36515626311302185,
                        -0.035959865897893906,
                        0.1410488784313202,
                        -0.26562559604644775,
                        -0.008330206386744976,
                        -0.7325249910354614,
                        0.020392658188939095,
                        0.1273680180311203,
                        -0.3064379394054413,
                        -0.08752217888832092,
                        -0.05490519851446152,
                        -0.3126419186592102,
                        -0.18408095836639404,
                        -0.2667832672595978,
                        1.37162184715271,
                        -0.10694786161184311,
                        0.2919759750366211,
                        -0.2152986228466034,
                        0.09603023529052734,
                        -0.5972861051559448,
                        0.22561077773571014,
                        0.40220803022384644,
                        -0.1297537088394165,
                        0.13639728724956512,
                        -0.06962710618972778,
                        0.12998567521572113,
                        -0.0023718434385955334,
                        -0.3017595708370209,
                        0.2313515841960907,
                        0.10734376311302185,
                        -0.0831223651766777,
                        0.08688294142484665,
                        -0.7194329500198364,
                        0.6562657356262207,
                        0.965213418006897,
                        0.8430889844894409,
                        0.17828354239463806,
                        1.4019917249679565,
                        0.04281162470579147,
                        -0.21308663487434387,
                        -0.3571159541606903,
                        0.9678099751472473,
                        -0.7070868015289307,
                        0.1627192348241806,
                        -0.23334664106369019,
                        -0.4312503933906555,
                        1.3980473279953003,
                        0.45625171065330505,
                        -0.58086758852005,
                        -0.3328554928302765,
                        0.3902900516986847,
                        -0.2686273157596588,
                        -0.12691231071949005,
                        -0.3301871418952942,
                        -0.16521641612052917,
                        0.58107590675354,
                        0.21456624567508698,
                        -0.08658204972743988,
                        -0.08925335109233856,
                        -0.33975204825401306,
                        -0.2893204092979431,
                        -0.21833109855651855,
                        0.9167152047157288,
                        -0.003668220480903983
                    ],
                    [
                        -0.2067120373249054,
                        -0.35457414388656616,
                        -0.41597262024879456,
                        -0.91428542137146,
                        -0.0811072364449501,
                        -0.6291720271110535,
                        -0.02147757075726986,
                        -0.13669997453689575,
                        -0.05701088532805443,
                        -0.0015672610606998205,
                        -0.4858236610889435,
                        0.10907097905874252,
                        -0.1506369560956955,
                        -0.1814524084329605,
                        0.408058226108551,
                        -0.5568005442619324,
                        -0.05646330863237381,
                        -0.16484765708446503,
                        0.5999521613121033,
                        -0.1527852863073349,
                        -0.4916786253452301,
                        0.03906597942113876,
                        0.2568279206752777,
                        0.047778863459825516,
                        0.19422194361686707,
                        0.26488059759140015,
                        -0.6679463982582092,
                        0.5229355096817017,
                        0.07800986617803574,
                        0.08965664356946945,
                        0.29311826825141907,
                        0.7043181657791138,
                        -0.04048026353120804,
                        -0.4968660771846771,
                        0.33470338582992554,
                        -0.373861163854599,
                        -0.4985625743865967,
                        -0.092557393014431,
                        -0.5716156959533691,
                        0.45316582918167114,
                        0.19700568914413452,
                        -0.08330149948596954,
                        -0.33662497997283936,
                        -0.4824415445327759,
                        -0.7323957681655884,
                        -0.7007538080215454,
                        0.6884323358535767,
                        0.40873485803604126,
                        -0.10337416082620621,
                        -0.2550656497478485,
                        -0.21329663693904877,
                        0.13148771226406097,
                        -0.34916049242019653,
                        -0.7984058856964111,
                        -0.03094414249062538,
                        -0.17210067808628082,
                        0.1458868533372879,
                        -0.21367603540420532,
                        -0.7172576785087585,
                        -0.22054935991764069,
                        -0.0802910327911377,
                        -0.10105224698781967,
                        0.6607460379600525,
                        -0.4576331675052643
                    ],
                    [
                        0.2833229899406433,
                        0.10389047861099243,
                        -0.33087843656539917,
                        0.32678887248039246,
                        -0.011198513209819794,
                        0.058805905282497406,
                        -0.32590287923812866,
                        -0.08948307484388351,
                        -0.05063798651099205,
                        -0.10291766375303268,
                        0.18489371240139008,
                        -0.12038163095712662,
                        0.18904002010822296,
                        0.02693762071430683,
                        -0.12349268794059753,
                        0.1628519743680954,
                        0.13628099858760834,
                        0.15778979659080505,
                        -0.553377091884613,
                        -0.06692609190940857,
                        0.028093261644244194,
                        -0.49108821153640747,
                        -0.009004788473248482,
                        0.04519667848944664,
                        -0.24608983099460602,
                        -0.2441561371088028,
                        -0.16864603757858276,
                        -0.39926284551620483,
                        -0.20978064835071564,
                        -0.16426631808280945,
                        -0.060505907982587814,
                        -0.0783829540014267,
                        -0.39223435521125793,
                        -0.15453152358531952,
                        -0.13936935365200043,
                        -0.031206052750349045,
                        1.1735591888427734,
                        -0.7604426145553589,
                        -0.47869786620140076,
                        0.463349848985672,
                        0.5020335912704468,
                        0.4844989478588104,
                        -1.0300942659378052,
                        0.34918534755706787,
                        0.5221706032752991,
                        -1.0006895065307617,
                        -0.6749579310417175,
                        0.2815416157245636,
                        0.4056057631969452,
                        -0.1028357669711113,
                        -0.5804224610328674,
                        -0.037705760449171066,
                        0.06527084112167358,
                        0.10121899843215942,
                        0.061669617891311646,
                        -0.4035499095916748,
                        0.09706641733646393,
                        -0.049148645251989365,
                        0.23613989353179932,
                        -0.0374663881957531,
                        0.2784372568130493,
                        -0.12152226269245148,
                        -0.6019120812416077,
                        0.2845519185066223
                    ],
                    [
                        -0.2718149423599243,
                        0.637183427810669,
                        -0.3911454677581787,
                        1.3800969123840332,
                        -0.4672558307647705,
                        0.11572045832872391,
                        -0.00916265044361353,
                        -0.027503609657287598,
                        0.13177765905857086,
                        -0.32377907633781433,
                        -0.129576176404953,
                        -0.20157133042812347,
                        0.5381901860237122,
                        0.04892566800117493,
                        0.11024600267410278,
                        0.03118753992021084,
                        0.10858280211687088,
                        -0.11209990084171295,
                        -1.2268190383911133,
                        -1.0874905586242676,
                        0.4545741379261017,
                        -0.5718895196914673,
                        -0.15195994079113007,
                        -0.08741416037082672,
                        -0.6916124224662781,
                        -0.358207106590271,
                        -0.3773456811904907,
                        -0.5188122391700745,
                        -0.48787254095077515,
                        -0.1480504423379898,
                        0.09924684464931488,
                        -0.5838875770568848,
                        0.16415666043758392,
                        -0.2753297984600067,
                        -0.47760313749313354,
                        -0.20808067917823792,
                        0.10186232626438141,
                        -0.0798702985048294,
                        0.08344274759292603,
                        0.014402520842850208,
                        -0.04999049752950668,
                        0.1588331013917923,
                        -0.27932068705558777,
                        -0.12225016206502914,
                        -1.1396580934524536,
                        0.36755093932151794,
                        0.46682900190353394,
                        0.01025259867310524,
                        -0.3266555666923523,
                        0.38159725069999695,
                        -0.5558698773384094,
                        0.13794447481632233,
                        -0.47048071026802063,
                        -0.06230034679174423,
                        0.009789359755814075,
                        0.038221575319767,
                        -0.0968121886253357,
                        -0.3390542268753052,
                        -0.3706544041633606,
                        -0.19780483841896057,
                        0.2902195155620575,
                        0.06496450304985046,
                        0.16161169111728668,
                        0.2183738797903061
                    ],
                    [
                        0.18374165892601013,
                        0.1735822856426239,
                        0.6926681399345398,
                        0.8142624497413635,
                        -0.24661855399608612,
                        0.15851742029190063,
                        0.04651299864053726,
                        0.04871046915650368,
                        0.1473921835422516,
                        0.09638375043869019,
                        -0.09650713950395584,
                        0.11569523811340332,
                        0.37269464135169983,
                        -0.10239934921264648,
                        0.5747114419937134,
                        0.31443309783935547,
                        0.3179686367511749,
                        -0.07359444350004196,
                        0.030352775007486343,
                        -0.8815950155258179,
                        0.16745014488697052,
                        0.36044931411743164,
                        -0.20237557590007782,
                        0.0629483088850975,
                        0.13653303682804108,
                        -0.09047301113605499,
                        -0.2659957706928253,
                        -0.007603811100125313,
                        0.10429921001195908,
                        -0.1233837753534317,
                        -0.028941132128238678,
                        0.5826197862625122,
                        -0.44356295466423035,
                        -0.15628091990947723,
                        0.8086713552474976,
                        0.1258103847503662,
                        0.19989383220672607,
                        0.11378082633018494,
                        -0.49913159012794495,
                        -0.15342456102371216,
                        0.19953876733779907,
                        -0.06044483184814453,
                        1.0080087184906006,
                        -0.46694910526275635,
                        -0.5312744975090027,
                        0.14801500737667084,
                        0.35986268520355225,
                        -0.19087016582489014,
                        0.22416600584983826,
                        -0.17700280249118805,
                        0.8986812829971313,
                        0.19592010974884033,
                        -0.12647882103919983,
                        0.15996451675891876,
                        -0.0618777796626091,
                        0.21610808372497559,
                        -0.2227603942155838,
                        0.030595403164625168,
                        -0.3819352984428406,
                        0.10617377609014511,
                        0.27242931723594666,
                        -0.05600066855549812,
                        0.5947973728179932,
                        0.6497501134872437
                    ]
                ],
                [
                    0.30890926718711853,
                    -0.9847741723060608,
                    -0.1764230728149414,
                    -1.211591362953186,
                    0.7853567600250244,
                    0.8859339356422424,
                    1.0038124322891235,
                    -0.2236417979001999,
                    -1.2276077270507812,
                    0.4534725546836853,
                    1.8044441938400269,
                    1.060095191001892,
                    0.9455595016479492,
                    1.063279628753662,
                    -0.7032688856124878,
                    0.6119515895843506,
                    -1.23960542678833,
                    1.3950238227844238,
                    0.7113326191902161,
                    1.6027512550354004,
                    -1.420654296875,
                    0.3098040819168091,
                    -0.6143814921379089,
                    -0.13771648705005646,
                    0.5883334875106812,
                    -0.7382291555404663,
                    -1.1387660503387451,
                    -0.5641300678253174,
                    -0.7469731569290161,
                    -0.7452760934829712,
                    0.7823057174682617,
                    -0.5750421285629272,
                    -0.29421287775039673,
                    -0.01486845314502716,
                    0.22565115988254547,
                    0.2147425264120102,
                    -0.09808246791362762,
                    0.08627621084451675,
                    -0.15410594642162323,
                    0.38767707347869873,
                    -0.11553727835416794,
                    0.07435712218284607,
                    -0.04922781139612198,
                    0.012019716203212738,
                    -0.32585546374320984,
                    0.04763665795326233,
                    -0.22357435524463654,
                    0.021163061261177063,
                    0.1345626264810562,
                    -0.027750518172979355,
                    0.7052370309829712,
                    0.026779189705848694,
                    0.5656512379646301,
                    1.674069881439209,
                    1.467025876045227,
                    -0.3409542143344879,
                    0.3328745365142822,
                    1.1235296726226807,
                    2.1105854511260986,
                    1.5837926864624023,
                    1.600451946258545,
                    1.0848244428634644,
                    0.2732011675834656,
                    0.46944862604141235
                ]
            ]
        },
        {
            "type": "dense",
            "activation": "",
            "shape": [
                null,
                null,
                1
            ],
            "weights": [
                [
                    [
                        -0.06448686122894287
                    ],
                    [
                        -0.15827466547489166
                    ],
                    [
                        0.37823688983917236
                    ],
                    [
                        0.21407872438430786
                    ],
                    [
                        0.31758490204811096
                    ],
                    [
                        0.07628412544727325
                    ],
                    [
                        -0.35085734724998474
                    ],
                    [
                        -0.20973701775074005
                    ],
                    [
                        0.061994537711143494
                    ],
                    [
                        -0.07174856215715408
                    ],
                    [
                        0.699364185333252
                    ],
                    [
                        -0.41801366209983826
                    ],
                    [
                        0.277722030878067
                    ],
                    [
                        0.13512247800827026
                    ],
                    [
                        0.13356085121631622
                    ],
                    [
                        -0.2792649567127228
                    ]
                ],
                [
                    -0.10898388177156448
                ]
            ]
        }
    ],
    "samplerate": 48000.0,
    "author": "AIDA DSP",
    "esr": 0.06946852058172226
}
